svm_type c_svc
kernel_type rbf
gamma 0.5
nr_class 3
total_sv 1455
rho -0.475048 -0.945064 -0.939578
label -1 1 2
nr_sv 1070 383 2
SV
0.5 0 3:1 11:1 14:1 19:1 39:1 42:1 55:1 64:1 67:1 73:1 75:1 76:1 80:1 83:1 
0.5 0 3:1 6:1 17:1 27:1 35:1 40:1 57:1 63:1 69:1 73:1 74:1 76:1 81:1 103:1 
0.4523328859958767 0 4:1 6:1 15:1 21:1 35:1 40:1 57:1 63:1 67:1 73:1 74:1 77:1 80:1 83:1 
0.1918717016445828 0 5:1 6:1 15:1 22:1 36:1 41:1 47:1 66:1 67:1 72:1 74:1 76:1 80:1 83:1 
0.5 0 2:1 6:1 16:1 22:1 36:1 40:1 54:1 63:1 67:1 73:1 75:1 76:1 80:1 83:1 
0.2540070464343326 0 2:1 6:1 14:1 20:1 37:1 41:1 47:1 64:1 67:1 73:1 74:1 76:1 82:1 83:1 
0.1890462178959152 0 1:1 6:1 14:1 22:1 36:1 42:1 49:1 64:1 67:1 72:1 74:1 77:1 80:1 83:1 
0.3109537821040849 0 2:1 6:1 18:1 20:1 37:1 42:1 48:1 64:1 71:1 73:1 74:1 76:1 81:1 83:1 
0.2357613452946232 0 5:1 16:1 30:1 35:1 41:1 64:1 67:1 73:1 74:1 76:1 80:1 83:1 
0.5 0 5:1 6:1 15:1 20:1 37:1 40:1 50:1 63:1 67:1 73:1 75:1 76:1 80:1 83:1 
0.5 0 5:1 7:1 16:1 29:1 39:1 40:1 48:1 63:1 67:1 73:1 74:1 76:1 78:1 83:1 
0.3446940115284146 0 1:1 11:1 18:1 20:1 37:1 42:1 59:1 62:1 71:1 72:1 74:1 76:1 80:1 83:1 
0.5 0 2:1 11:1 18:1 20:1 37:1 40:1 54:1 63:1 67:1 73:1 74:1 76:1 80:1 83:1 
0.3117005521967756 0.06008606358952423 1:1 6:1 17:1 22:1 36:1 42:1 53:1 64:1 67:1 73:1 74:1 76:1 82:1 107:1 
0.5 0 1:1 6:1 14:1 20:1 37:1 40:1 55:1 63:1 67:1 73:1 74:1 76:1 80:1 83:1 
0.3772429536724523 0 4:1 6:1 18:1 22:1 36:1 44:1 51:1 66:1 71:1 72:1 74:1 76:1 80:1 83:1 
0.5 0 2:1 6:1 15:1 19:1 39:1 40:1 52:1 63:1 67:1 73:1 74:1 76:1 82:1 83:1 
0.2725722474890414 0 3:1 6:1 16:1 19:1 39:1 42:1 48:1 62:1 67:1 73:1 74:1 76:1 78:1 83:1 
0.3834220412967685 0 1:1 10:1 18:1 22:1 36:1 42:1 56:1 64:1 67:1 73:1 74:1 76:1 80:1 100:1 
0.1085662779917224 0 5:1 6:1 14:1 20:1 37:1 41:1 55:1 64:1 67:1 72:1 74:1 76:1 78:1 83:1 
0.5 0 3:1 6:1 14:1 22:1 36:1 40:1 54:1 63:1 67:1 73:1 74:1 76:1 80:1 83:1 
0.5 0 3:1 10:1 18:1 22:1 36:1 43:1 51:1 64:1 71:1 73:1 74:1 76:1 80:1 83:1 
0.5 0 5:1 8:1 14:1 19:1 39:1 40:1 50:1 63:1 67:1 73:1 74:1 76:1 82:1 83:1 
0.4246221906081971 0.06681680583193063 3:1 7:1 18:1 22:1 36:1 40:1 50:1 63:1 67:1 73:1 74:1 76:1 82:1 83:1 
0.5 0 2:1 6:1 14:1 20:1 37:1 40:1 48:1 63:1 67:1 73:1 74:1 76:1 81:1 83:1 
0.5 0 5:1 6:1 14:1 22:1 36:1 40:1 48:1 63:1 67:1 73:1 74:1 76:1 78:1 83:1 
0.5 0 5:1 15:1 22:1 36:1 40:1 63:1 67:1 73:1 74:1 76:1 82:1 83:1 
0.5 0 1:1 15:1 21:1 35:1 45:1 62:1 68:1 72:1 74:1 77:1 80:1 93:1 
0.1523534500671447 0 3:1 6:1 14:1 20:1 37:1 41:1 55:1 66:1 71:1 72:1 74:1 76:1 80:1 83:1 
0.5 0 2:1 6:1 17:1 22:1 36:1 40:1 49:1 63:1 67:1 73:1 74:1 76:1 80:1 103:1 
0.2635752485780077 0 5:1 6:1 16:1 20:1 37:1 41:1 55:1 64:1 68:1 72:1 74:1 76:1 80:1 83:1 
0.5 0 2:1 6:1 16:1 25:1 38:1 40:1 55:1 63:1 67:1 73:1 74:1 77:1 81:1 83:1 
0.1862982710909112 0 5:1 6:1 15:1 22:1 36:1 42:1 50:1 64:1 67:1 73:1 74:1 76:1 79:1 83:1 
0.5 0 5:1 7:1 14:1 22:1 36:1 40:1 56:1 63:1 67:1 73:1 74:1 77:1 82:1 83:1 
0.3289754904976005 0 1:1 6:1 17:1 22:1 36:1 42:1 50:1 64:1 67:1 72:1 75:1 76:1 80:1 83:1 
0.3271096945710186 0 4:1 6:1 14:1 26:1 35:1 41:1 54:1 64:1 67:1 72:1 74:1 76:1 80:1 83:1 
0.5 0 3:1 6:1 15:1 22:1 36:1 40:1 48:1 63:1 67:1 73:1 74:1 76:1 78:1 83:1 
0.3782981271945912 0 1:1 6:1 17:1 20:1 37:1 42:1 51:1 64:1 67:1 72:1 75:1 76:1 80:1 83:1 
0.4412769785479917 0 5:1 7:1 15:1 22:1 36:1 42:1 56:1 66:1 67:1 73:1 74:1 76:1 81:1 83:1 
0.5 0 3:1 6:1 16:1 29:1 39:1 40:1 52:1 63:1 67:1 73:1 74:1 76:1 78:1 83:1 
0.1316877166719827 0 3:1 6:1 15:1 22:1 36:1 42:1 49:1 64:1 67:1 73:1 74:1 76:1 82:1 83:1 
0.5 0 5:1 6:1 15:1 22:1 36:1 40:1 54:1 63:1 67:1 73:1 75:1 76:1 80:1 83:1 
0.5 0 2:1 6:1 15:1 19:1 39:1 42:1 50:1 64:1 71:1 72:1 74:1 77:1 80:1 83:1 
0.5 0 4:1 6:1 18:1 25:1 38:1 40:1 57:1 63:1 67:1 73:1 74:1 76:1 82:1 83:1 
0.5 0 4:1 6:1 17:1 22:1 36:1 40:1 57:1 63:1 67:1 73:1 74:1 76:1 82:1 83:1 
0.1735073795428205 0 3:1 16:1 22:1 36:1 41:1 64:1 67:1 72:1 74:1 76:1 80:1 83:1 
0.5 0 5:1 7:1 17:1 20:1 37:1 40:1 50:1 63:1 67:1 73:1 74:1 76:1 82:1 83:1 
0.5 0 5:1 6:1 18:1 22:1 36:1 40:1 48:1 63:1 67:1 73:1 74:1 76:1 82:1 83:1 
0.5 0 4:1 6:1 16:1 22:1 36:1 40:1 48:1 63:1 67:1 73:1 74:1 76:1 80:1 83:1 
0.5 0 5:1 6:1 14:1 20:1 37:1 40:1 48:1 63:1 67:1 73:1 74:1 76:1 80:1 83:1 
0.3235665416531212 0 5:1 6:1 16:1 22:1 36:1 44:1 55:1 62:1 67:1 72:1 74:1 76:1 80:1 83:1 
0.5 0 4:1 7:1 16:1 20:1 37:1 40:1 56:1 63:1 67:1 73:1 74:1 76:1 82:1 83:1 
0.2103094205414799 0 4:1 6:1 14:1 20:1 37:1 42:1 55:1 62:1 67:1 72:1 74:1 76:1 80:1 83:1 
0.1738021312707136 0 5:1 6:1 18:1 22:1 36:1 43:1 55:1 64:1 67:1 72:1 74:1 76:1 78:1 83:1 
0.5 0 3:1 11:1 14:1 20:1 37:1 40:1 51:1 63:1 67:1 73:1 74:1 76:1 80:1 83:1 
0.3217694649824673 0 3:1 6:1 17:1 24:1 38:1 42:1 55:1 62:1 67:1 72:1 74:1 76:1 81:1 83:1 
0.1214431216142701 0 1:1 6:1 18:1 22:1 36:1 41:1 48:1 64:1 67:1 73:1 74:1 76:1 82:1 83:1 
0.5 0 3:1 6:1 14:1 20:1 37:1 40:1 48:1 63:1 67:1 73:1 74:1 77:1 81:1 83:1 
0.4347109379291282 0 1:1 6:1 14:1 25:1 38:1 42:1 59:1 64:1 67:1 73:1 74:1 76:1 82:1 83:1 
0.2982613420524504 0 1:1 6:1 17:1 21:1 35:1 42:1 55:1 62:1 68:1 72:1 74:1 76:1 78:1 83:1 
0.2859039388773661 0 2:1 6:1 14:1 20:1 37:1 41:1 51:1 66:1 67:1 72:1 74:1 76:1 80:1 83:1 
0.336954890323494 0 5:1 11:1 14:1 22:1 36:1 41:1 51:1 64:1 67:1 72:1 74:1 76:1 82:1 83:1 
0.2508725489075403 0 4:1 6:1 14:1 22:1 36:1 42:1 49:1 64:1 71:1 72:1 74:1 76:1 81:1 83:1 
0.4460850972588645 0 5:1 6:1 15:1 26:1 35:1 41:1 49:1 64:1 67:1 72:1 74:1 76:1 79:1 87:1 
0.09297970307602119 0 2:1 6:1 17:1 22:1 36:1 42:1 49:1 64:1 67:1 72:1 74:1 76:1 79:1 83:1 
0.2234815387798238 0 3:1 6:1 17:1 22:1 36:1 42:1 54:1 64:1 67:1 72:1 74:1 76:1 80:1 83:1 
0.2998321064227166 0 2:1 11:1 16:1 19:1 39:1 42:1 55:1 64:1 67:1 73:1 74:1 76:1 79:1 83:1 
0.247947720462578 0 2:1 6:1 18:1 20:1 37:1 41:1 55:1 64:1 67:1 72:1 74:1 76:1 81:1 83:1 
0.370896563792036 0 1:1 6:1 18:1 22:1 36:1 42:1 49:1 66:1 67:1 73:1 74:1 76:1 80:1 119:1 
0.2905317071263689 0 2:1 6:1 16:1 20:1 37:1 42:1 50:1 64:1 71:1 72:1 74:1 76:1 79:1 83:1 
0.2322501496461422 0 3:1 6:1 14:1 22:1 36:1 42:1 48:1 66:1 67:1 73:1 74:1 76:1 79:1 83:1 
0.2626299475377664 0 2:1 6:1 18:1 22:1 36:1 42:1 56:1 62:1 71:1 73:1 74:1 76:1 78:1 83:1 
0.5 0 5:1 6:1 16:1 20:1 37:1 42:1 55:1 65:1 71:1 72:1 74:1 76:1 80:1 101:1 
0.4370673059766254 0.07687075750700642 4:1 10:1 15:1 29:1 39:1 41:1 52:1 64:1 67:1 72:1 74:1 76:1 78:1 83:1 
0.4408477728414251 0.06314019571146359 2:1 7:1 17:1 25:1 38:1 41:1 50:1 66:1 67:1 73:1 74:1 76:1 82:1 83:1 
0.5 0 2:1 9:1 16:1 24:1 38:1 40:1 55:1 63:1 67:1 73:1 74:1 76:1 82:1 83:1 
0.204149080291233 0 1:1 6:1 18:1 31:1 35:1 42:1 50:1 65:1 67:1 72:1 74:1 76:1 78:1 83:1 
0.1674128109517012 0 5:1 6:1 15:1 20:1 37:1 44:1 48:1 64:1 67:1 73:1 74:1 76:1 80:1 83:1 
0.5 0 5:1 10:1 16:1 19:1 39:1 43:1 52:1 64:1 67:1 73:1 74:1 76:1 78:1 
0.2815734194202089 0 4:1 6:1 15:1 22:1 36:1 42:1 50:1 64:1 71:1 72:1 74:1 76:1 81:1 83:1 
0.5 0 3:1 10:1 17:1 19:1 39:1 40:1 55:1 63:1 67:1 73:1 74:1 76:1 80:1 83:1 
0.1491813306703206 0 3:1 6:1 15:1 22:1 36:1 42:1 50:1 64:1 67:1 73:1 74:1 76:1 80:1 83:1 
0.386386044039356 0 2:1 11:1 15:1 29:1 39:1 42:1 55:1 64:1 67:1 73:1 74:1 76:1 78:1 83:1 
0.2865407551402752 0 5:1 10:1 15:1 20:1 37:1 41:1 55:1 66:1 67:1 72:1 74:1 76:1 80:1 83:1 
0.3145283021012953 0 1:1 6:1 18:1 31:1 35:1 43:1 49:1 62:1 67:1 72:1 74:1 76:1 78:1 83:1 
0.5 0 2:1 7:1 15:1 22:1 36:1 40:1 48:1 63:1 67:1 73:1 74:1 76:1 80:1 83:1 
0.5 0 5:1 8:1 14:1 19:1 39:1 40:1 54:1 63:1 67:1 73:1 75:1 76:1 78:1 83:1 
0.5 0 2:1 6:1 18:1 22:1 36:1 40:1 48:1 63:1 67:1 73:1 74:1 76:1 80:1 83:1 
0.1739583265189916 0 5:1 6:1 17:1 20:1 37:1 41:1 50:1 66:1 67:1 72:1 74:1 76:1 82:1 83:1 
0.1086174428777992 0 3:1 6:1 14:1 22:1 36:1 41:1 50:1 64:1 67:1 72:1 74:1 76:1 82:1 83:1 
0.5 0 5:1 16:1 22:1 36:1 40:1 63:1 67:1 73:1 74:1 76:1 80:1 83:1 
0.5 0 3:1 6:1 15:1 19:1 39:1 40:1 52:1 63:1 68:1 73:1 74:1 76:1 81:1 
0.3045542036632076 0 2:1 6:1 17:1 33:1 35:1 42:1 57:1 64:1 67:1 73:1 74:1 76:1 80:1 103:1 
0.3809613888242245 0 1:1 6:1 15:1 29:1 39:1 42:1 50:1 64:1 67:1 73:1 74:1 76:1 78:1 83:1 
0.5 0 4:1 9:1 18:1 21:1 35:1 42:1 47:1 64:1 67:1 73:1 74:1 77:1 80:1 83:1 
0.192878906729187 0 1:1 11:1 18:1 20:1 37:1 42:1 55:1 64:1 67:1 72:1 74:1 76:1 78:1 83:1 
0.5 0.05556378502324987 3:1 7:1 17:1 20:1 37:1 43:1 49:1 62:1 67:1 72:1 74:1 76:1 80:1 95:1 
0.5 0 3:1 6:1 18:1 23:1 39:1 42:1 52:1 64:1 67:1 73:1 74:1 76:1 82:1 83:1 
0.3389000931394835 0 2:1 6:1 17:1 20:1 37:1 42:1 52:1 64:1 67:1 73:1 74:1 77:1 80:1 
0.1614457477886704 0 1:1 6:1 18:1 20:1 37:1 42:1 49:1 62:1 67:1 73:1 74:1 76:1 79:1 83:1 
0.5 0 3:1 6:1 16:1 20:1 37:1 40:1 52:1 63:1 67:1 73:1 74:1 76:1 82:1 83:1 
0.4241236125276921 0 3:1 6:1 15:1 21:1 35:1 40:1 48:1 63:1 67:1 73:1 74:1 76:1 82:1 83:1 
0.5 0 2:1 9:1 18:1 19:1 39:1 40:1 51:1 63:1 67:1 73:1 74:1 76:1 80:1 83:1 
0.5 0 4:1 16:1 22:1 36:1 40:1 63:1 67:1 73:1 74:1 76:1 80:1 83:1 
0.1984838922479164 0 2:1 6:1 17:1 22:1 36:1 42:1 59:1 65:1 71:1 73:1 74:1 76:1 80:1 83:1 
0.5 0 1:1 9:1 14:1 22:1 36:1 46:1 50:1 61:1 67:1 72:1 74:1 76:1 80:1 83:1 
0.2677498503538578 0 3:1 6:1 14:1 22:1 36:1 43:1 55:1 66:1 67:1 72:1 74:1 76:1 81:1 83:1 
0.3668177376490158 0 2:1 10:1 15:1 29:1 39:1 42:1 55:1 64:1 67:1 72:1 74:1 76:1 80:1 83:1 
0.4479155764280809 0 2:1 6:1 18:1 34:1 35:1 42:1 49:1 65:1 67:1 72:1 74:1 76:1 79:1 103:1 
0.1483005399568627 0 2:1 11:1 14:1 19:1 39:1 42:1 52:1 64:1 67:1 73:1 74:1 76:1 78:1 83:1 
0.09606327388805111 0 2:1 16:1 22:1 36:1 42:1 62:1 71:1 73:1 74:1 76:1 80:1 83:1 
0.2501773694826443 0 1:1 11:1 15:1 20:1 37:1 42:1 49:1 62:1 67:1 73:1 74:1 76:1 80:1 83:1 
0.5 0.06710614435134038 4:1 6:1 17:1 22:1 36:1 40:1 50:1 63:1 67:1 73:1 74:1 76:1 80:1 83:1 
0.1084300908959806 0 4:1 6:1 14:1 22:1 36:1 42:1 54:1 64:1 67:1 73:1 74:1 76:1 80:1 83:1 
0.5 0 3:1 6:1 18:1 19:1 39:1 40:1 50:1 61:1 67:1 72:1 74:1 76:1 78:1 83:1 
0.5 0 2:1 6:1 14:1 24:1 38:1 40:1 53:1 63:1 67:1 73:1 74:1 76:1 80:1 83:1 
0.4186602924806226 0 4:1 6:1 15:1 22:1 36:1 45:1 48:1 64:1 67:1 73:1 74:1 76:1 80:1 100:1 
0.3937969185679923 0 4:1 6:1 14:1 20:1 37:1 42:1 56:1 65:1 67:1 73:1 74:1 76:1 82:1 83:1 
0.3226353447706978 0 5:1 6:1 17:1 21:1 35:1 41:1 48:1 65:1 67:1 72:1 74:1 76:1 80:1 83:1 
0.5 0 3:1 6:1 18:1 20:1 37:1 40:1 51:1 63:1 67:1 73:1 74:1 76:1 80:1 83:1 
0.2700014397976894 0 1:1 6:1 14:1 22:1 36:1 43:1 49:1 62:1 67:1 72:1 74:1 76:1 79:1 83:1 
0.5 0 3:1 7:1 17:1 22:1 36:1 40:1 48:1 63:1 67:1 73:1 74:1 76:1 82:1 83:1 
0.4989809537802554 0 5:1 16:1 22:1 36:1 40:1 63:1 71:1 73:1 74:1 76:1 78:1 83:1 
0.5 0 2:1 6:1 17:1 25:1 38:1 40:1 54:1 63:1 69:1 73:1 74:1 76:1 80:1 83:1 
0.4417138765869947 0.08521467955723087 3:1 10:1 18:1 24:1 38:1 41:1 52:1 64:1 67:1 73:1 74:1 76:1 82:1 83:1 
0.5 0 4:1 8:1 18:1 20:1 37:1 40:1 50:1 63:1 67:1 73:1 74:1 76:1 82:1 83:1 
0.1075761330969006 0 5:1 6:1 14:1 22:1 36:1 41:1 49:1 64:1 67:1 72:1 74:1 76:1 79:1 83:1 
0.5 0 2:1 6:1 16:1 22:1 36:1 40:1 57:1 63:1 67:1 73:1 74:1 76:1 82:1 83:1 
0.5 0 3:1 6:1 18:1 22:1 36:1 41:1 51:1 66:1 67:1 72:1 74:1 77:1 82:1 83:1 
0.2554288729422225 0 1:1 6:1 15:1 22:1 36:1 42:1 53:1 62:1 71:1 72:1 74:1 76:1 78:1 83:1 
0.5 0 4:1 6:1 15:1 22:1 36:1 40:1 50:1 63:1 67:1 73:1 74:1 76:1 80:1 83:1 
0.2978929888183713 0 1:1 6:1 17:1 22:1 36:1 42:1 52:1 64:1 67:1 72:1 74:1 76:1 80:1 87:1 
0.4146728135429731 0 4:1 6:1 17:1 33:1 35:1 40:1 57:1 63:1 67:1 73:1 74:1 76:1 79:1 103:1 
0.2884925730330726 0 2:1 6:1 18:1 20:1 37:1 41:1 53:1 64:1 67:1 73:1 74:1 76:1 82:1 83:1 
0.3816893725648518 0 2:1 6:1 18:1 22:1 36:1 40:1 57:1 63:1 67:1 73:1 74:1 76:1 81:1 83:1 
0.5 0 3:1 6:1 14:1 22:1 36:1 40:1 48:1 63:1 67:1 73:1 74:1 77:1 80:1 83:1 
0.5 0 2:1 6:1 15:1 20:1 37:1 40:1 55:1 63:1 67:1 73:1 74:1 76:1 78:1 83:1 
0.5 0 2:1 10:1 15:1 22:1 36:1 42:1 59:1 65:1 71:1 73:1 74:1 77:1 80:1 83:1 
0.5 0 2:1 6:1 17:1 19:1 39:1 40:1 49:1 63:1 67:1 73:1 74:1 76:1 82:1 83:1 
0.3914337220082776 0.0569960773764959 3:1 11:1 15:1 19:1 39:1 42:1 52:1 66:1 67:1 72:1 74:1 76:1 78:1 83:1 
0.2113623412002826 0 5:1 6:1 16:1 20:1 37:1 41:1 50:1 64:1 67:1 72:1 74:1 76:1 82:1 83:1 
0.08091323580077724 0 1:1 16:1 20:1 37:1 42:1 62:1 71:1 73:1 74:1 76:1 78:1 83:1 
0.5 0 5:1 6:1 15:1 22:1 36:1 40:1 49:1 63:1 71:1 73:1 74:1 76:1 82:1 85:1 
0.2689469285038107 0 5:1 6:1 14:1 29:1 39:1 41:1 52:1 64:1 67:1 72:1 74:1 76:1 80:1 83:1 
0.2778054409855308 0 4:1 14:1 22:1 36:1 43:1 66:1 67:1 72:1 74:1 76:1 78:1 83:1 
0.4223575741552832 0 4:1 6:1 18:1 21:1 35:1 40:1 57:1 63:1 67:1 73:1 74:1 77:1 80:1 83:1 
0.1782305350175327 0 2:1 6:1 16:1 22:1 36:1 42:1 53:1 62:1 67:1 72:1 74:1 76:1 80:1 83:1 
0.5 0 2:1 6:1 14:1 22:1 36:1 40:1 51:1 63:1 67:1 73:1 74:1 76:1 82:1 83:1 
0.1160554821189974 0 1:1 6:1 16:1 20:1 37:1 42:1 53:1 64:1 67:1 73:1 74:1 76:1 78:1 83:1 
0.5 0 4:1 11:1 15:1 22:1 36:1 40:1 59:1 63:1 67:1 73:1 74:1 76:1 80:1 83:1 
0.5 0 5:1 7:1 15:1 25:1 38:1 40:1 56:1 63:1 67:1 73:1 74:1 76:1 80:1 83:1 
0.5 0 4:1 8:1 16:1 19:1 39:1 42:1 50:1 64:1 67:1 73:1 75:1 76:1 82:1 83:1 
0.3832619178839344 0 1:1 6:1 17:1 21:1 35:1 40:1 48:1 63:1 67:1 73:1 74:1 76:1 82:1 83:1 
0.5 0 3:1 6:1 16:1 22:1 36:1 40:1 57:1 63:1 67:1 73:1 75:1 76:1 80:1 83:1 
0.5 0 1:1 6:1 17:1 22:1 36:1 40:1 56:1 63:1 67:1 73:1 74:1 76:1 80:1 83:1 
0.05179407355522626 0 1:1 18:1 20:1 37:1 42:1 62:1 67:1 72:1 74:1 76:1 79:1 83:1 
0.3003090305835415 0 1:1 6:1 15:1 20:1 37:1 42:1 55:1 62:1 68:1 72:1 74:1 76:1 80:1 102:1 
0.1406755935164446 0 5:1 6:1 14:1 22:1 36:1 44:1 49:1 66:1 67:1 72:1 74:1 76:1 78:1 83:1 
0.3575848661081489 0 1:1 6:1 17:1 19:1 39:1 42:1 50:1 64:1 67:1 72:1 74:1 76:1 81:1 83:1 
0.1320732539191399 0 1:1 6:1 17:1 20:1 37:1 42:1 50:1 64:1 67:1 73:1 74:1 76:1 81:1 83:1 
0.1783444714254418 0 1:1 6:1 14:1 22:1 36:1 42:1 53:1 62:1 67:1 73:1 74:1 76:1 79:1 83:1 
0.3010801989952954 0 1:1 6:1 16:1 28:1 35:1 42:1 50:1 64:1 67:1 72:1 74:1 76:1 78:1 
0.3689019260464629 0 5:1 6:1 15:1 20:1 37:1 44:1 51:1 66:1 67:1 72:1 74:1 76:1 80:1 83:1 
0.421107637571952 0.05469426283082704 4:1 7:1 17:1 27:1 35:1 40:1 48:1 63:1 67:1 73:1 74:1 76:1 80:1 99:1 
0.5 0.09864926913348893 2:1 7:1 17:1 22:1 36:1 41:1 56:1 66:1 67:1 73:1 74:1 76:1 82:1 83:1 
0.5 0 2:1 6:1 18:1 20:1 37:1 40:1 50:1 63:1 70:1 73:1 74:1 76:1 82:1 
0.5 0 2:1 9:1 14:1 25:1 38:1 42:1 52:1 65:1 68:1 73:1 74:1 76:1 80:1 83:1 
0.5 0 5:1 7:1 15:1 20:1 37:1 40:1 51:1 63:1 67:1 73:1 74:1 76:1 78:1 83:1 
0.5 0 2:1 6:1 15:1 20:1 37:1 40:1 48:1 63:1 67:1 73:1 74:1 76:1 80:1 83:1 
0.5 0 1:1 6:1 18:1 27:1 35:1 42:1 56:1 66:1 70:1 73:1 74:1 76:1 79:1 103:1 
0.4060651134565946 0.0607097736468091 4:1 7:1 14:1 20:1 37:1 42:1 56:1 62:1 67:1 73:1 74:1 76:1 82:1 83:1 
0.3671012602601091 0 1:1 6:1 17:1 20:1 37:1 42:1 48:1 65:1 68:1 72:1 74:1 76:1 80:1 84:1 
0.5 0 3:1 6:1 18:1 22:1 36:1 40:1 48:1 63:1 67:1 73:1 74:1 76:1 81:1 83:1 
0.3341625582286462 0 4:1 6:1 18:1 22:1 36:1 41:1 49:1 66:1 71:1 73:1 74:1 76:1 78:1 83:1 
0.1537545963283081 0 2:1 6:1 18:1 20:1 37:1 42:1 50:1 64:1 67:1 73:1 74:1 76:1 81:1 83:1 
0.2843053795698329 0 2:1 10:1 17:1 20:1 37:1 42:1 55:1 64:1 67:1 73:1 74:1 76:1 80:1 83:1 
0.3906607996397581 0 3:1 6:1 18:1 31:1 35:1 40:1 56:1 63:1 67:1 73:1 74:1 76:1 79:1 103:1 
0.5 0 3:1 7:1 18:1 30:1 35:1 45:1 48:1 64:1 67:1 73:1 74:1 76:1 80:1 103:1 
0.3144763073209846 0 4:1 6:1 18:1 30:1 35:1 42:1 49:1 62:1 67:1 73:1 74:1 76:1 78:1 83:1 
0.5 0 2:1 6:1 18:1 19:1 39:1 40:1 48:1 63:1 67:1 73:1 74:1 76:1 80:1 83:1 
0.4264991424534554 0 4:1 10:1 16:1 22:1 36:1 41:1 57:1 64:1 71:1 72:1 74:1 76:1 79:1 83:1 
0.5 0.0549446279101024 5:1 6:1 15:1 25:1 38:1 44:1 52:1 64:1 67:1 72:1 74:1 76:1 79:1 83:1 
0.2129248936230542 0.08240585494251 4:1 10:1 15:1 20:1 37:1 41:1 55:1 66:1 67:1 72:1 74:1 76:1 80:1 83:1 
0.2208200146757478 0 2:1 6:1 17:1 20:1 37:1 42:1 50:1 65:1 67:1 72:1 74:1 76:1 78:1 83:1 
0.2788320155766215 0 1:1 6:1 17:1 19:1 39:1 42:1 51:1 64:1 67:1 73:1 74:1 76:1 80:1 83:1 
0.4249850526771052 0 1:1 6:1 18:1 26:1 35:1 43:1 53:1 65:1 67:1 73:1 74:1 76:1 80:1 119:1 
0.07397273867263905 0 1:1 6:1 18:1 31:1 35:1 42:1 50:1 62:1 67:1 73:1 74:1 76:1 78:1 83:1 
0.5 0 2:1 6:1 18:1 19:1 39:1 40:1 51:1 63:1 67:1 73:1 74:1 76:1 80:1 83:1 
0.4273654194245392 0 5:1 10:1 18:1 29:1 39:1 44:1 52:1 64:1 67:1 72:1 74:1 76:1 80:1 83:1 
0.4099138583014346 0 2:1 6:1 15:1 19:1 39:1 42:1 55:1 62:1 67:1 72:1 74:1 76:1 78:1 119:1 
0.5 0 5:1 6:1 15:1 33:1 35:1 40:1 53:1 63:1 67:1 73:1 74:1 76:1 82:1 
0.1908492415971038 0 2:1 6:1 18:1 22:1 36:1 43:1 57:1 64:1 67:1 73:1 74:1 76:1 81:1 83:1 
0.1510805793253586 0 2:1 6:1 14:1 22:1 36:1 42:1 49:1 62:1 67:1 72:1 74:1 76:1 79:1 83:1 
0.5 0.06010218405546115 4:1 7:1 17:1 19:1 39:1 40:1 51:1 63:1 67:1 73:1 74:1 76:1 82:1 88:1 
0.5 0 2:1 6:1 18:1 22:1 36:1 40:1 51:1 61:1 67:1 72:1 74:1 76:1 80:1 83:1 
0.5 0 3:1 7:1 18:1 22:1 36:1 40:1 51:1 63:1 67:1 73:1 74:1 76:1 82:1 83:1 
0.5 0 4:1 6:1 18:1 20:1 37:1 40:1 47:1 63:1 67:1 73:1 74:1 76:1 80:1 83:1 
0.5 0 3:1 6:1 16:1 19:1 39:1 40:1 49:1 61:1 67:1 72:1 74:1 76:1 80:1 83:1 
0.07350085754654455 0 1:1 6:1 17:1 22:1 36:1 42:1 55:1 62:1 67:1 72:1 74:1 76:1 80:1 83:1 
0.5 0 5:1 6:1 15:1 20:1 37:1 41:1 48:1 64:1 67:1 73:1 75:1 76:1 80:1 83:1 
0.5 0 3:1 10:1 17:1 20:1 37:1 40:1 48:1 63:1 67:1 73:1 74:1 77:1 80:1 83:1 
0.327200247230694 0 3:1 6:1 16:1 22:1 36:1 42:1 58:1 66:1 71:1 72:1 74:1 76:1 78:1 
0.3027237051993846 0 2:1 6:1 16:1 22:1 36:1 42:1 54:1 65:1 71:1 73:1 74:1 76:1 80:1 83:1 
0.3960114484482091 0 3:1 6:1 14:1 19:1 39:1 42:1 50:1 62:1 71:1 72:1 74:1 76:1 80:1 83:1 
0.2917198087623777 0 1:1 6:1 18:1 21:1 35:1 42:1 57:1 62:1 67:1 73:1 74:1 76:1 82:1 83:1 
0.5 0 1:1 10:1 16:1 20:1 37:1 40:1 56:1 63:1 67:1 73:1 74:1 76:1 80:1 83:1 
0.5 0 5:1 8:1 17:1 19:1 39:1 43:1 50:1 64:1 67:1 72:1 74:1 76:1 78:1 83:1 
0.1166014079064481 0 4:1 6:1 14:1 22:1 36:1 41:1 54:1 64:1 67:1 72:1 74:1 76:1 78:1 83:1 
0.5 0 5:1 8:1 15:1 20:1 37:1 41:1 51:1 64:1 67:1 73:1 74:1 76:1 82:1 83:1 
0.5 0 2:1 11:1 18:1 22:1 36:1 40:1 59:1 63:1 67:1 73:1 74:1 76:1 81:1 83:1 
0.5 0 1:1 10:1 15:1 20:1 37:1 43:1 59:1 64:1 67:1 73:1 74:1 76:1 82:1 83:1 
0.5 0 5:1 6:1 17:1 20:1 37:1 40:1 48:1 63:1 67:1 73:1 74:1 76:1 80:1 83:1 
0.1264283851066243 0 5:1 6:1 18:1 31:1 35:1 41:1 48:1 64:1 67:1 73:1 74:1 76:1 80:1 83:1 
0.2400862921413363 0 2:1 6:1 18:1 22:1 36:1 40:1 57:1 63:1 71:1 73:1 74:1 76:1 80:1 83:1 
0.1329787733564305 0 1:1 6:1 14:1 20:1 37:1 42:1 52:1 64:1 67:1 73:1 74:1 76:1 79:1 83:1 
0.1202181374906087 0 2:1 6:1 16:1 19:1 39:1 42:1 52:1 64:1 67:1 72:1 74:1 76:1 80:1 83:1 
0.3240852531604513 0 3:1 6:1 16:1 22:1 36:1 40:1 57:1 63:1 67:1 73:1 74:1 76:1 78:1 83:1 
0.5 0 5:1 7:1 18:1 22:1 36:1 44:1 51:1 66:1 68:1 72:1 74:1 76:1 82:1 93:1 
0.2385573553200102 0 1:1 6:1 18:1 31:1 35:1 42:1 56:1 62:1 67:1 73:1 74:1 76:1 79:1 83:1 
0.163045109676506 0 2:1 6:1 15:1 22:1 36:1 42:1 49:1 66:1 71:1 72:1 74:1 76:1 78:1 83:1 
0.3775635904560107 0 2:1 6:1 15:1 27:1 35:1 44:1 55:1 64:1 67:1 72:1 74:1 76:1 79:1 83:1 
0.5 0 2:1 11:1 17:1 23:1 39:1 42:1 52:1 64:1 68:1 73:1 75:1 76:1 82:1 90:1 
0.5 0 3:1 7:1 15:1 20:1 37:1 40:1 48:1 63:1 69:1 73:1 74:1 76:1 82:1 83:1 
0.3430911894497941 0 3:1 17:1 25:1 38:1 42:1 62:1 67:1 72:1 74:1 76:1 80:1 83:1 
0.1594873552113348 0 5:1 6:1 18:1 22:1 36:1 44:1 50:1 64:1 67:1 72:1 74:1 76:1 80:1 83:1 
0.3036223003385201 0 2:1 6:1 18:1 33:1 35:1 40:1 56:1 63:1 67:1 73:1 74:1 76:1 78:1 103:1 
0.5 0 4:1 6:1 18:1 22:1 36:1 40:1 50:1 63:1 67:1 73:1 75:1 76:1 82:1 83:1 
0.3680430576526306 0 1:1 6:1 18:1 19:1 39:1 42:1 47:1 64:1 71:1 73:1 74:1 76:1 80:1 
0.5 0 2:1 6:1 14:1 19:1 39:1 42:1 52:1 64:1 67:1 72:1 75:1 76:1 80:1 83:1 
0.5 0 2:1 6:1 14:1 19:1 39:1 40:1 50:1 63:1 67:1 73:1 74:1 76:1 82:1 83:1 
0.5 0 3:1 11:1 17:1 20:1 37:1 41:1 51:1 64:1 71:1 72:1 74:1 76:1 80:1 83:1 
0.4293385348141074 0 5:1 6:1 18:1 21:1 35:1 41:1 57:1 64:1 67:1 73:1 74:1 76:1 82:1 83:1 
0.5 0 5:1 6:1 16:1 22:1 36:1 40:1 52:1 63:1 67:1 73:1 75:1 76:1 80:1 83:1 
0.5 0 5:1 7:1 14:1 27:1 35:1 40:1 50:1 63:1 67:1 73:1 74:1 76:1 82:1 83:1 
0.3709882792042856 0 3:1 6:1 16:1 22:1 36:1 43:1 51:1 62:1 67:1 73:1 74:1 76:1 80:1 83:1 
0.5 0 3:1 9:1 14:1 20:1 37:1 41:1 47:1 66:1 69:1 72:1 74:1 76:1 78:1 83:1 
0.3919924529490825 0 3:1 6:1 17:1 19:1 39:1 42:1 55:1 64:1 71:1 73:1 74:1 76:1 80:1 83:1 
0.252440929736266 0 4:1 6:1 15:1 20:1 37:1 41:1 49:1 66:1 71:1 72:1 74:1 76:1 80:1 83:1 
0.5 0 3:1 6:1 18:1 19:1 39:1 40:1 51:1 61:1 67:1 72:1 74:1 76:1 82:1 88:1 
0.1426889066674286 0 1:1 16:1 25:1 38:1 42:1 62:1 67:1 73:1 74:1 76:1 80:1 83:1 
0.1238331380658075 0 2:1 6:1 15:1 22:1 36:1 41:1 48:1 64:1 67:1 73:1 74:1 76:1 80:1 83:1 
0.3182071083655147 0 1:1 6:1 16:1 22:1 36:1 42:1 49:1 62:1 67:1 72:1 75:1 76:1 78:1 83:1 
0.4357670309291211 0 2:1 7:1 17:1 19:1 39:1 42:1 47:1 64:1 67:1 73:1 74:1 76:1 81:1 83:1 
0.5 0 2:1 6:1 17:1 19:1 39:1 40:1 52:1 63:1 67:1 73:1 74:1 76:1 80:1 83:1 
0.4406849296627711 0 4:1 11:1 18:1 19:1 39:1 41:1 59:1 64:1 67:1 72:1 74:1 76:1 80:1 83:1 
0.5 0 2:1 6:1 14:1 22:1 36:1 40:1 48:1 63:1 67:1 73:1 74:1 76:1 80:1 83:1 
0.2416369262496316 0 2:1 6:1 17:1 19:1 39:1 42:1 47:1 62:1 67:1 73:1 74:1 76:1 80:1 83:1 
0.1957704286673774 0 1:1 7:1 18:1 20:1 37:1 42:1 49:1 62:1 67:1 73:1 74:1 76:1 78:1 83:1 
0.5 0 5:1 18:1 22:1 36:1 40:1 61:1 67:1 72:1 74:1 76:1 78:1 83:1 
0.5 0 3:1 11:1 18:1 29:1 39:1 40:1 59:1 63:1 71:1 73:1 74:1 76:1 80:1 83:1 
0.5 0 4:1 6:1 16:1 20:1 37:1 40:1 54:1 63:1 71:1 73:1 74:1 76:1 80:1 83:1 
0.4977383299222589 0 3:1 6:1 16:1 22:1 36:1 40:1 48:1 63:1 67:1 73:1 74:1 76:1 82:1 83:1 
0.2857705072881837 0 3:1 6:1 16:1 21:1 35:1 40:1 54:1 63:1 67:1 73:1 74:1 76:1 80:1 83:1 
0.5 0 2:1 6:1 16:1 19:1 39:1 40:1 51:1 63:1 67:1 73:1 74:1 76:1 80:1 107:1 
0.3261978687292864 0 3:1 6:1 15:1 22:1 36:1 41:1 55:1 64:1 67:1 72:1 74:1 76:1 80:1 83:1 
0.4328603125846758 0 4:1 6:1 16:1 21:1 35:1 44:1 49:1 64:1 67:1 72:1 74:1 76:1 78:1 119:1 
0.1890900608710474 0 4:1 6:1 14:1 20:1 37:1 41:1 55:1 64:1 68:1 72:1 74:1 76:1 80:1 83:1 
0.1905973513033403 0 4:1 6:1 16:1 33:1 35:1 40:1 48:1 63:1 67:1 73:1 74:1 76:1 80:1 83:1 
0.2932898101941577 0 1:1 9:1 15:1 22:1 36:1 42:1 49:1 64:1 67:1 72:1 74:1 76:1 80:1 83:1 
0.1212110014177016 0 1:1 15:1 20:1 37:1 42:1 65:1 67:1 72:1 74:1 76:1 78:1 83:1 
0.5 0 4:1 6:1 17:1 19:1 39:1 43:1 47:1 64:1 67:1 73:1 74:1 76:1 80:1 83:1 
0.3773175166206025 0.06726718537909023 3:1 6:1 17:1 24:1 38:1 41:1 50:1 66:1 67:1 72:1 74:1 76:1 80:1 83:1 
0.2585403308399487 0 4:1 6:1 14:1 22:1 36:1 41:1 52:1 64:1 67:1 72:1 74:1 76:1 81:1 83:1 
0.197951790863676 0 2:1 10:1 16:1 25:1 38:1 42:1 59:1 64:1 67:1 73:1 74:1 76:1 80:1 83:1 
0.5 0 4:1 6:1 16:1 22:1 36:1 40:1 51:1 63:1 67:1 73:1 74:1 76:1 81:1 83:1 
0.3836790353199196 0 4:1 6:1 17:1 23:1 39:1 41:1 55:1 64:1 67:1 73:1 74:1 76:1 80:1 83:1 
0.3680988539836086 0.05522868244298838 5:1 7:1 18:1 31:1 35:1 41:1 50:1 64:1 67:1 72:1 74:1 76:1 82:1 83:1 
0.5 0 3:1 6:1 15:1 22:1 36:1 40:1 54:1 63:1 67:1 73:1 74:1 76:1 80:1 83:1 
0.5 0 4:1 7:1 14:1 19:1 39:1 40:1 56:1 63:1 67:1 73:1 74:1 76:1 82:1 83:1 
0.2749923911703548 0 2:1 6:1 16:1 26:1 35:1 40:1 48:1 63:1 67:1 73:1 74:1 76:1 80:1 83:1 
0.5 0 4:1 6:1 15:1 22:1 36:1 40:1 51:1 63:1 67:1 73:1 74:1 76:1 82:1 83:1 
0.5 0.0574611100332973 5:1 7:1 15:1 22:1 36:1 40:1 50:1 63:1 68:1 73:1 74:1 76:1 82:1 93:1 
0.3707598096842166 0 5:1 6:1 17:1 22:1 36:1 41:1 51:1 66:1 67:1 72:1 74:1 76:1 79:1 83:1 
0.3028734086302145 0 1:1 6:1 16:1 20:1 37:1 42:1 50:1 62:1 68:1 73:1 74:1 76:1 80:1 83:1 
0.5 0 5:1 6:1 15:1 22:1 36:1 40:1 50:1 63:1 67:1 73:1 74:1 76:1 80:1 83:1 
0.2530246851898623 0 2:1 11:1 18:1 19:1 39:1 42:1 48:1 64:1 67:1 73:1 74:1 76:1 80:1 83:1 
0.5 0 2:1 6:1 17:1 22:1 36:1 40:1 50:1 63:1 67:1 73:1 74:1 76:1 80:1 83:1 
0.1423457049636301 0 1:1 6:1 15:1 20:1 37:1 42:1 58:1 62:1 67:1 72:1 74:1 76:1 78:1 83:1 
0.3174995062110582 0 3:1 11:1 14:1 22:1 36:1 42:1 49:1 62:1 67:1 72:1 74:1 76:1 80:1 83:1 
0.5 0 2:1 6:1 17:1 25:1 38:1 42:1 51:1 62:1 67:1 73:1 74:1 76:1 82:1 83:1 
0.5 0 1:1 6:1 14:1 19:1 39:1 40:1 49:1 63:1 67:1 73:1 74:1 76:1 78:1 83:1 
0.42695113920454 0 5:1 6:1 17:1 27:1 35:1 44:1 54:1 66:1 71:1 72:1 74:1 76:1 80:1 83:1 
0.5 0 3:1 14:1 22:1 36:1 40:1 63:1 67:1 73:1 74:1 76:1 80:1 83:1 
0.3692939095425347 0 1:1 10:1 18:1 28:1 35:1 42:1 49:1 62:1 71:1 73:1 74:1 76:1 78:1 83:1 
0.3879296350089648 0 5:1 6:1 15:1 22:1 36:1 42:1 52:1 66:1 67:1 72:1 74:1 77:1 80:1 83:1 
0.5 0 5:1 16:1 19:1 39:1 40:1 63:1 67:1 73:1 74:1 76:1 78:1 83:1 
0.4858329714668692 0 3:1 6:1 17:1 20:1 37:1 41:1 47:1 64:1 67:1 72:1 74:1 76:1 80:1 100:1 
0.3309413332605574 0 1:1 6:1 17:1 22:1 36:1 42:1 50:1 64:1 67:1 73:1 74:1 77:1 82:1 83:1 
0.1854806546000335 0 3:1 10:1 14:1 22:1 36:1 42:1 49:1 62:1 67:1 73:1 74:1 76:1 80:1 83:1 
0.5 0 1:1 6:1 15:1 20:1 37:1 40:1 55:1 61:1 69:1 72:1 74:1 76:1 81:1 83:1 
0.5 0 2:1 6:1 17:1 20:1 37:1 40:1 48:1 63:1 67:1 73:1 74:1 76:1 80:1 83:1 
0.3449873325113916 0 3:1 7:1 17:1 20:1 37:1 41:1 56:1 64:1 67:1 73:1 74:1 76:1 80:1 83:1 
0.4324401493332474 0 2:1 6:1 17:1 19:1 39:1 42:1 52:1 64:1 67:1 72:1 74:1 76:1 82:1 83:1 
0.5 0.06354566561520811 3:1 6:1 17:1 32:1 39:1 41:1 52:1 66:1 67:1 72:1 74:1 76:1 82:1 83:1 
0.1733884772012156 0 1:1 18:1 20:1 37:1 42:1 62:1 67:1 72:1 74:1 77:1 78:1 83:1 
0.07146731139004209 0 2:1 6:1 17:1 22:1 36:1 42:1 48:1 62:1 67:1 73:1 74:1 76:1 80:1 83:1 
0.3266115227987844 0 2:1 6:1 18:1 20:1 37:1 42:1 49:1 62:1 67:1 73:1 74:1 77:1 78:1 83:1 
0.3341916610653322 0 3:1 6:1 15:1 20:1 37:1 43:1 54:1 62:1 67:1 73:1 74:1 76:1 80:1 83:1 
0.3384468595924615 0 5:1 7:1 17:1 27:1 35:1 40:1 48:1 63:1 67:1 73:1 74:1 76:1 78:1 83:1 
0.2781033112014946 0 1:1 6:1 15:1 20:1 37:1 42:1 55:1 62:1 68:1 73:1 74:1 76:1 78:1 83:1 
0.3220721180275683 0 1:1 6:1 18:1 33:1 35:1 42:1 53:1 64:1 67:1 73:1 74:1 76:1 78:1 103:1 
0.1078566124281023 0 1:1 6:1 16:1 22:1 36:1 42:1 53:1 64:1 67:1 73:1 74:1 76:1 82:1 83:1 
0.5 0 5:1 14:1 19:1 39:1 40:1 63:1 67:1 73:1 74:1 76:1 78:1 83:1 
0.5 0 4:1 6:1 17:1 22:1 36:1 40:1 48:1 63:1 70:1 73:1 74:1 76:1 80:1 83:1 
0.5 0 4:1 6:1 16:1 26:1 35:1 40:1 54:1 65:1 68:1 72:1 74:1 76:1 81:1 94:1 
0.3325871890482988 0.05085251988307522 1:1 6:1 15:1 25:1 38:1 42:1 55:1 62:1 67:1 72:1 74:1 76:1 82:1 83:1 
0.338210496373005 0 1:1 10:1 18:1 31:1 35:1 42:1 49:1 64:1 67:1 73:1 74:1 76:1 80:1 83:1 
0.16279015194724 0 1:1 6:1 14:1 20:1 37:1 42:1 57:1 64:1 67:1 73:1 74:1 76:1 82:1 83:1 
0.5 0 2:1 11:1 16:1 22:1 36:1 40:1 59:1 63:1 67:1 73:1 74:1 76:1 80:1 83:1 
0.3344655072604798 0 3:1 10:1 17:1 19:1 39:1 42:1 52:1 64:1 67:1 72:1 74:1 76:1 80:1 83:1 
0.5 0 3:1 10:1 17:1 29:1 39:1 44:1 52:1 64:1 67:1 72:1 74:1 76:1 80:1 83:1 
0.5 0 2:1 6:1 16:1 22:1 36:1 40:1 54:1 63:1 67:1 73:1 74:1 76:1 80:1 83:1 
0.2790345169414278 0 4:1 6:1 15:1 22:1 36:1 42:1 57:1 64:1 69:1 73:1 74:1 76:1 80:1 83:1 
0.2082801912376223 0 1:1 6:1 16:1 22:1 36:1 42:1 52:1 66:1 67:1 72:1 74:1 76:1 82:1 83:1 
0.5 0 2:1 10:1 16:1 24:1 38:1 40:1 59:1 63:1 67:1 73:1 74:1 77:1 80:1 85:1 
0.348498749386275 0 4:1 6:1 15:1 22:1 36:1 44:1 50:1 66:1 69:1 72:1 74:1 76:1 80:1 83:1 
0.0652890620708718 0 1:1 6:1 15:1 20:1 37:1 42:1 50:1 65:1 67:1 72:1 74:1 76:1 78:1 83:1 
0.5 0 3:1 6:1 14:1 19:1 39:1 42:1 50:1 64:1 67:1 73:1 74:1 76:1 81:1 83:1 
0.5 0 5:1 10:1 14:1 22:1 36:1 40:1 51:1 63:1 69:1 73:1 74:1 76:1 82:1 83:1 
0.5 0 4:1 7:1 16:1 19:1 39:1 40:1 52:1 63:1 67:1 73:1 74:1 76:1 80:1 83:1 
0.2184265805797911 0 2:1 7:1 18:1 20:1 37:1 42:1 48:1 64:1 67:1 73:1 74:1 76:1 81:1 83:1 
0.5 0 3:1 6:1 18:1 22:1 36:1 40:1 52:1 63:1 67:1 73:1 74:1 77:1 82:1 83:1 
0.23017699668227 0 1:1 6:1 15:1 20:1 37:1 41:1 49:1 64:1 67:1 73:1 74:1 76:1 78:1 83:1 
0.273596492571383 0 5:1 16:1 21:1 35:1 42:1 66:1 67:1 73:1 74:1 76:1 80:1 83:1 
0.5 0 3:1 6:1 17:1 20:1 37:1 40:1 48:1 63:1 67:1 73:1 74:1 76:1 80:1 83:1 
0.5 0 5:1 7:1 18:1 22:1 36:1 44:1 49:1 65:1 67:1 72:1 75:1 76:1 78:1 83:1 
0.1849411588038916 0 1:1 6:1 17:1 21:1 35:1 42:1 55:1 62:1 71:1 72:1 74:1 76:1 80:1 83:1 
0.1264066141186273 0 2:1 6:1 18:1 19:1 39:1 42:1 55:1 64:1 67:1 73:1 74:1 76:1 81:1 83:1 
0.5 0 5:1 15:1 23:1 39:1 45:1 66:1 68:1 72:1 74:1 76:1 80:1 102:1 
0.5 0 5:1 6:1 15:1 22:1 36:1 40:1 48:1 63:1 67:1 73:1 74:1 76:1 80:1 83:1 
0.5 0.08365436998519746 4:1 10:1 14:1 19:1 39:1 41:1 52:1 66:1 67:1 73:1 74:1 76:1 82:1 83:1 
0.1298950255359826 0 4:1 6:1 18:1 22:1 36:1 43:1 54:1 66:1 71:1 72:1 74:1 76:1 80:1 83:1 
0.2318686318535483 0 4:1 6:1 16:1 22:1 36:1 41:1 54:1 66:1 67:1 72:1 74:1 76:1 82:1 83:1 
0.08073886277714058 0 1:1 6:1 14:1 31:1 35:1 42:1 49:1 62:1 67:1 72:1 74:1 76:1 78:1 83:1 
0.5 0 2:1 10:1 18:1 19:1 39:1 42:1 59:1 62:1 71:1 73:1 74:1 76:1 82:1 83:1 
0.5 0 2:1 6:1 17:1 20:1 37:1 40:1 54:1 63:1 67:1 73:1 74:1 76:1 80:1 83:1 
0.5 0 5:1 6:1 18:1 22:1 36:1 40:1 51:1 63:1 67:1 73:1 74:1 76:1 78:1 83:1 
0.3408159313302898 0 1:1 6:1 17:1 22:1 36:1 42:1 54:1 65:1 67:1 73:1 74:1 76:1 80:1 103:1 
0.3809919055652649 0 2:1 6:1 14:1 20:1 37:1 40:1 49:1 61:1 69:1 72:1 74:1 76:1 80:1 83:1 
0.5 0 2:1 6:1 15:1 22:1 36:1 40:1 54:1 63:1 67:1 73:1 74:1 76:1 80:1 83:1 
0.5 0 2:1 6:1 15:1 31:1 35:1 40:1 48:1 61:1 70:1 72:1 74:1 76:1 82:1 114:1 
0.5 0 4:1 6:1 15:1 19:1 39:1 40:1 50:1 63:1 67:1 73:1 74:1 76:1 82:1 83:1 
0.3887748104667948 0 4:1 6:1 16:1 22:1 36:1 41:1 54:1 62:1 71:1 72:1 74:1 76:1 80:1 83:1 
0.1733638914360072 0 1:1 6:1 18:1 20:1 37:1 42:1 57:1 62:1 71:1 73:1 74:1 76:1 80:1 83:1 
0.5 0 2:1 6:1 18:1 32:1 39:1 42:1 52:1 64:1 67:1 73:1 74:1 76:1 80:1 
0.5 0 3:1 8:1 15:1 20:1 37:1 40:1 52:1 63:1 67:1 73:1 74:1 76:1 78:1 83:1 
0.08228103244080025 0 1:1 16:1 24:1 38:1 42:1 62:1 67:1 73:1 74:1 76:1 80:1 83:1 
0.5 0 5:1 6:1 18:1 19:1 39:1 40:1 54:1 63:1 67:1 73:1 74:1 76:1 80:1 83:1 
0.1390470697785033 0 1:1 6:1 16:1 21:1 35:1 42:1 53:1 62:1 67:1 73:1 74:1 76:1 78:1 83:1 
0.2477007277899919 0 3:1 6:1 14:1 22:1 36:1 41:1 56:1 64:1 67:1 73:1 74:1 76:1 82:1 83:1 
0.2205914391188456 0 1:1 6:1 14:1 27:1 35:1 42:1 54:1 62:1 67:1 73:1 74:1 76:1 80:1 83:1 
0.5 0 4:1 6:1 16:1 20:1 37:1 40:1 48:1 63:1 67:1 73:1 74:1 76:1 80:1 83:1 
0.5 0 5:1 9:1 14:1 22:1 36:1 40:1 47:1 63:1 67:1 73:1 74:1 76:1 80:1 83:1 
0.5 0 2:1 6:1 16:1 22:1 36:1 40:1 54:1 63:1 67:1 73:1 75:1 76:1 82:1 105:1 
0.5 0 2:1 7:1 17:1 22:1 36:1 40:1 50:1 63:1 67:1 73:1 74:1 76:1 80:1 83:1 
0.5 0.05823700215244532 5:1 7:1 17:1 22:1 36:1 40:1 48:1 63:1 67:1 73:1 74:1 76:1 82:1 83:1 
0.2906043516707479 0 1:1 6:1 18:1 19:1 39:1 42:1 52:1 64:1 67:1 73:1 74:1 76:1 81:1 83:1 
0.3576542950363699 0 5:1 6:1 15:1 34:1 35:1 42:1 54:1 64:1 67:1 73:1 74:1 76:1 80:1 107:1 
0.3628154748550834 0 2:1 6:1 15:1 26:1 35:1 40:1 56:1 63:1 69:1 73:1 74:1 76:1 80:1 83:1 
0.5 0 4:1 8:1 16:1 22:1 36:1 40:1 57:1 63:1 67:1 73:1 74:1 76:1 82:1 83:1 
0.5 0 5:1 6:1 15:1 22:1 36:1 40:1 59:1 63:1 67:1 73:1 74:1 76:1 80:1 83:1 
0.3629513587256878 0 2:1 6:1 17:1 22:1 36:1 42:1 55:1 66:1 67:1 72:1 74:1 76:1 79:1 86:1 
0.5 0 5:1 7:1 14:1 19:1 39:1 40:1 52:1 63:1 67:1 73:1 74:1 76:1 82:1 83:1 
0.09916013729384257 0 1:1 6:1 15:1 22:1 36:1 42:1 54:1 64:1 67:1 72:1 74:1 76:1 78:1 83:1 
0.5 0 4:1 6:1 14:1 22:1 36:1 40:1 57:1 63:1 67:1 73:1 74:1 76:1 82:1 83:1 
0.1882944473895999 0 4:1 6:1 14:1 22:1 36:1 42:1 48:1 64:1 67:1 72:1 74:1 76:1 82:1 83:1 
0.5 0 3:1 8:1 15:1 22:1 36:1 40:1 57:1 63:1 67:1 73:1 74:1 76:1 82:1 83:1 
0.5 0 2:1 6:1 18:1 22:1 36:1 40:1 48:1 63:1 67:1 73:1 74:1 76:1 82:1 83:1 
0.5 0 5:1 9:1 17:1 19:1 39:1 42:1 55:1 64:1 67:1 73:1 74:1 77:1 80:1 83:1 
0.2557652606376268 0 1:1 6:1 18:1 19:1 39:1 42:1 55:1 62:1 67:1 72:1 74:1 76:1 80:1 83:1 
0.5 0 2:1 10:1 18:1 19:1 39:1 42:1 52:1 64:1 67:1 72:1 74:1 76:1 81:1 83:1 
0.07819437036666757 0 1:1 17:1 19:1 39:1 42:1 62:1 67:1 73:1 74:1 76:1 78:1 83:1 
0.1707672949424676 0 1:1 6:1 15:1 21:1 35:1 42:1 49:1 62:1 71:1 73:1 74:1 76:1 78:1 83:1 
0.5 0 2:1 6:1 14:1 19:1 39:1 40:1 47:1 63:1 67:1 73:1 74:1 76:1 78:1 83:1 
0.1649657979602498 0 2:1 6:1 17:1 22:1 36:1 41:1 54:1 66:1 67:1 73:1 74:1 76:1 80:1 83:1 
0.2712763004084985 0 5:1 6:1 14:1 20:1 37:1 41:1 48:1 64:1 71:1 72:1 74:1 76:1 81:1 83:1 
0.5 0.05583504079306038 3:1 6:1 17:1 22:1 36:1 43:1 57:1 65:1 67:1 73:1 74:1 76:1 82:1 103:1 
0.3894036255367512 0 3:1 11:1 15:1 22:1 36:1 43:1 48:1 64:1 67:1 73:1 74:1 76:1 81:1 83:1 
0.2683429715030104 0 5:1 6:1 16:1 22:1 36:1 42:1 49:1 64:1 71:1 72:1 74:1 76:1 79:1 83:1 
0 0.06330496159828185 1:1 6:1 17:1 22:1 36:1 42:1 50:1 62:1 67:1 72:1 74:1 76:1 78:1 83:1 
0.2942724367727534 0 1:1 17:1 31:1 35:1 42:1 62:1 71:1 73:1 74:1 76:1 80:1 83:1 
0.5 0 3:1 6:1 16:1 19:1 39:1 44:1 52:1 64:1 67:1 72:1 74:1 76:1 82:1 83:1 
0.5 0 3:1 10:1 17:1 22:1 36:1 40:1 48:1 63:1 67:1 73:1 74:1 76:1 80:1 
0.242140339791443 0 2:1 14:1 20:1 37:1 43:1 64:1 67:1 73:1 74:1 76:1 82:1 83:1 
0.3039853939559174 0 4:1 6:1 14:1 19:1 39:1 42:1 55:1 62:1 67:1 72:1 74:1 76:1 79:1 83:1 
0.4433048428243308 0 2:1 6:1 15:1 27:1 35:1 41:1 53:1 65:1 67:1 73:1 74:1 76:1 82:1 83:1 
0.1324093283355171 0 1:1 6:1 18:1 21:1 35:1 42:1 58:1 62:1 67:1 72:1 74:1 76:1 78:1 83:1 
0.3127129472677984 0 5:1 6:1 16:1 22:1 36:1 42:1 51:1 64:1 67:1 72:1 74:1 76:1 79:1 83:1 
0.5 0 2:1 6:1 15:1 19:1 39:1 40:1 52:1 63:1 67:1 73:1 74:1 76:1 82:1 83:1 
0.426027261327361 0 3:1 6:1 14:1 31:1 35:1 42:1 50:1 66:1 67:1 72:1 74:1 76:1 79:1 
0.5 0 5:1 10:1 16:1 33:1 35:1 40:1 59:1 63:1 67:1 73:1 74:1 76:1 78:1 83:1 
0.5 0 3:1 6:1 15:1 20:1 37:1 40:1 48:1 63:1 67:1 73:1 74:1 76:1 80:1 83:1 
0.2208963223676723 0 1:1 6:1 14:1 20:1 37:1 45:1 50:1 66:1 67:1 72:1 74:1 76:1 80:1 83:1 
0.5 0 4:1 10:1 14:1 19:1 39:1 40:1 52:1 61:1 67:1 72:1 74:1 76:1 81:1 83:1 
0.2961584168635062 0 2:1 6:1 15:1 33:1 35:1 42:1 57:1 64:1 67:1 73:1 74:1 76:1 80:1 112:1 
0.4241746476179215 0 3:1 6:1 17:1 19:1 39:1 41:1 52:1 64:1 67:1 72:1 74:1 76:1 80:1 83:1 
0.5 0 2:1 6:1 18:1 22:1 36:1 40:1 48:1 63:1 67:1 73:1 74:1 76:1 80:1 83:1 
0.5 0 4:1 6:1 18:1 22:1 36:1 40:1 57:1 63:1 67:1 73:1 74:1 76:1 80:1 83:1 
0.5 0 4:1 10:1 16:1 22:1 36:1 40:1 57:1 63:1 67:1 73:1 74:1 76:1 82:1 83:1 
0.5 0.06212825691870757 4:1 6:1 15:1 27:1 35:1 40:1 52:1 61:1 67:1 72:1 74:1 76:1 81:1 83:1 
0.5 0 2:1 6:1 17:1 29:1 39:1 42:1 51:1 62:1 67:1 73:1 74:1 76:1 79:1 83:1 
0.2078343165338725 0 1:1 6:1 14:1 22:1 36:1 40:1 48:1 63:1 67:1 73:1 74:1 76:1 81:1 83:1 
0.3680650311392943 0 1:1 6:1 17:1 19:1 39:1 42:1 52:1 64:1 67:1 73:1 74:1 76:1 78:1 85:1 
0.2593861477406114 0 5:1 6:1 17:1 33:1 35:1 40:1 57:1 63:1 67:1 73:1 74:1 76:1 80:1 83:1 
0.5 0 4:1 6:1 16:1 22:1 36:1 40:1 48:1 63:1 67:1 73:1 74:1 76:1 80:1 83:1 
0.5 0 2:1 6:1 15:1 22:1 36:1 40:1 48:1 61:1 67:1 72:1 74:1 76:1 81:1 83:1 
0.2702155848798 0 1:1 6:1 14:1 22:1 36:1 42:1 48:1 64:1 67:1 73:1 74:1 77:1 80:1 83:1 
0.3462454036716919 0 1:1 6:1 16:1 20:1 37:1 42:1 52:1 62:1 67:1 72:1 75:1 76:1 78:1 83:1 
0.2681313681464517 0 5:1 6:1 14:1 20:1 37:1 41:1 49:1 66:1 71:1 72:1 74:1 76:1 81:1 83:1 
0.2713254919780114 0 1:1 6:1 18:1 22:1 36:1 40:1 50:1 65:1 67:1 73:1 74:1 76:1 78:1 83:1 
0.5 0 3:1 7:1 16:1 22:1 36:1 40:1 48:1 63:1 67:1 73:1 74:1 76:1 80:1 83:1 
0.5 0 4:1 6:1 14:1 24:1 38:1 40:1 48:1 63:1 67:1 73:1 74:1 76:1 81:1 83:1 
0.227189666328306 0 2:1 6:1 15:1 22:1 36:1 42:1 48:1 64:1 67:1 73:1 74:1 76:1 80:1 114:1 
0.5 0 2:1 6:1 17:1 22:1 36:1 40:1 54:1 63:1 67:1 73:1 74:1 76:1 80:1 86:1 
0.5 0 2:1 7:1 18:1 19:1 39:1 40:1 50:1 63:1 67:1 73:1 74:1 76:1 82:1 83:1 
0.5 0 3:1 6:1 16:1 22:1 36:1 40:1 48:1 63:1 67:1 73:1 74:1 76:1 80:1 83:1 
0.1386580696805233 0 3:1 6:1 14:1 22:1 36:1 42:1 50:1 62:1 67:1 72:1 74:1 76:1 80:1 83:1 
0.2650890455922484 0 4:1 6:1 16:1 22:1 36:1 43:1 54:1 66:1 71:1 72:1 74:1 76:1 80:1 83:1 
0.1879636872232517 0 1:1 6:1 18:1 20:1 37:1 42:1 55:1 64:1 67:1 73:1 74:1 76:1 80:1 83:1 
0.132871419039641 0 2:1 7:1 14:1 19:1 39:1 42:1 52:1 64:1 67:1 73:1 74:1 76:1 82:1 83:1 
0.3754973257562525 0 3:1 7:1 18:1 20:1 37:1 42:1 50:1 64:1 67:1 73:1 74:1 76:1 82:1 83:1 
0.5 0 5:1 18:1 20:1 37:1 40:1 63:1 67:1 73:1 74:1 76:1 80:1 83:1 
0.5 0 2:1 6:1 16:1 22:1 36:1 40:1 57:1 63:1 67:1 73:1 74:1 76:1 80:1 83:1 
0.5 0 3:1 6:1 16:1 20:1 37:1 40:1 49:1 61:1 67:1 72:1 74:1 76:1 78:1 83:1 
0.4393206058422584 0 2:1 6:1 17:1 20:1 37:1 42:1 52:1 64:1 71:1 72:1 75:1 76:1 82:1 83:1 
0.5 0 3:1 11:1 18:1 22:1 36:1 40:1 55:1 63:1 67:1 73:1 75:1 76:1 80:1 83:1 
0.5 0 5:1 8:1 16:1 19:1 39:1 40:1 51:1 63:1 67:1 73:1 74:1 76:1 80:1 83:1 
0.3026578008896023 0 3:1 6:1 17:1 22:1 36:1 43:1 49:1 66:1 71:1 72:1 74:1 76:1 79:1 83:1 
0.2931223746246134 0 3:1 6:1 14:1 20:1 37:1 42:1 56:1 66:1 67:1 73:1 74:1 76:1 82:1 83:1 
0.5 0 3:1 7:1 14:1 22:1 36:1 40:1 56:1 63:1 67:1 73:1 74:1 76:1 82:1 83:1 
0.5 0 4:1 6:1 18:1 20:1 37:1 40:1 56:1 61:1 67:1 72:1 74:1 76:1 78:1 83:1 
0.5 0 3:1 6:1 16:1 22:1 36:1 40:1 48:1 63:1 67:1 73:1 74:1 76:1 80:1 83:1 
0.4033413528037511 0 3:1 10:1 16:1 22:1 36:1 42:1 52:1 66:1 71:1 72:1 74:1 76:1 79:1 83:1 
0.1241200679592455 0 5:1 6:1 14:1 22:1 36:1 44:1 55:1 66:1 67:1 72:1 74:1 76:1 80:1 83:1 
0.5 0 4:1 11:1 16:1 29:1 39:1 42:1 52:1 62:1 67:1 72:1 74:1 76:1 79:1 83:1 
0.3231007725450542 0 2:1 6:1 15:1 33:1 35:1 40:1 53:1 63:1 67:1 73:1 74:1 76:1 82:1 103:1 
0.07764242584471677 0 2:1 18:1 22:1 36:1 42:1 66:1 67:1 72:1 74:1 76:1 78:1 83:1 
0.5 0 5:1 6:1 17:1 22:1 36:1 40:1 53:1 63:1 71:1 73:1 74:1 76:1 80:1 
0.3464672148796419 0 5:1 6:1 16:1 34:1 35:1 42:1 54:1 64:1 67:1 73:1 74:1 76:1 78:1 83:1 
0.1825004937889418 0 1:1 7:1 18:1 22:1 36:1 42:1 56:1 62:1 67:1 73:1 74:1 76:1 80:1 83:1 
0.1931106635415978 0 1:1 6:1 16:1 22:1 36:1 42:1 53:1 62:1 69:1 73:1 74:1 76:1 80:1 83:1 
0.5 0 3:1 7:1 16:1 19:1 39:1 41:1 51:1 64:1 67:1 73:1 74:1 76:1 78:1 83:1 
0.5 0 2:1 7:1 17:1 22:1 36:1 40:1 48:1 63:1 67:1 73:1 74:1 76:1 81:1 83:1 
0.1764334583468788 0 4:1 6:1 15:1 22:1 36:1 44:1 50:1 64:1 67:1 72:1 74:1 76:1 80:1 83:1 
0.5 0 4:1 6:1 14:1 28:1 35:1 42:1 57:1 64:1 68:1 73:1 74:1 76:1 79:1 83:1 
0.3617482133359598 0 4:1 7:1 16:1 20:1 37:1 41:1 48:1 64:1 67:1 73:1 74:1 76:1 80:1 83:1 
0.3580168809617834 0 2:1 6:1 18:1 24:1 38:1 42:1 52:1 64:1 68:1 73:1 74:1 76:1 80:1 83:1 
0.3042295713326226 0 1:1 11:1 16:1 20:1 37:1 42:1 49:1 62:1 71:1 73:1 74:1 76:1 78:1 83:1 
0.4066069663682772 0 2:1 7:1 14:1 24:1 38:1 42:1 49:1 62:1 67:1 73:1 74:1 76:1 82:1 83:1 
0.1143397537962791 0 2:1 6:1 18:1 22:1 36:1 42:1 54:1 62:1 67:1 72:1 74:1 76:1 80:1 83:1 
0.1715112853181099 0 5:1 6:1 15:1 22:1 36:1 42:1 54:1 62:1 67:1 72:1 74:1 76:1 80:1 83:1 
0.5 0 3:1 11:1 18:1 19:1 39:1 40:1 59:1 63:1 71:1 73:1 74:1 76:1 82:1 83:1 
0.4306172746598725 0 2:1 6:1 14:1 30:1 35:1 42:1 49:1 65:1 67:1 72:1 74:1 76:1 78:1 119:1 
0.1025529848615417 0 1:1 6:1 15:1 28:1 35:1 42:1 50:1 62:1 67:1 72:1 74:1 76:1 78:1 83:1 
0.5 0 5:1 14:1 19:1 39:1 40:1 63:1 67:1 73:1 74:1 76:1 80:1 83:1 
0.5 0 2:1 6:1 14:1 22:1 36:1 40:1 52:1 63:1 67:1 73:1 74:1 76:1 82:1 83:1 
0.5 0 5:1 6:1 15:1 22:1 36:1 40:1 51:1 61:1 67:1 72:1 74:1 76:1 80:1 83:1 
0.2794233876774678 0 1:1 6:1 18:1 21:1 35:1 42:1 58:1 64:1 67:1 72:1 74:1 76:1 79:1 83:1 
0.3295108437463528 0 1:1 6:1 18:1 24:1 38:1 42:1 50:1 64:1 71:1 73:1 74:1 76:1 80:1 
0.1217018728054089 0 1:1 6:1 14:1 20:1 37:1 42:1 55:1 62:1 67:1 72:1 74:1 76:1 79:1 83:1 
0.353814239045234 0 4:1 6:1 15:1 22:1 36:1 42:1 48:1 66:1 67:1 72:1 74:1 76:1 80:1 86:1 
0.3391750888350425 0 3:1 6:1 18:1 20:1 37:1 42:1 50:1 66:1 71:1 72:1 74:1 76:1 80:1 83:1 
0.5 0 2:1 6:1 17:1 29:1 39:1 42:1 51:1 64:1 70:1 73:1 74:1 76:1 78:1 95:1 
0.1903011617959178 0 3:1 6:1 14:1 20:1 37:1 41:1 53:1 66:1 67:1 72:1 74:1 76:1 80:1 83:1 
0.05604710643574012 0 1:1 6:1 16:1 28:1 35:1 42:1 49:1 62:1 67:1 73:1 74:1 76:1 78:1 83:1 
0.1227570463275477 0 3:1 6:1 16:1 20:1 37:1 41:1 54:1 64:1 67:1 73:1 74:1 76:1 80:1 83:1 
0.5 0 5:1 6:1 17:1 31:1 35:1 40:1 57:1 63:1 67:1 73:1 74:1 76:1 80:1 83:1 
0.1382517866640403 0 2:1 6:1 16:1 20:1 37:1 41:1 55:1 64:1 67:1 72:1 74:1 76:1 79:1 83:1 
0.5 0 3:1 8:1 14:1 22:1 36:1 40:1 51:1 63:1 67:1 73:1 74:1 76:1 80:1 83:1 
0.2185775012444923 0 1:1 6:1 17:1 27:1 35:1 40:1 48:1 63:1 67:1 73:1 74:1 76:1 80:1 103:1 
0.5 0 2:1 6:1 14:1 20:1 37:1 40:1 55:1 63:1 67:1 73:1 74:1 76:1 82:1 83:1 
0.34295945821248 0 4:1 6:1 14:1 22:1 36:1 44:1 55:1 66:1 67:1 72:1 74:1 76:1 79:1 83:1 
0.3528485911760251 0 1:1 6:1 17:1 21:1 35:1 42:1 50:1 62:1 67:1 72:1 74:1 77:1 78:1 83:1 
0.5 0 2:1 7:1 18:1 27:1 35:1 40:1 52:1 63:1 67:1 73:1 74:1 76:1 82:1 83:1 
0.5 0 4:1 6:1 18:1 26:1 35:1 40:1 51:1 63:1 67:1 73:1 74:1 76:1 80:1 103:1 
0.5 0 3:1 6:1 15:1 20:1 37:1 40:1 55:1 63:1 67:1 73:1 74:1 76:1 82:1 83:1 
0.5 0 4:1 6:1 15:1 26:1 35:1 43:1 53:1 62:1 67:1 73:1 74:1 76:1 79:1 83:1 
0.4355627192811239 0 5:1 6:1 16:1 30:1 35:1 40:1 49:1 65:1 71:1 72:1 74:1 76:1 78:1 83:1 
0.131720115599534 0 1:1 6:1 16:1 20:1 37:1 42:1 50:1 62:1 71:1 72:1 74:1 76:1 78:1 83:1 
0.2572757565541977 0 1:1 16:1 24:1 38:1 42:1 65:1 67:1 73:1 74:1 76:1 78:1 83:1 
0.5 0 5:1 6:1 16:1 22:1 36:1 40:1 50:1 63:1 67:1 73:1 74:1 76:1 78:1 83:1 
0.5 0 3:1 8:1 16:1 20:1 37:1 40:1 50:1 63:1 67:1 73:1 74:1 77:1 80:1 83:1 
0.5 0 5:1 6:1 14:1 23:1 39:1 45:1 52:1 66:1 67:1 73:1 74:1 76:1 82:1 83:1 
0.5 0 2:1 11:1 16:1 29:1 39:1 40:1 52:1 63:1 67:1 73:1 74:1 76:1 78:1 83:1 
0.5 0 4:1 7:1 14:1 19:1 39:1 40:1 56:1 63:1 67:1 73:1 74:1 76:1 82:1 83:1 
0.5 0 4:1 7:1 18:1 22:1 36:1 40:1 52:1 63:1 67:1 73:1 74:1 76:1 82:1 83:1 
0.5 0 4:1 6:1 15:1 20:1 37:1 40:1 48:1 63:1 69:1 73:1 74:1 76:1 80:1 83:1 
0.2702468140145761 0 1:1 13:1 17:1 31:1 35:1 42:1 62:1 67:1 73:1 74:1 76:1 78:1 83:1 
0.5 0.06054230926062994 3:1 10:1 15:1 25:1 38:1 42:1 51:1 66:1 69:1 72:1 74:1 76:1 80:1 83:1 
0.3719662090561202 0 3:1 6:1 18:1 22:1 36:1 41:1 48:1 64:1 67:1 73:1 74:1 77:1 79:1 83:1 
0.5 0 3:1 6:1 17:1 20:1 37:1 40:1 49:1 63:1 67:1 73:1 74:1 76:1 82:1 83:1 
0.2627025681614317 0 2:1 6:1 16:1 25:1 38:1 42:1 47:1 64:1 67:1 73:1 74:1 76:1 80:1 83:1 
0.1518402654112284 0 5:1 6:1 15:1 20:1 37:1 44:1 58:1 66:1 67:1 72:1 74:1 76:1 80:1 83:1 
0.5 0 2:1 6:1 18:1 31:1 35:1 40:1 51:1 61:1 67:1 72:1 74:1 76:1 79:1 83:1 
0.1104434531231269 0 2:1 6:1 16:1 22:1 36:1 41:1 55:1 64:1 67:1 72:1 74:1 76:1 80:1 83:1 
0.5 0 1:1 6:1 14:1 25:1 38:1 40:1 57:1 63:1 67:1 73:1 74:1 76:1 80:1 83:1 
0.4322020952611777 0 3:1 6:1 16:1 22:1 36:1 42:1 52:1 64:1 67:1 72:1 74:1 77:1 81:1 83:1 
0.5 0 2:1 6:1 16:1 19:1 39:1 42:1 51:1 62:1 68:1 72:1 74:1 76:1 82:1 110:1 
0.5 0 1:1 6:1 14:1 22:1 36:1 40:1 48:1 63:1 67:1 73:1 74:1 76:1 81:1 83:1 
0.5 0 2:1 6:1 15:1 22:1 36:1 40:1 48:1 63:1 67:1 73:1 74:1 76:1 80:1 83:1 
0.5 0 4:1 16:1 31:1 35:1 40:1 61:1 67:1 72:1 74:1 76:1 78:1 95:1 
0.5 0 2:1 6:1 17:1 22:1 36:1 40:1 49:1 63:1 67:1 73:1 74:1 76:1 80:1 83:1 
0.5 0 1:1 6:1 17:1 22:1 36:1 40:1 58:1 61:1 67:1 72:1 75:1 76:1 80:1 83:1 
0.5 0 2:1 6:1 15:1 22:1 36:1 40:1 51:1 63:1 67:1 73:1 74:1 76:1 82:1 83:1 
0.5 0 5:1 17:1 29:1 39:1 40:1 63:1 67:1 73:1 74:1 76:1 82:1 83:1 
0.3481781351008791 0 5:1 17:1 25:1 38:1 42:1 64:1 67:1 73:1 74:1 76:1 78:1 83:1 
0.3093482609481011 0 4:1 6:1 18:1 27:1 35:1 40:1 48:1 63:1 67:1 73:1 74:1 76:1 80:1 83:1 
0.1245892075866678 0 5:1 6:1 16:1 22:1 36:1 41:1 55:1 66:1 67:1 72:1 74:1 76:1 81:1 83:1 
0.5 0 4:1 6:1 17:1 19:1 39:1 42:1 52:1 64:1 71:1 73:1 74:1 76:1 80:1 83:1 
0.3886940489749629 0 5:1 18:1 26:1 35:1 43:1 64:1 71:1 73:1 74:1 76:1 80:1 83:1 
0.4281942722359829 0 4:1 9:1 17:1 25:1 38:1 41:1 47:1 64:1 67:1 73:1 74:1 76:1 80:1 83:1 
0.5 0 3:1 9:1 14:1 20:1 37:1 41:1 51:1 64:1 67:1 72:1 74:1 76:1 80:1 83:1 
0.5 0 4:1 6:1 14:1 20:1 37:1 40:1 48:1 63:1 67:1 73:1 74:1 76:1 80:1 83:1 
0.08965508949400085 0 4:1 6:1 18:1 22:1 36:1 41:1 54:1 64:1 67:1 73:1 74:1 76:1 80:1 83:1 
0.2807341401772669 0 1:1 6:1 14:1 21:1 35:1 42:1 49:1 62:1 69:1 73:1 74:1 76:1 78:1 83:1 
0.5 0 5:1 6:1 14:1 30:1 35:1 40:1 57:1 63:1 71:1 73:1 74:1 76:1 78:1 83:1 
0.5 0 5:1 6:1 16:1 23:1 39:1 42:1 52:1 64:1 67:1 73:1 74:1 76:1 82:1 83:1 
0.3350342020397502 0 5:1 7:1 17:1 20:1 37:1 41:1 57:1 64:1 67:1 72:1 74:1 76:1 78:1 83:1 
0.08441313368637536 0 2:1 6:1 16:1 22:1 36:1 42:1 50:1 64:1 67:1 72:1 74:1 76:1 79:1 83:1 
0.5 0 4:1 6:1 15:1 22:1 36:1 40:1 51:1 61:1 67:1 72:1 74:1 76:1 80:1 83:1 
0.2446911407468648 0 2:1 6:1 17:1 22:1 36:1 42:1 54:1 64:1 67:1 73:1 74:1 76:1 82:1 83:1 
0.2678901019986569 0 2:1 6:1 16:1 22:1 36:1 41:1 48:1 64:1 67:1 73:1 74:1 76:1 82:1 83:1 
0.1318535413984982 0 4:1 6:1 16:1 22:1 36:1 42:1 50:1 64:1 67:1 72:1 74:1 76:1 78:1 83:1 
0.07066146518589254 0 1:1 6:1 17:1 22:1 36:1 42:1 49:1 64:1 67:1 73:1 74:1 76:1 79:1 83:1 
0.1150527248136937 0 5:1 15:1 22:1 36:1 44:1 64:1 67:1 72:1 74:1 76:1 78:1 83:1 
0.5 0 1:1 6:1 15:1 20:1 37:1 40:1 55:1 63:1 71:1 73:1 74:1 76:1 80:1 83:1 
0.05863551667359901 0 3:1 6:1 15:1 22:1 36:1 42:1 54:1 64:1 67:1 72:1 74:1 76:1 80:1 83:1 
0.5 0 1:1 6:1 14:1 19:1 39:1 40:1 55:1 62:1 69:1 72:1 75:1 76:1 78:1 83:1 
0.4399193280771762 0 5:1 6:1 16:1 27:1 35:1 45:1 54:1 64:1 67:1 73:1 74:1 76:1 80:1 114:1 
0.4234964630252949 0 4:1 6:1 15:1 21:1 35:1 42:1 53:1 65:1 71:1 72:1 74:1 76:1 80:1 83:1 
0.4397864543875614 0 5:1 6:1 17:1 24:1 38:1 41:1 55:1 64:1 67:1 73:1 74:1 77:1 80:1 83:1 
0.3014004055882952 0 5:1 6:1 14:1 31:1 35:1 44:1 55:1 64:1 67:1 72:1 74:1 76:1 78:1 83:1 
0.4343699990254573 0 3:1 6:1 14:1 20:1 37:1 41:1 55:1 64:1 67:1 72:1 75:1 76:1 80:1 83:1 
0.5 0 1:1 7:1 18:1 26:1 35:1 42:1 52:1 64:1 67:1 73:1 74:1 76:1 79:1 103:1 
0.3749974851077385 0 2:1 6:1 14:1 19:1 39:1 42:1 55:1 62:1 68:1 72:1 74:1 76:1 78:1 83:1 
0.5 0 5:1 6:1 16:1 24:1 38:1 40:1 50:1 61:1 67:1 72:1 75:1 76:1 80:1 83:1 
0.5 0.07329670246445522 4:1 17:1 25:1 38:1 41:1 64:1 67:1 73:1 74:1 76:1 82:1 83:1 
0.5 0 3:1 6:1 17:1 22:1 36:1 40:1 48:1 63:1 67:1 73:1 74:1 76:1 82:1 83:1 
0.2085281232259689 0 5:1 6:1 18:1 22:1 36:1 41:1 50:1 65:1 67:1 72:1 74:1 76:1 78:1 83:1 
0.2619175893203994 0 3:1 6:1 14:1 19:1 39:1 42:1 52:1 64:1 67:1 73:1 74:1 76:1 78:1 83:1 
0.1779703312590381 0 5:1 6:1 15:1 20:1 37:1 41:1 54:1 64:1 67:1 73:1 74:1 76:1 82:1 83:1 
0.5 0 4:1 6:1 18:1 29:1 39:1 40:1 50:1 63:1 67:1 73:1 74:1 76:1 80:1 109:1 
0.3913825571222008 0 5:1 6:1 14:1 22:1 36:1 41:1 55:1 65:1 69:1 72:1 74:1 76:1 79:1 83:1 
0.4070202969239788 0 5:1 6:1 15:1 27:1 35:1 44:1 49:1 66:1 69:1 72:1 74:1 76:1 78:1 83:1 
0.5 0 1:1 6:1 18:1 20:1 37:1 40:1 55:1 63:1 67:1 73:1 74:1 76:1 81:1 83:1 
0.3188060366837408 0 2:1 15:1 19:1 39:1 42:1 66:1 67:1 72:1 74:1 76:1 78:1 83:1 
0.310666873733046 0 3:1 7:1 16:1 22:1 36:1 42:1 48:1 64:1 67:1 73:1 74:1 76:1 79:1 83:1 
0.4270021172816856 0 3:1 9:1 16:1 19:1 39:1 42:1 52:1 62:1 67:1 72:1 74:1 76:1 80:1 83:1 
0.448780329376542 0 5:1 10:1 15:1 20:1 37:1 44:1 49:1 64:1 67:1 72:1 74:1 76:1 80:1 100:1 
0.412580029716163 0 2:1 6:1 14:1 20:1 37:1 42:1 51:1 64:1 67:1 73:1 74:1 77:1 82:1 83:1 
0.2882461458138642 0 2:1 6:1 16:1 19:1 39:1 42:1 52:1 62:1 67:1 72:1 74:1 76:1 79:1 83:1 
0.5 0 5:1 6:1 16:1 22:1 36:1 40:1 54:1 63:1 67:1 73:1 74:1 76:1 82:1 83:1 
0.5 0 2:1 7:1 16:1 22:1 36:1 40:1 48:1 63:1 67:1 73:1 74:1 76:1 82:1 83:1 
0.5 0.08001800283768926 4:1 6:1 15:1 22:1 36:1 41:1 55:1 66:1 67:1 72:1 74:1 76:1 82:1 83:1 
0.3593244064835555 0 4:1 6:1 16:1 19:1 39:1 42:1 55:1 62:1 67:1 73:1 74:1 76:1 80:1 83:1 
0.4313315755494384 0 3:1 11:1 17:1 29:1 39:1 42:1 52:1 62:1 67:1 72:1 74:1 76:1 78:1 83:1 
0.4277868658951908 0 3:1 7:1 16:1 21:1 35:1 40:1 57:1 63:1 67:1 73:1 74:1 76:1 80:1 83:1 
0.5 0 3:1 11:1 18:1 19:1 39:1 40:1 51:1 63:1 67:1 73:1 74:1 76:1 79:1 83:1 
0.08391738770570645 0 1:1 6:1 14:1 20:1 37:1 42:1 52:1 64:1 67:1 73:1 74:1 76:1 81:1 83:1 
0.37346978161559 0 2:1 6:1 15:1 24:1 38:1 42:1 49:1 64:1 71:1 72:1 74:1 76:1 80:1 83:1 
0.4540305063208187 0 5:1 7:1 16:1 22:1 36:1 40:1 48:1 63:1 67:1 73:1 75:1 76:1 78:1 83:1 
0.5 0 1:1 6:1 15:1 26:1 35:1 42:1 48:1 66:1 67:1 73:1 75:1 76:1 80:1 83:1 
0.5 0 3:1 6:1 17:1 22:1 36:1 40:1 48:1 63:1 67:1 73:1 74:1 76:1 80:1 83:1 
0.2729782021686308 0 4:1 6:1 18:1 22:1 36:1 42:1 51:1 66:1 71:1 72:1 74:1 76:1 78:1 83:1 
0.5 0 2:1 6:1 16:1 21:1 35:1 42:1 49:1 62:1 71:1 73:1 75:1 76:1 78:1 83:1 
0.5 0 3:1 6:1 14:1 22:1 36:1 41:1 51:1 66:1 67:1 72:1 74:1 76:1 80:1 83:1 
0.3405126447886652 0 1:1 10:1 16:1 19:1 39:1 42:1 52:1 62:1 67:1 72:1 74:1 76:1 80:1 83:1 
0.2111215069743633 0 2:1 11:1 15:1 22:1 36:1 42:1 59:1 64:1 67:1 73:1 74:1 76:1 80:1 83:1 
0.3416001025359096 0 3:1 6:1 14:1 19:1 39:1 42:1 55:1 64:1 67:1 72:1 74:1 76:1 81:1 83:1 
0.3204633062402406 0 2:1 7:1 15:1 26:1 35:1 40:1 48:1 63:1 67:1 73:1 74:1 76:1 80:1 83:1 
0.5 0 5:1 6:1 18:1 26:1 35:1 40:1 54:1 63:1 71:1 73:1 75:1 76:1 80:1 83:1 
0.4387841968261735 0 3:1 11:1 17:1 20:1 37:1 43:1 51:1 62:1 67:1 72:1 74:1 76:1 80:1 83:1 
0.2310094041011278 0 3:1 6:1 14:1 20:1 37:1 41:1 52:1 64:1 67:1 73:1 74:1 76:1 82:1 83:1 
0.2791062214032882 0 2:1 6:1 18:1 22:1 36:1 41:1 54:1 66:1 67:1 72:1 74:1 76:1 78:1 83:1 
0.303490329738104 0 2:1 6:1 16:1 31:1 35:1 42:1 55:1 62:1 67:1 73:1 74:1 76:1 82:1 83:1 
0.5 0 3:1 6:1 16:1 19:1 39:1 42:1 51:1 64:1 67:1 73:1 74:1 76:1 78:1 87:1 
0.4227046957825403 0 5:1 6:1 16:1 31:1 35:1 44:1 56:1 66:1 67:1 73:1 74:1 76:1 78:1 83:1 
0.2912156916067922 0 1:1 6:1 14:1 22:1 36:1 42:1 49:1 62:1 67:1 73:1 74:1 76:1 78:1 87:1 
0.2226680196592771 0 1:1 6:1 14:1 22:1 36:1 42:1 53:1 65:1 71:1 73:1 74:1 76:1 80:1 83:1 
0.2945438052011603 0 4:1 6:1 17:1 22:1 36:1 42:1 55:1 66:1 67:1 72:1 74:1 76:1 82:1 83:1 
0.2580820201180286 0 4:1 6:1 15:1 22:1 36:1 42:1 57:1 64:1 67:1 73:1 74:1 76:1 80:1 100:1 
0.2704010720229705 0 5:1 6:1 18:1 22:1 36:1 41:1 55:1 66:1 67:1 72:1 74:1 76:1 81:1 83:1 
0.4325162990779339 0 2:1 6:1 14:1 27:1 35:1 40:1 50:1 65:1 67:1 73:1 74:1 76:1 80:1 83:1 
0.161789503626995 0.05708916272284025 1:1 6:1 17:1 22:1 36:1 42:1 49:1 62:1 67:1 73:1 74:1 76:1 80:1 103:1 
0.2736003611465651 0 2:1 6:1 16:1 21:1 35:1 42:1 57:1 62:1 67:1 73:1 74:1 76:1 82:1 83:1 
0.2485442546670974 0 3:1 6:1 18:1 22:1 36:1 41:1 49:1 64:1 67:1 72:1 74:1 76:1 82:1 83:1 
0.5 0 3:1 9:1 15:1 19:1 39:1 42:1 55:1 62:1 67:1 73:1 74:1 76:1 79:1 83:1 
0.5 0 3:1 10:1 15:1 20:1 37:1 40:1 49:1 61:1 67:1 72:1 74:1 76:1 80:1 83:1 
0.3816963687350635 0 2:1 7:1 16:1 19:1 39:1 42:1 52:1 65:1 67:1 73:1 74:1 76:1 80:1 83:1 
0.1290117207957144 0 2:1 6:1 16:1 22:1 36:1 41:1 48:1 62:1 67:1 73:1 74:1 76:1 80:1 83:1 
0.5 0 5:1 6:1 15:1 33:1 35:1 40:1 54:1 63:1 67:1 73:1 74:1 77:1 80:1 83:1 
0.5 0 5:1 6:1 15:1 22:1 36:1 40:1 48:1 63:1 67:1 73:1 74:1 76:1 80:1 83:1 
0.07637367523384285 0 2:1 6:1 17:1 20:1 37:1 42:1 48:1 64:1 67:1 73:1 74:1 76:1 81:1 83:1 
0.2966820180544464 0 3:1 6:1 18:1 22:1 36:1 43:1 49:1 64:1 71:1 72:1 74:1 76:1 80:1 83:1 
0.3497658224499025 0 1:1 6:1 18:1 33:1 35:1 42:1 53:1 65:1 67:1 73:1 74:1 76:1 78:1 97:1 
0.5 0 4:1 6:1 16:1 22:1 36:1 43:1 52:1 66:1 67:1 72:1 74:1 77:1 80:1 86:1 
0.09592017550828363 0 2:1 6:1 17:1 20:1 37:1 42:1 49:1 64:1 67:1 73:1 74:1 76:1 82:1 83:1 
0.5 0 5:1 6:1 15:1 27:1 35:1 42:1 49:1 64:1 67:1 73:1 74:1 76:1 82:1 83:1 
0.5 0 5:1 7:1 15:1 20:1 37:1 40:1 49:1 63:1 67:1 73:1 74:1 76:1 82:1 83:1 
0.5 0 3:1 6:1 17:1 22:1 36:1 40:1 53:1 63:1 67:1 73:1 74:1 76:1 80:1 83:1 
0.5 0 1:1 18:1 22:1 36:1 40:1 63:1 67:1 73:1 74:1 76:1 80:1 83:1 
0.296242366995579 0 3:1 6:1 15:1 20:1 37:1 42:1 50:1 64:1 67:1 73:1 74:1 76:1 82:1 83:1 
0.5 0 5:1 14:1 26:1 35:1 40:1 63:1 67:1 73:1 74:1 76:1 82:1 83:1 
0.5 0 3:1 10:1 18:1 20:1 37:1 42:1 51:1 66:1 71:1 72:1 74:1 76:1 82:1 83:1 
0.2880545115192363 0 5:1 6:1 15:1 22:1 36:1 41:1 51:1 64:1 67:1 72:1 74:1 76:1 82:1 83:1 
0.1224224528808446 0 1:1 6:1 17:1 20:1 37:1 42:1 49:1 64:1 67:1 73:1 74:1 76:1 79:1 83:1 
0.3147542298581471 0 3:1 6:1 17:1 22:1 36:1 43:1 50:1 66:1 71:1 72:1 74:1 76:1 78:1 83:1 
0.3096661730515831 0 5:1 7:1 15:1 20:1 37:1 41:1 50:1 64:1 67:1 72:1 74:1 76:1 79:1 83:1 
0.1930397145506083 0 3:1 6:1 15:1 22:1 36:1 41:1 53:1 64:1 67:1 72:1 74:1 76:1 82:1 83:1 
0.5 0 5:1 6:1 17:1 22:1 36:1 42:1 48:1 65:1 68:1 73:1 74:1 76:1 80:1 84:1 
0.2765184612201762 0 2:1 6:1 16:1 22:1 36:1 42:1 54:1 66:1 67:1 73:1 74:1 76:1 80:1 83:1 
0.3350193830980892 0 2:1 6:1 14:1 20:1 37:1 42:1 53:1 62:1 68:1 73:1 74:1 76:1 80:1 83:1 
0.5 0 5:1 6:1 16:1 20:1 37:1 40:1 56:1 63:1 67:1 73:1 74:1 76:1 80:1 83:1 
0.3052307314037932 0 4:1 6:1 15:1 20:1 37:1 41:1 55:1 64:1 68:1 72:1 74:1 76:1 79:1 83:1 
0.2289439348248329 0 5:1 18:1 26:1 35:1 41:1 64:1 67:1 72:1 74:1 76:1 78:1 83:1 
0.5 0 2:1 7:1 15:1 20:1 37:1 40:1 50:1 63:1 67:1 73:1 74:1 76:1 82:1 83:1 
0.2033179819455536 0 1:1 6:1 15:1 24:1 38:1 42:1 55:1 62:1 67:1 73:1 74:1 76:1 80:1 83:1 
0.2233256831532358 0 3:1 6:1 18:1 31:1 35:1 41:1 48:1 64:1 67:1 73:1 74:1 76:1 80:1 83:1 
0.2991264110429993 0 2:1 6:1 17:1 20:1 37:1 41:1 55:1 66:1 71:1 72:1 74:1 76:1 79:1 83:1 
0.3968011124613954 0 3:1 6:1 18:1 33:1 35:1 41:1 53:1 66:1 67:1 73:1 74:1 76:1 80:1 103:1 
0.5 0 3:1 6:1 14:1 19:1 39:1 40:1 51:1 61:1 67:1 72:1 74:1 76:1 80:1 83:1 
0.5 0 3:1 6:1 14:1 20:1 37:1 40:1 47:1 63:1 67:1 73:1 74:1 77:1 80:1 83:1 
0.5 0 2:1 6:1 17:1 22:1 36:1 40:1 48:1 63:1 67:1 73:1 74:1 76:1 80:1 83:1 
0.4040798244917164 0 2:1 8:1 18:1 22:1 36:1 42:1 50:1 64:1 67:1 73:1 74:1 76:1 82:1 83:1 
0.5 0 3:1 9:1 18:1 20:1 37:1 40:1 47:1 61:1 67:1 72:1 75:1 76:1 80:1 83:1 
0.5 0 2:1 6:1 16:1 24:1 38:1 40:1 51:1 63:1 67:1 73:1 74:1 76:1 80:1 83:1 
0.2617642893566803 0 2:1 6:1 15:1 22:1 36:1 42:1 51:1 62:1 71:1 73:1 74:1 76:1 80:1 83:1 
0.5 0 3:1 8:1 15:1 29:1 39:1 41:1 51:1 64:1 67:1 72:1 74:1 76:1 82:1 83:1 
0.5 0 2:1 6:1 15:1 20:1 37:1 40:1 54:1 63:1 71:1 73:1 74:1 76:1 80:1 83:1 
0.5 0 5:1 9:1 14:1 19:1 39:1 45:1 51:1 64:1 67:1 72:1 74:1 76:1 80:1 83:1 
0.4170460567394618 0 5:1 14:1 21:1 35:1 45:1 66:1 71:1 72:1 74:1 76:1 78:1 83:1 
0.5 0 2:1 6:1 16:1 19:1 39:1 42:1 52:1 62:1 67:1 72:1 74:1 76:1 80:1 83:1 
0.5 0 4:1 6:1 15:1 22:1 36:1 40:1 49:1 63:1 67:1 73:1 74:1 76:1 80:1 83:1 
0.1116573647922124 0 2:1 6:1 15:1 22:1 36:1 42:1 52:1 62:1 67:1 73:1 74:1 76:1 80:1 83:1 
0.5 0 5:1 8:1 18:1 29:1 39:1 41:1 51:1 64:1 71:1 72:1 74:1 76:1 82:1 83:1 
0.2599137078586638 0 1:1 6:1 18:1 31:1 35:1 42:1 49:1 64:1 67:1 72:1 74:1 76:1 79:1 83:1 
0.5 0 2:1 6:1 15:1 22:1 36:1 40:1 50:1 63:1 67:1 73:1 74:1 76:1 81:1 83:1 
0.5 0 4:1 6:1 16:1 25:1 38:1 42:1 48:1 66:1 67:1 73:1 74:1 76:1 80:1 83:1 
0.5 0 5:1 7:1 16:1 24:1 38:1 40:1 48:1 63:1 67:1 73:1 75:1 76:1 78:1 113:1 
0.2599723491381004 0 4:1 6:1 17:1 33:1 35:1 40:1 53:1 63:1 67:1 73:1 74:1 76:1 80:1 103:1 
0.5 0 5:1 6:1 14:1 20:1 37:1 40:1 51:1 63:1 67:1 73:1 74:1 77:1 80:1 83:1 
0.5 0.05847754460702025 4:1 11:1 15:1 22:1 36:1 41:1 48:1 66:1 67:1 73:1 74:1 76:1 80:1 83:1 
0.5 0.06344147883589822 2:1 6:1 15:1 25:1 38:1 43:1 52:1 66:1 67:1 72:1 74:1 76:1 80:1 83:1 
0.343503924187801 0 2:1 6:1 17:1 20:1 37:1 45:1 57:1 64:1 67:1 72:1 74:1 76:1 79:1 83:1 
0.5 0 3:1 6:1 16:1 22:1 36:1 40:1 50:1 61:1 67:1 72:1 74:1 76:1 78:1 83:1 
0.1444598087117884 0 2:1 6:1 17:1 20:1 37:1 41:1 49:1 64:1 67:1 72:1 74:1 76:1 78:1 83:1 
0.1471514088239749 0 1:1 6:1 17:1 21:1 35:1 42:1 55:1 65:1 67:1 72:1 74:1 76:1 78:1 83:1 
0.1014773250253376 0 1:1 6:1 14:1 20:1 37:1 42:1 51:1 64:1 67:1 72:1 74:1 76:1 79:1 83:1 
0.5 0 5:1 6:1 15:1 20:1 37:1 40:1 48:1 63:1 67:1 73:1 74:1 76:1 82:1 83:1 
0.2439161069443568 0 5:1 6:1 17:1 22:1 36:1 44:1 49:1 65:1 67:1 72:1 74:1 76:1 78:1 83:1 
0.5 0 5:1 18:1 22:1 36:1 40:1 63:1 67:1 73:1 74:1 76:1 78:1 83:1 
0.144769879315141 0 1:1 11:1 18:1 20:1 37:1 42:1 55:1 62:1 67:1 72:1 74:1 76:1 78:1 83:1 
0.5 0.07662331005656596 4:1 10:1 15:1 29:1 39:1 41:1 52:1 66:1 71:1 72:1 74:1 76:1 80:1 83:1 
0.5 0 5:1 7:1 16:1 22:1 36:1 40:1 51:1 63:1 67:1 73:1 74:1 76:1 78:1 83:1 
0.3839445178810026 0 1:1 16:1 19:1 39:1 42:1 64:1 67:1 73:1 74:1 76:1 82:1 83:1 
0.5 0 3:1 6:1 14:1 22:1 36:1 42:1 53:1 64:1 67:1 73:1 75:1 76:1 82:1 83:1 
0.4218056296333325 0 5:1 10:1 15:1 22:1 36:1 41:1 57:1 65:1 67:1 73:1 74:1 76:1 80:1 83:1 
0.5 0 4:1 6:1 16:1 25:1 38:1 40:1 48:1 63:1 67:1 73:1 74:1 76:1 82:1 83:1 
0.15093584727463 0 1:1 6:1 17:1 19:1 39:1 42:1 49:1 62:1 67:1 72:1 74:1 76:1 78:1 83:1 
0.3630837868721463 0.06865239687452282 4:1 7:1 16:1 22:1 36:1 41:1 52:1 64:1 67:1 73:1 74:1 76:1 78:1 83:1 
0.5 0.08328324230203274 4:1 10:1 14:1 24:1 38:1 40:1 52:1 63:1 67:1 73:1 74:1 76:1 82:1 83:1 
0.5 0 3:1 6:1 15:1 19:1 39:1 40:1 51:1 63:1 67:1 73:1 74:1 76:1 81:1 83:1 
0.5 0 2:1 6:1 15:1 22:1 36:1 40:1 57:1 63:1 67:1 73:1 74:1 76:1 82:1 83:1 
0.5 0 2:1 6:1 15:1 22:1 36:1 40:1 48:1 63:1 67:1 73:1 74:1 76:1 80:1 83:1 
0.3670471564957427 0 2:1 10:1 16:1 25:1 38:1 42:1 59:1 64:1 67:1 73:1 74:1 76:1 82:1 83:1 
0.5 0 5:1 7:1 16:1 33:1 35:1 40:1 56:1 63:1 67:1 73:1 74:1 76:1 82:1 87:1 
0.5 0 1:1 6:1 18:1 19:1 39:1 42:1 50:1 64:1 67:1 72:1 74:1 76:1 82:1 83:1 
0.5 0 5:1 6:1 18:1 26:1 35:1 40:1 58:1 61:1 71:1 72:1 74:1 76:1 78:1 83:1 
0.5 0 3:1 6:1 14:1 22:1 36:1 40:1 57:1 63:1 67:1 73:1 75:1 76:1 80:1 83:1 
0.2906017942620855 0 5:1 6:1 15:1 22:1 36:1 41:1 55:1 66:1 67:1 73:1 74:1 76:1 78:1 83:1 
0.5 0 4:1 6:1 16:1 31:1 35:1 40:1 50:1 63:1 67:1 73:1 74:1 77:1 82:1 83:1 
0.5 0 2:1 7:1 16:1 25:1 38:1 40:1 56:1 63:1 67:1 73:1 74:1 76:1 82:1 83:1 
0.5 0 5:1 7:1 14:1 22:1 36:1 40:1 56:1 63:1 67:1 73:1 74:1 76:1 82:1 83:1 
0.5 0 2:1 6:1 16:1 19:1 39:1 42:1 47:1 64:1 67:1 72:1 74:1 76:1 79:1 83:1 
0.5 0 3:1 7:1 17:1 22:1 36:1 40:1 56:1 63:1 67:1 73:1 74:1 76:1 81:1 83:1 
0.2763594878359557 0 3:1 6:1 18:1 21:1 35:1 40:1 54:1 63:1 67:1 73:1 74:1 76:1 80:1 83:1 
0.4350010526405814 0 2:1 6:1 17:1 20:1 37:1 42:1 57:1 64:1 71:1 73:1 75:1 76:1 82:1 83:1 
0.5 0 2:1 10:1 16:1 20:1 37:1 45:1 52:1 64:1 67:1 73:1 74:1 76:1 82:1 88:1 
0.1573764231268104 0 1:1 16:1 20:1 37:1 42:1 65:1 67:1 73:1 74:1 76:1 80:1 83:1 
0.5 0 5:1 10:1 18:1 25:1 38:1 40:1 57:1 63:1 71:1 73:1 74:1 76:1 80:1 83:1 
0.4295740868472672 0 5:1 6:1 14:1 27:1 35:1 40:1 48:1 63:1 67:1 73:1 74:1 76:1 80:1 83:1 
0.5 0 4:1 6:1 16:1 22:1 36:1 40:1 49:1 63:1 68:1 73:1 74:1 76:1 80:1 94:1 
0.5 0 4:1 6:1 18:1 22:1 36:1 41:1 50:1 66:1 71:1 73:1 75:1 76:1 80:1 83:1 
0.5 0 2:1 11:1 16:1 32:1 39:1 42:1 52:1 64:1 67:1 72:1 74:1 76:1 82:1 83:1 
0.5 0 5:1 9:1 14:1 19:1 39:1 40:1 51:1 63:1 67:1 73:1 74:1 76:1 80:1 83:1 
0.1167380821160656 0 1:1 6:1 17:1 21:1 35:1 40:1 54:1 63:1 67:1 73:1 74:1 76:1 80:1 83:1 
0.1437559589419822 0 3:1 6:1 18:1 33:1 35:1 40:1 49:1 63:1 67:1 73:1 74:1 76:1 80:1 103:1 
0.400646850005126 0 4:1 10:1 14:1 27:1 35:1 41:1 53:1 64:1 67:1 73:1 74:1 76:1 80:1 83:1 
0.5 0 3:1 7:1 14:1 22:1 36:1 40:1 56:1 63:1 67:1 73:1 74:1 76:1 82:1 83:1 
0.5 0.05514183635750637 4:1 6:1 16:1 24:1 38:1 41:1 51:1 64:1 71:1 72:1 74:1 76:1 80:1 101:1 
0.3320507895593761 0.05756424511214036 5:1 7:1 16:1 22:1 36:1 44:1 50:1 64:1 67:1 72:1 74:1 76:1 82:1 83:1 
0.353524720433223 0 3:1 9:1 14:1 22:1 36:1 42:1 55:1 62:1 71:1 72:1 74:1 76:1 80:1 83:1 
0.5 0 3:1 6:1 15:1 20:1 37:1 40:1 52:1 63:1 67:1 73:1 74:1 76:1 80:1 83:1 
0.1623816263720063 0 1:1 6:1 17:1 21:1 35:1 40:1 57:1 63:1 67:1 73:1 74:1 76:1 80:1 83:1 
0.3266361085639928 0 1:1 6:1 17:1 20:1 37:1 43:1 50:1 66:1 67:1 72:1 74:1 76:1 81:1 83:1 
0.306217125133289 0 2:1 6:1 18:1 21:1 35:1 40:1 56:1 63:1 67:1 73:1 74:1 76:1 82:1 103:1 
0.4054645559590968 0 5:1 7:1 15:1 20:1 37:1 43:1 50:1 64:1 67:1 73:1 74:1 76:1 79:1 83:1 
0.4472327440867239 0 2:1 6:1 15:1 19:1 39:1 42:1 52:1 66:1 70:1 73:1 74:1 76:1 80:1 83:1 
0.5 0 3:1 6:1 16:1 19:1 39:1 42:1 49:1 64:1 68:1 72:1 74:1 76:1 79:1 117:1 
0.156496075812199 0 1:1 6:1 14:1 20:1 37:1 42:1 53:1 64:1 67:1 72:1 74:1 76:1 79:1 83:1 
0.5 0 1:1 14:1 20:1 37:1 40:1 63:1 67:1 73:1 74:1 76:1 78:1 83:1 
0.3598792191527061 0 1:1 17:1 20:1 37:1 45:1 66:1 71:1 72:1 74:1 76:1 80:1 83:1 
0.2168184736660234 0 5:1 6:1 14:1 22:1 36:1 45:1 55:1 64:1 67:1 72:1 74:1 76:1 82:1 83:1 
0.5 0.06995299081814423 5:1 10:1 15:1 24:1 38:1 41:1 49:1 64:1 67:1 72:1 75:1 76:1 78:1 83:1 
0.3775775471191554 0 1:1 6:1 17:1 20:1 37:1 42:1 55:1 65:1 67:1 73:1 74:1 76:1 78:1 115:1 
0.4103449105059991 0 5:1 6:1 18:1 31:1 35:1 44:1 54:1 64:1 67:1 73:1 74:1 76:1 82:1 83:1 
0.06121230972686539 0 1:1 6:1 15:1 22:1 36:1 42:1 48:1 62:1 67:1 73:1 74:1 76:1 82:1 83:1 
0.3884570264593613 0.05828739963262117 2:1 7:1 17:1 19:1 39:1 41:1 50:1 64:1 67:1 73:1 74:1 76:1 80:1 83:1 
0.5 0 2:1 6:1 17:1 20:1 37:1 40:1 57:1 63:1 67:1 73:1 74:1 76:1 80:1 119:1 
0.1531726839974737 0 4:1 6:1 17:1 20:1 37:1 41:1 50:1 66:1 67:1 72:1 74:1 76:1 80:1 83:1 
0.5 0.06036349019945512 3:1 6:1 18:1 24:1 38:1 41:1 51:1 64:1 67:1 72:1 74:1 76:1 82:1 83:1 
0.5 0 3:1 6:1 16:1 21:1 35:1 42:1 48:1 62:1 67:1 73:1 75:1 76:1 80:1 83:1 
0.3238516414382238 0 1:1 6:1 15:1 25:1 38:1 42:1 50:1 64:1 71:1 72:1 74:1 76:1 79:1 83:1 
0.06949001047379527 0 5:1 6:1 14:1 20:1 37:1 41:1 49:1 64:1 67:1 72:1 74:1 76:1 78:1 83:1 
0.5 0 3:1 10:1 17:1 24:1 38:1 40:1 52:1 63:1 67:1 73:1 74:1 76:1 82:1 83:1 
0.1233188126423763 0 2:1 6:1 18:1 20:1 37:1 42:1 55:1 62:1 67:1 73:1 74:1 76:1 78:1 83:1 
0.5 0 5:1 14:1 31:1 35:1 40:1 63:1 69:1 73:1 75:1 76:1 78:1 83:1 
0.3289060492491402 0 5:1 15:1 20:1 37:1 41:1 64:1 71:1 73:1 74:1 76:1 82:1 83:1 
0.5 0 2:1 6:1 18:1 22:1 36:1 40:1 49:1 63:1 67:1 73:1 74:1 76:1 80:1 83:1 
0.5 0 1:1 6:1 18:1 22:1 36:1 40:1 50:1 63:1 67:1 73:1 74:1 76:1 82:1 83:1 
0.2948237361698948 0 3:1 6:1 16:1 21:1 35:1 41:1 54:1 66:1 67:1 72:1 74:1 76:1 80:1 83:1 
0.4017117801031223 0 2:1 6:1 14:1 22:1 36:1 42:1 57:1 66:1 67:1 72:1 74:1 77:1 82:1 83:1 
0.3494439524510746 0.056502909942828 2:1 6:1 14:1 24:1 38:1 41:1 47:1 64:1 67:1 72:1 74:1 76:1 81:1 83:1 
0.3291199384844853 0 2:1 6:1 16:1 19:1 39:1 42:1 55:1 64:1 67:1 72:1 74:1 76:1 80:1 83:1 
0.2530822096653255 0.05593750894653328 1:1 6:1 14:1 20:1 37:1 41:1 52:1 66:1 67:1 72:1 74:1 76:1 79:1 83:1 
0.1461656176924786 0 3:1 6:1 17:1 22:1 36:1 42:1 48:1 64:1 67:1 73:1 74:1 76:1 82:1 83:1 
0.5 0 4:1 6:1 14:1 22:1 36:1 40:1 55:1 63:1 67:1 73:1 74:1 76:1 78:1 83:1 
0.5 0 3:1 10:1 14:1 20:1 37:1 40:1 59:1 63:1 67:1 73:1 74:1 76:1 82:1 83:1 
0.5 0 4:1 6:1 15:1 34:1 35:1 40:1 49:1 63:1 67:1 73:1 74:1 76:1 80:1 
0.3455215290410642 0 1:1 10:1 14:1 20:1 37:1 42:1 49:1 64:1 67:1 72:1 74:1 77:1 80:1 83:1 
0.1565496292240424 0 3:1 6:1 14:1 22:1 36:1 41:1 49:1 66:1 67:1 72:1 74:1 76:1 80:1 83:1 
0.5 0 3:1 6:1 14:1 33:1 35:1 45:1 49:1 66:1 68:1 72:1 74:1 76:1 80:1 98:1 
0.5 0 3:1 6:1 18:1 22:1 36:1 40:1 50:1 63:1 67:1 73:1 74:1 76:1 82:1 83:1 
0.5 0 3:1 6:1 16:1 22:1 36:1 40:1 54:1 63:1 67:1 73:1 74:1 76:1 80:1 83:1 
0.5 0 3:1 6:1 14:1 20:1 37:1 40:1 48:1 63:1 67:1 73:1 74:1 76:1 82:1 83:1 
0.5 0 1:1 7:1 14:1 19:1 39:1 40:1 51:1 61:1 67:1 72:1 74:1 76:1 80:1 83:1 
0.1215533335327535 0 3:1 6:1 14:1 19:1 39:1 42:1 55:1 62:1 67:1 72:1 74:1 76:1 80:1 83:1 
0.3961701705972694 0 3:1 6:1 17:1 21:1 35:1 40:1 48:1 63:1 67:1 73:1 74:1 76:1 80:1 114:1 
0.3426235768731896 0 3:1 6:1 15:1 21:1 35:1 41:1 49:1 65:1 67:1 72:1 74:1 76:1 78:1 83:1 
0.2167557916072819 0 3:1 6:1 18:1 21:1 35:1 42:1 54:1 66:1 67:1 72:1 74:1 76:1 80:1 83:1 
0.5 0 3:1 6:1 15:1 22:1 36:1 40:1 48:1 63:1 67:1 73:1 74:1 76:1 80:1 83:1 
0.4734555378795967 0 1:1 6:1 18:1 22:1 36:1 40:1 54:1 63:1 67:1 73:1 74:1 76:1 80:1 83:1 
0.5 0 4:1 10:1 16:1 19:1 39:1 40:1 52:1 63:1 67:1 73:1 74:1 76:1 82:1 83:1 
0.5 0 4:1 6:1 14:1 22:1 36:1 42:1 54:1 64:1 67:1 73:1 75:1 76:1 81:1 83:1 
0.5 0 5:1 7:1 14:1 20:1 37:1 40:1 56:1 63:1 67:1 73:1 74:1 76:1 82:1 83:1 
0.3959316245269245 0 2:1 6:1 16:1 29:1 39:1 42:1 52:1 64:1 67:1 73:1 74:1 76:1 80:1 83:1 
0.5 0 3:1 10:1 14:1 20:1 37:1 43:1 55:1 66:1 69:1 72:1 74:1 76:1 80:1 83:1 
0.285915070432794 0 2:1 6:1 17:1 24:1 38:1 42:1 55:1 64:1 67:1 72:1 74:1 76:1 81:1 83:1 
0.3803904483543194 0 2:1 6:1 17:1 24:1 38:1 42:1 54:1 66:1 71:1 72:1 74:1 76:1 80:1 83:1 
0.5 0 2:1 6:1 16:1 22:1 36:1 40:1 48:1 63:1 67:1 73:1 74:1 76:1 82:1 83:1 
0.5 0 5:1 10:1 14:1 20:1 37:1 40:1 57:1 63:1 67:1 73:1 74:1 76:1 80:1 83:1 
0.4018625499153798 0 2:1 10:1 16:1 19:1 39:1 42:1 52:1 62:1 71:1 72:1 74:1 76:1 79:1 83:1 
0.5 0 3:1 9:1 18:1 29:1 39:1 42:1 47:1 64:1 67:1 72:1 74:1 76:1 80:1 83:1 
0.5 0 3:1 6:1 18:1 24:1 38:1 42:1 51:1 66:1 67:1 73:1 74:1 76:1 82:1 83:1 
0.5 0 3:1 6:1 17:1 21:1 35:1 40:1 50:1 63:1 67:1 73:1 74:1 76:1 78:1 
0.5 0 4:1 7:1 14:1 20:1 37:1 40:1 48:1 63:1 67:1 73:1 74:1 76:1 80:1 83:1 
0.5 0 4:1 6:1 17:1 22:1 36:1 40:1 54:1 63:1 67:1 73:1 74:1 76:1 80:1 83:1 
0.1280337909438798 0 1:1 6:1 16:1 26:1 35:1 42:1 54:1 62:1 67:1 73:1 74:1 76:1 80:1 83:1 
0.07604437321420471 0 1:1 6:1 15:1 20:1 37:1 42:1 52:1 64:1 67:1 72:1 74:1 76:1 78:1 83:1 
0.1035973226511033 0 4:1 6:1 17:1 20:1 37:1 41:1 55:1 66:1 67:1 72:1 74:1 76:1 80:1 83:1 
0.4205805544462189 0.05566075576802985 5:1 11:1 18:1 22:1 36:1 41:1 49:1 62:1 71:1 73:1 74:1 76:1 80:1 83:1 
0.5 0 5:1 6:1 14:1 24:1 38:1 41:1 48:1 64:1 71:1 73:1 74:1 76:1 81:1 83:1 
0.3603015319750709 0 1:1 6:1 16:1 33:1 35:1 42:1 53:1 65:1 67:1 73:1 74:1 76:1 80:1 114:1 
0.3690327032323298 0 5:1 6:1 16:1 26:1 35:1 40:1 49:1 63:1 67:1 73:1 74:1 76:1 80:1 83:1 
0.5 0 2:1 6:1 18:1 20:1 37:1 40:1 50:1 65:1 68:1 72:1 74:1 76:1 80:1 92:1 
0.254373199826621 0 1:1 6:1 15:1 28:1 35:1 42:1 57:1 62:1 67:1 73:1 74:1 76:1 78:1 83:1 
0.3372098480527601 0 1:1 6:1 18:1 20:1 37:1 42:1 50:1 64:1 67:1 73:1 74:1 76:1 82:1 83:1 
0.5 0 2:1 6:1 16:1 24:1 38:1 40:1 55:1 63:1 67:1 73:1 74:1 76:1 80:1 99:1 
0.4239556267857953 0 1:1 6:1 15:1 20:1 37:1 42:1 52:1 65:1 68:1 72:1 74:1 76:1 78:1 93:1 
0.0612158031738265 0 2:1 17:1 20:1 37:1 42:1 62:1 67:1 72:1 74:1 76:1 80:1 83:1 
0.5 0 3:1 6:1 14:1 25:1 38:1 40:1 55:1 63:1 67:1 73:1 74:1 76:1 80:1 83:1 
0.5 0 4:1 6:1 16:1 31:1 35:1 40:1 56:1 63:1 71:1 73:1 74:1 76:1 80:1 83:1 
0.5 0 5:1 7:1 15:1 22:1 36:1 40:1 57:1 63:1 67:1 73:1 74:1 76:1 82:1 83:1 
0.4993493354421089 0 5:1 14:1 33:1 35:1 40:1 63:1 67:1 73:1 74:1 76:1 80:1 83:1 
0.3701049744640174 0 2:1 6:1 17:1 19:1 39:1 42:1 53:1 66:1 67:1 73:1 74:1 76:1 79:1 83:1 
0.1999849599568228 0 2:1 18:1 22:1 36:1 41:1 66:1 71:1 72:1 74:1 76:1 78:1 83:1 
0.5 0 4:1 7:1 15:1 33:1 35:1 40:1 48:1 63:1 67:1 73:1 74:1 76:1 80:1 83:1 
0.09813745008462022 0 3:1 6:1 16:1 22:1 36:1 41:1 49:1 62:1 67:1 73:1 74:1 76:1 80:1 83:1 
0.5 0 4:1 10:1 18:1 19:1 39:1 42:1 52:1 62:1 67:1 73:1 74:1 76:1 82:1 83:1 
0.1507366755462688 0 2:1 6:1 16:1 20:1 37:1 42:1 54:1 64:1 67:1 72:1 74:1 76:1 80:1 83:1 
0.5 0 3:1 6:1 14:1 22:1 36:1 40:1 49:1 63:1 67:1 73:1 74:1 76:1 80:1 83:1 
0.5 0 1:1 11:1 17:1 20:1 37:1 40:1 55:1 63:1 71:1 73:1 74:1 76:1 79:1 83:1 
0.3444647148356736 0 2:1 6:1 17:1 22:1 36:1 43:1 48:1 66:1 71:1 73:1 74:1 76:1 80:1 83:1 
0.5 0 5:1 6:1 18:1 22:1 36:1 40:1 54:1 61:1 67:1 72:1 75:1 76:1 80:1 119:1 
0.3633114209670799 0 4:1 14:1 20:1 37:1 41:1 64:1 69:1 72:1 74:1 76:1 79:1 83:1 
0.2980569927448102 0 1:1 6:1 14:1 26:1 35:1 42:1 49:1 66:1 67:1 72:1 74:1 76:1 78:1 83:1 
0.1190386111757755 0 1:1 6:1 17:1 28:1 35:1 42:1 49:1 62:1 67:1 73:1 74:1 76:1 78:1 83:1 
0.4466006379681775 0.05711069725713978 5:1 8:1 14:1 22:1 36:1 45:1 50:1 64:1 67:1 73:1 74:1 76:1 82:1 83:1 
0.251932132936031 0 1:1 14:1 21:1 35:1 42:1 62:1 71:1 72:1 74:1 76:1 80:1 83:1 
0.4039367261119489 0.06214879908255187 5:1 6:1 16:1 24:1 38:1 42:1 52:1 65:1 67:1 72:1 74:1 76:1 78:1 83:1 
0.3490641527253701 0 3:1 11:1 18:1 20:1 37:1 42:1 57:1 62:1 71:1 73:1 74:1 76:1 80:1 83:1 
0.3395431095917154 0 3:1 6:1 17:1 22:1 36:1 42:1 57:1 62:1 67:1 73:1 74:1 77:1 80:1 83:1 
0.4191016039742573 0 5:1 11:1 14:1 29:1 39:1 41:1 52:1 64:1 67:1 72:1 74:1 76:1 79:1 83:1 
0.5 0 5:1 7:1 18:1 31:1 35:1 40:1 50:1 63:1 67:1 73:1 74:1 76:1 79:1 83:1 
0.5 0 5:1 6:1 16:1 22:1 36:1 40:1 54:1 63:1 67:1 73:1 75:1 76:1 81:1 83:1 
0.5 0.05131322074302235 4:1 10:1 16:1 27:1 35:1 45:1 49:1 64:1 67:1 72:1 74:1 76:1 79:1 86:1 
0.5 0 3:1 6:1 14:1 20:1 37:1 43:1 49:1 64:1 67:1 72:1 75:1 76:1 82:1 83:1 
0.5 0 5:1 7:1 14:1 22:1 36:1 44:1 56:1 64:1 67:1 73:1 74:1 76:1 82:1 83:1 
0.5 0 4:1 6:1 14:1 20:1 37:1 40:1 48:1 63:1 67:1 73:1 74:1 76:1 82:1 83:1 
0.5 0 3:1 6:1 18:1 25:1 38:1 40:1 56:1 63:1 67:1 73:1 74:1 76:1 82:1 83:1 
0.5 0.1000219783938032 4:1 6:1 16:1 22:1 36:1 41:1 57:1 62:1 67:1 73:1 74:1 76:1 82:1 83:1 
0.3168958179676996 0 2:1 10:1 16:1 20:1 37:1 42:1 49:1 62:1 67:1 72:1 74:1 76:1 78:1 83:1 
0.3785568783857299 0 1:1 6:1 14:1 19:1 39:1 42:1 51:1 64:1 67:1 72:1 74:1 76:1 78:1 83:1 
0.5 0 5:1 11:1 14:1 19:1 39:1 45:1 52:1 64:1 67:1 73:1 75:1 76:1 80:1 83:1 
0.5 0.05437118054173794 4:1 10:1 15:1 22:1 36:1 40:1 59:1 63:1 67:1 73:1 74:1 76:1 82:1 83:1 
0.5 0 3:1 6:1 15:1 25:1 38:1 40:1 48:1 63:1 67:1 73:1 74:1 76:1 80:1 83:1 
0.08741997028383702 0 2:1 6:1 15:1 20:1 37:1 42:1 55:1 64:1 67:1 73:1 74:1 76:1 78:1 83:1 
0.5 0.05302390645601084 4:1 6:1 15:1 24:1 38:1 43:1 51:1 64:1 67:1 73:1 74:1 76:1 80:1 83:1 
0.5 0.0520853116362516 2:1 6:1 15:1 32:1 39:1 40:1 52:1 61:1 67:1 72:1 74:1 76:1 82:1 83:1 
0.5 0 5:1 6:1 14:1 20:1 37:1 40:1 51:1 61:1 67:1 72:1 74:1 76:1 81:1 83:1 
0.3038456275165488 0 2:1 6:1 18:1 22:1 36:1 41:1 48:1 66:1 67:1 73:1 74:1 76:1 79:1 83:1 
0.5 0 5:1 8:1 15:1 22:1 36:1 40:1 50:1 63:1 67:1 73:1 74:1 76:1 82:1 83:1 
0.2825063085635083 0 1:1 11:1 17:1 19:1 39:1 42:1 52:1 62:1 67:1 72:1 74:1 76:1 78:1 83:1 
0.5 0 5:1 18:1 22:1 36:1 40:1 63:1 67:1 73:1 74:1 76:1 78:1 83:1 
0.3130008566600996 0 1:1 6:1 18:1 22:1 36:1 42:1 48:1 62:1 67:1 73:1 75:1 76:1 80:1 83:1 
0.5 0 1:1 6:1 16:1 31:1 35:1 40:1 49:1 63:1 67:1 73:1 75:1 76:1 80:1 83:1 
0.5 0 5:1 18:1 22:1 36:1 40:1 63:1 67:1 73:1 74:1 76:1 80:1 83:1 
0.3797818625093913 0 5:1 14:1 27:1 35:1 41:1 64:1 67:1 73:1 74:1 76:1 78:1 83:1 
0.3376183736279936 0 5:1 16:1 30:1 35:1 44:1 64:1 71:1 72:1 74:1 76:1 80:1 83:1 
0.3984730789297797 0 2:1 6:1 14:1 22:1 36:1 42:1 55:1 64:1 67:1 73:1 74:1 76:1 82:1 103:1 
0.5 0 2:1 6:1 14:1 22:1 36:1 40:1 53:1 63:1 69:1 73:1 74:1 76:1 78:1 83:1 
0.2921096374555584 0 2:1 6:1 16:1 22:1 36:1 43:1 55:1 62:1 67:1 72:1 74:1 76:1 80:1 83:1 
0.2717188644015087 0 2:1 6:1 17:1 26:1 35:1 40:1 54:1 63:1 67:1 73:1 74:1 76:1 80:1 83:1 
0.5 0 5:1 10:1 14:1 22:1 36:1 40:1 57:1 63:1 67:1 73:1 74:1 76:1 80:1 83:1 
0.5 0 3:1 6:1 15:1 22:1 36:1 40:1 54:1 63:1 67:1 73:1 74:1 76:1 80:1 83:1 
0.3819019261738879 0 5:1 17:1 21:1 35:1 44:1 65:1 67:1 72:1 74:1 76:1 78:1 83:1 
0.3253226041759096 0 5:1 10:1 17:1 20:1 37:1 41:1 49:1 66:1 71:1 72:1 74:1 76:1 80:1 83:1 
0.3083984507308225 0 4:1 15:1 22:1 36:1 41:1 64:1 71:1 72:1 74:1 76:1 78:1 83:1 
0.5 0 4:1 6:1 14:1 21:1 35:1 40:1 49:1 61:1 67:1 72:1 74:1 76:1 80:1 83:1 
0.318567869674739 0 1:1 10:1 17:1 19:1 39:1 42:1 52:1 64:1 71:1 72:1 74:1 76:1 80:1 83:1 
0.5 0 3:1 6:1 15:1 22:1 36:1 40:1 48:1 65:1 69:1 73:1 74:1 76:1 80:1 83:1 
0.3301087518448341 0 5:1 6:1 16:1 31:1 35:1 41:1 55:1 66:1 67:1 72:1 74:1 76:1 82:1 83:1 
0.4400847008844664 0 3:1 6:1 18:1 19:1 39:1 42:1 49:1 64:1 67:1 73:1 74:1 76:1 79:1 83:1 
0.5 0 4:1 6:1 17:1 22:1 36:1 40:1 48:1 63:1 71:1 73:1 74:1 76:1 80:1 83:1 
0.5 0 3:1 6:1 18:1 19:1 39:1 42:1 51:1 64:1 67:1 72:1 75:1 76:1 82:1 83:1 
0.3474784615068909 0 2:1 6:1 17:1 22:1 36:1 43:1 51:1 64:1 67:1 73:1 74:1 76:1 80:1 
0.5 0 5:1 6:1 18:1 28:1 35:1 40:1 48:1 63:1 67:1 73:1 74:1 76:1 80:1 112:1 
0.5 0 3:1 6:1 15:1 19:1 39:1 44:1 51:1 66:1 67:1 72:1 74:1 76:1 80:1 83:1 
0.07217630179697489 0 2:1 6:1 14:1 20:1 37:1 42:1 47:1 64:1 67:1 72:1 74:1 76:1 80:1 83:1 
0.2345371167353073 0 5:1 6:1 14:1 27:1 35:1 44:1 49:1 64:1 67:1 72:1 74:1 76:1 78:1 83:1 
0.5 0 5:1 6:1 17:1 20:1 37:1 40:1 50:1 63:1 67:1 73:1 74:1 76:1 78:1 83:1 
0.5 0 3:1 6:1 14:1 20:1 37:1 40:1 49:1 63:1 67:1 73:1 74:1 76:1 80:1 83:1 
0.5 0 4:1 6:1 15:1 31:1 35:1 40:1 57:1 63:1 67:1 73:1 74:1 76:1 82:1 83:1 
0.5 0 2:1 6:1 18:1 22:1 36:1 40:1 53:1 63:1 67:1 73:1 74:1 76:1 80:1 83:1 
0.5 0 3:1 6:1 16:1 19:1 39:1 40:1 48:1 63:1 67:1 73:1 74:1 76:1 80:1 83:1 
0.1183036312649365 0 1:1 14:1 22:1 36:1 42:1 62:1 67:1 72:1 74:1 76:1 82:1 83:1 
0.5 0 3:1 6:1 17:1 26:1 35:1 40:1 53:1 63:1 67:1 73:1 74:1 76:1 80:1 83:1 
0.5 0 3:1 6:1 16:1 24:1 38:1 40:1 59:1 63:1 71:1 73:1 74:1 76:1 82:1 83:1 
0.5 0 4:1 8:1 17:1 27:1 35:1 40:1 48:1 63:1 67:1 73:1 74:1 76:1 80:1 
0.5 0 4:1 17:1 22:1 36:1 40:1 63:1 67:1 73:1 74:1 76:1 80:1 83:1 
0.5 0 1:1 6:1 18:1 28:1 35:1 42:1 52:1 64:1 68:1 72:1 74:1 76:1 78:1 117:1 
0.3690856671049384 0 3:1 6:1 15:1 20:1 37:1 42:1 49:1 64:1 67:1 73:1 74:1 77:1 80:1 83:1 
0.06938272534012747 0 1:1 6:1 16:1 28:1 35:1 42:1 50:1 62:1 67:1 72:1 74:1 76:1 78:1 83:1 
0.5 0 2:1 6:1 18:1 19:1 39:1 40:1 51:1 63:1 67:1 73:1 74:1 76:1 82:1 83:1 
0.1968743603168761 0 1:1 6:1 17:1 22:1 36:1 42:1 57:1 62:1 71:1 73:1 74:1 76:1 78:1 83:1 
0.5 0 1:1 6:1 17:1 34:1 35:1 42:1 49:1 64:1 68:1 72:1 74:1 76:1 80:1 108:1 
0.5 0.07204977261572651 3:1 6:1 17:1 22:1 36:1 41:1 47:1 62:1 67:1 73:1 74:1 76:1 81:1 83:1 
0.4278236982030251 0 3:1 6:1 18:1 20:1 37:1 41:1 51:1 64:1 67:1 73:1 74:1 76:1 80:1 83:1 
0.5 0 1:1 8:1 16:1 19:1 39:1 42:1 51:1 62:1 68:1 73:1 74:1 76:1 79:1 110:1 
0.5 0 2:1 7:1 14:1 29:1 39:1 42:1 52:1 64:1 67:1 73:1 74:1 76:1 81:1 85:1 
0.5 0 4:1 6:1 14:1 22:1 36:1 41:1 49:1 64:1 67:1 73:1 74:1 77:1 80:1 83:1 
0.5 0 3:1 6:1 17:1 24:1 38:1 40:1 51:1 63:1 67:1 73:1 74:1 76:1 80:1 86:1 
0.09339303363172283 0 4:1 6:1 18:1 33:1 35:1 40:1 54:1 63:1 67:1 73:1 74:1 76:1 80:1 103:1 
0.06021354561243863 0 1:1 6:1 18:1 20:1 37:1 42:1 52:1 62:1 67:1 73:1 74:1 76:1 78:1 83:1 
0.3476465499328553 0 3:1 6:1 14:1 25:1 38:1 41:1 50:1 66:1 67:1 72:1 74:1 76:1 80:1 83:1 
0.5 0 3:1 10:1 18:1 22:1 36:1 40:1 49:1 63:1 67:1 73:1 74:1 76:1 80:1 83:1 
0.1525430161371564 0 1:1 6:1 14:1 28:1 35:1 42:1 55:1 64:1 67:1 72:1 74:1 76:1 80:1 83:1 
0.3179414973820292 0 4:1 11:1 17:1 19:1 39:1 41:1 55:1 64:1 67:1 73:1 74:1 76:1 80:1 83:1 
0.3266956125029635 0 5:1 6:1 17:1 22:1 36:1 45:1 51:1 66:1 67:1 72:1 74:1 76:1 78:1 83:1 
0.3147382287215463 0 2:1 6:1 18:1 19:1 39:1 42:1 52:1 64:1 67:1 73:1 74:1 76:1 82:1 83:1 
0.5 0.05992571686947047 4:1 6:1 16:1 20:1 37:1 41:1 50:1 66:1 67:1 73:1 74:1 76:1 82:1 83:1 
0.305667468744212 0 3:1 6:1 14:1 29:1 39:1 42:1 49:1 64:1 67:1 72:1 74:1 76:1 78:1 83:1 
0.3523328987530895 0 1:1 6:1 15:1 21:1 35:1 42:1 57:1 65:1 67:1 73:1 74:1 76:1 80:1 114:1 
0.5 0 2:1 6:1 15:1 20:1 37:1 40:1 53:1 63:1 67:1 73:1 74:1 76:1 80:1 100:1 
0.4328516792758074 0 4:1 10:1 17:1 22:1 36:1 43:1 49:1 66:1 71:1 72:1 74:1 76:1 80:1 83:1 
0.5 0.0701431910026783 4:1 7:1 16:1 22:1 36:1 40:1 48:1 63:1 67:1 73:1 74:1 76:1 82:1 85:1 
0.4474889085468157 0 2:1 6:1 18:1 19:1 39:1 42:1 47:1 64:1 71:1 72:1 74:1 76:1 80:1 106:1 
0.5 0 5:1 15:1 22:1 36:1 42:1 64:1 67:1 73:1 74:1 77:1 79:1 83:1 
0.5 0 2:1 6:1 15:1 33:1 35:1 40:1 54:1 63:1 67:1 73:1 75:1 76:1 80:1 103:1 
0.3516994600431374 0 5:1 6:1 17:1 22:1 36:1 44:1 54:1 66:1 71:1 72:1 74:1 76:1 81:1 83:1 
0.1328987397398909 0 1:1 6:1 18:1 21:1 35:1 42:1 52:1 62:1 67:1 73:1 74:1 76:1 80:1 83:1 
0.5 0 4:1 10:1 17:1 22:1 36:1 40:1 57:1 63:1 71:1 73:1 74:1 76:1 80:1 83:1 
0.194332531255788 0 3:1 6:1 14:1 24:1 38:1 42:1 55:1 64:1 67:1 72:1 74:1 76:1 80:1 83:1 
0.3844575109539011 0 4:1 6:1 16:1 22:1 36:1 41:1 47:1 66:1 71:1 72:1 74:1 76:1 79:1 83:1 
0.5 0 5:1 18:1 22:1 36:1 40:1 63:1 71:1 73:1 74:1 76:1 80:1 83:1 
0.2630225874031404 0 5:1 6:1 16:1 22:1 36:1 44:1 53:1 64:1 67:1 72:1 74:1 76:1 80:1 83:1 
0.5 0 4:1 6:1 14:1 29:1 39:1 44:1 52:1 64:1 67:1 72:1 75:1 76:1 82:1 83:1 
0.5 0 5:1 16:1 22:1 36:1 40:1 63:1 67:1 73:1 75:1 76:1 78:1 83:1 
0.5 0 5:1 6:1 16:1 21:1 35:1 40:1 54:1 63:1 67:1 73:1 74:1 76:1 80:1 83:1 
0.3000150400431771 0 1:1 18:1 20:1 37:1 42:1 62:1 67:1 72:1 74:1 77:1 80:1 83:1 
0.5 0 2:1 6:1 14:1 31:1 35:1 45:1 55:1 66:1 67:1 72:1 74:1 76:1 80:1 103:1 
0.5 0 5:1 7:1 15:1 31:1 35:1 40:1 56:1 63:1 67:1 73:1 74:1 76:1 80:1 83:1 
0.3557435308275074 0 4:1 7:1 15:1 20:1 37:1 41:1 55:1 66:1 67:1 72:1 74:1 76:1 79:1 83:1 
0.1996909694164585 0 1:1 6:1 15:1 20:1 37:1 42:1 50:1 62:1 71:1 72:1 74:1 76:1 78:1 83:1 
0.5 0 5:1 6:1 18:1 19:1 39:1 40:1 52:1 63:1 67:1 73:1 74:1 76:1 82:1 83:1 
0.3321927471655288 0 3:1 6:1 16:1 24:1 38:1 41:1 48:1 64:1 67:1 73:1 74:1 76:1 80:1 83:1 
0.5 0 4:1 6:1 16:1 22:1 36:1 40:1 48:1 63:1 68:1 73:1 74:1 76:1 80:1 110:1 
0.1310980739535372 0 5:1 6:1 16:1 20:1 37:1 41:1 49:1 64:1 67:1 72:1 74:1 76:1 80:1 83:1 
0.5 0 2:1 8:1 14:1 19:1 39:1 40:1 50:1 63:1 67:1 73:1 74:1 76:1 80:1 83:1 
0.5 0 5:1 10:1 14:1 19:1 39:1 40:1 52:1 61:1 67:1 72:1 74:1 76:1 80:1 83:1 
0.1869444755400339 0 4:1 6:1 16:1 22:1 36:1 41:1 55:1 64:1 67:1 72:1 74:1 76:1 78:1 83:1 
0.1112251895332052 0 1:1 6:1 15:1 31:1 35:1 42:1 50:1 62:1 67:1 72:1 74:1 76:1 78:1 83:1 
0.2207107867218609 0 1:1 6:1 18:1 25:1 38:1 42:1 55:1 64:1 67:1 72:1 74:1 76:1 80:1 83:1 
0.2673733827250959 0 5:1 6:1 18:1 27:1 35:1 41:1 54:1 66:1 67:1 72:1 74:1 76:1 80:1 83:1 
0.5 0 4:1 6:1 14:1 27:1 35:1 42:1 49:1 62:1 67:1 73:1 74:1 76:1 82:1 83:1 
0.5 0 4:1 10:1 17:1 22:1 36:1 40:1 57:1 63:1 67:1 73:1 74:1 76:1 80:1 83:1 
0.5 0 3:1 11:1 14:1 20:1 37:1 40:1 51:1 63:1 67:1 73:1 74:1 76:1 79:1 83:1 
0.4106961118691682 0 3:1 11:1 15:1 22:1 36:1 41:1 52:1 64:1 67:1 73:1 74:1 76:1 80:1 83:1 
0.5 0 3:1 6:1 14:1 19:1 39:1 40:1 50:1 61:1 67:1 73:1 74:1 76:1 82:1 
0.2265317592341049 0 1:1 6:1 16:1 20:1 37:1 42:1 55:1 64:1 67:1 72:1 74:1 76:1 81:1 83:1 
0.1369162131278537 0 4:1 6:1 15:1 22:1 36:1 41:1 55:1 64:1 67:1 73:1 74:1 76:1 78:1 83:1 
0.303125639683124 0 5:1 9:1 14:1 22:1 36:1 42:1 55:1 64:1 71:1 72:1 74:1 76:1 80:1 83:1 
0.2445817397526335 0 1:1 6:1 16:1 24:1 38:1 42:1 50:1 62:1 67:1 73:1 74:1 76:1 78:1 83:1 
0.5 0 3:1 11:1 17:1 29:1 39:1 40:1 52:1 63:1 68:1 73:1 74:1 76:1 78:1 90:1 
0.5 0 3:1 6:1 18:1 22:1 36:1 40:1 48:1 63:1 67:1 73:1 74:1 76:1 80:1 83:1 
0.5 0 4:1 6:1 17:1 19:1 39:1 41:1 51:1 64:1 67:1 73:1 74:1 76:1 79:1 83:1 
0.2289180146201032 0 3:1 6:1 16:1 20:1 37:1 42:1 48:1 62:1 67:1 72:1 74:1 76:1 78:1 83:1 
0.2054561947988397 0 2:1 15:1 22:1 36:1 43:1 66:1 67:1 72:1 74:1 76:1 80:1 83:1 
0.07501494732289483 0 5:1 17:1 22:1 36:1 44:1 64:1 67:1 72:1 74:1 76:1 78:1 83:1 
0.4441983651573285 0 2:1 6:1 17:1 21:1 35:1 43:1 56:1 65:1 67:1 73:1 74:1 76:1 80:1 86:1 
0.1727997527693061 0 1:1 10:1 16:1 20:1 37:1 42:1 55:1 64:1 67:1 72:1 74:1 76:1 80:1 83:1 
0.5 0 2:1 8:1 15:1 22:1 36:1 40:1 50:1 63:1 67:1 73:1 74:1 76:1 82:1 83:1 
0.5 0 5:1 6:1 14:1 22:1 36:1 40:1 51:1 63:1 67:1 73:1 74:1 76:1 82:1 83:1 
0.5 0 3:1 6:1 15:1 22:1 36:1 40:1 50:1 63:1 67:1 73:1 74:1 76:1 82:1 83:1 
0.1127969094767504 0 3:1 6:1 18:1 20:1 37:1 42:1 57:1 64:1 67:1 73:1 74:1 76:1 80:1 83:1 
0.247112734246714 0 4:1 6:1 18:1 27:1 35:1 40:1 54:1 63:1 67:1 73:1 74:1 76:1 80:1 83:1 
0.3150059570586911 0 4:1 6:1 17:1 22:1 36:1 43:1 53:1 64:1 67:1 73:1 74:1 76:1 80:1 83:1 
0.2916118480703896 0 4:1 11:1 16:1 20:1 37:1 41:1 55:1 64:1 67:1 72:1 74:1 76:1 80:1 83:1 
0.5 0 4:1 6:1 18:1 22:1 36:1 40:1 57:1 63:1 67:1 73:1 75:1 76:1 81:1 83:1 
0.3150588411961084 0 5:1 6:1 16:1 22:1 36:1 41:1 59:1 64:1 67:1 73:1 74:1 76:1 80:1 83:1 
0.5 0 5:1 10:1 18:1 19:1 39:1 44:1 52:1 64:1 71:1 72:1 74:1 77:1 78:1 83:1 
0.3809066687412517 0 5:1 6:1 16:1 27:1 35:1 44:1 49:1 64:1 67:1 72:1 74:1 76:1 78:1 88:1 
0.1544784709589358 0 1:1 6:1 16:1 22:1 36:1 42:1 50:1 62:1 67:1 72:1 74:1 76:1 79:1 83:1 
0.2460400727207408 0.05975608453142489 1:1 7:1 14:1 22:1 36:1 42:1 48:1 62:1 67:1 73:1 74:1 76:1 80:1 83:1 
0.5 0 2:1 7:1 15:1 19:1 39:1 41:1 48:1 64:1 67:1 73:1 74:1 76:1 82:1 83:1 
0.1292401903157834 0 5:1 6:1 17:1 22:1 36:1 41:1 55:1 66:1 67:1 72:1 74:1 76:1 80:1 83:1 
0.4407247358629406 0 2:1 6:1 15:1 22:1 36:1 42:1 55:1 66:1 71:1 72:1 75:1 76:1 79:1 83:1 
0.5 0 1:1 6:1 17:1 20:1 37:1 40:1 54:1 63:1 67:1 73:1 74:1 76:1 80:1 83:1 
0.5 0 5:1 7:1 17:1 22:1 36:1 40:1 56:1 63:1 67:1 73:1 74:1 76:1 80:1 83:1 
0.126872291699776 0 1:1 6:1 18:1 22:1 36:1 42:1 53:1 62:1 69:1 73:1 74:1 76:1 80:1 83:1 
0.5 0 2:1 6:1 17:1 20:1 37:1 40:1 47:1 61:1 67:1 72:1 74:1 76:1 80:1 83:1 
0.1571910403782142 0 3:1 6:1 17:1 20:1 37:1 42:1 49:1 64:1 67:1 72:1 74:1 76:1 78:1 83:1 
0.2766743168467643 0 3:1 6:1 18:1 33:1 35:1 40:1 48:1 63:1 67:1 73:1 74:1 76:1 80:1 103:1 
0.3071216703206857 0 2:1 9:1 18:1 20:1 37:1 42:1 47:1 64:1 67:1 73:1 74:1 76:1 80:1 83:1 
0.5 0 5:1 7:1 14:1 19:1 39:1 44:1 50:1 66:1 67:1 72:1 74:1 76:1 78:1 83:1 
0.5 0 5:1 6:1 17:1 19:1 39:1 43:1 55:1 66:1 67:1 72:1 74:1 76:1 80:1 83:1 
0.3481597345887716 0 4:1 6:1 16:1 20:1 37:1 44:1 52:1 66:1 67:1 72:1 74:1 76:1 80:1 83:1 
0.1165779587032315 0 4:1 6:1 15:1 20:1 37:1 41:1 55:1 66:1 67:1 72:1 74:1 76:1 79:1 83:1 
0.4427549514729643 0 5:1 6:1 16:1 27:1 35:1 40:1 48:1 63:1 71:1 73:1 74:1 76:1 80:1 83:1 
0.5 0 5:1 6:1 16:1 29:1 39:1 40:1 53:1 63:1 67:1 73:1 74:1 76:1 81:1 83:1 
0.5 0 5:1 10:1 14:1 20:1 37:1 40:1 59:1 63:1 67:1 73:1 75:1 76:1 81:1 83:1 
0.444896010571843 0 2:1 6:1 15:1 21:1 35:1 42:1 48:1 64:1 68:1 73:1 74:1 76:1 80:1 90:1 
0.5 0 2:1 6:1 15:1 22:1 36:1 40:1 57:1 63:1 67:1 73:1 74:1 76:1 80:1 83:1 
0.3683122833280174 0 4:1 10:1 18:1 20:1 37:1 41:1 59:1 66:1 67:1 72:1 74:1 76:1 80:1 83:1 
0.5 0 2:1 6:1 18:1 22:1 36:1 40:1 57:1 63:1 67:1 73:1 75:1 76:1 81:1 83:1 
0.5 0 1:1 6:1 18:1 31:1 35:1 42:1 53:1 65:1 67:1 73:1 74:1 77:1 81:1 83:1 
0.3744742323811793 0 3:1 11:1 14:1 29:1 39:1 41:1 55:1 64:1 67:1 72:1 74:1 76:1 80:1 83:1 
0.2137946450760943 0 2:1 6:1 17:1 20:1 37:1 43:1 53:1 64:1 67:1 73:1 74:1 76:1 80:1 83:1 
0.3860609498324631 0 5:1 6:1 17:1 26:1 35:1 42:1 53:1 62:1 67:1 73:1 74:1 76:1 80:1 119:1 
0.3866770546506304 0 3:1 6:1 16:1 20:1 37:1 41:1 51:1 64:1 67:1 73:1 74:1 76:1 79:1 83:1 
0.5 0 4:1 11:1 15:1 20:1 37:1 40:1 51:1 63:1 67:1 73:1 74:1 77:1 80:1 83:1 
0.352170936557743 0 2:1 6:1 17:1 22:1 36:1 42:1 48:1 64:1 67:1 73:1 74:1 77:1 79:1 83:1 
0.2644913341673342 0 1:1 11:1 17:1 19:1 39:1 42:1 47:1 64:1 67:1 72:1 74:1 76:1 80:1 83:1 
0.5 0 2:1 6:1 17:1 22:1 36:1 40:1 57:1 63:1 67:1 73:1 74:1 76:1 82:1 83:1 
0.2566424268485469 0 2:1 6:1 18:1 20:1 37:1 42:1 48:1 66:1 67:1 73:1 74:1 76:1 82:1 83:1 
0.5 0 5:1 6:1 17:1 22:1 36:1 40:1 49:1 63:1 67:1 73:1 74:1 76:1 80:1 83:1 
0.1525215384931092 0 2:1 6:1 17:1 22:1 36:1 42:1 53:1 64:1 67:1 73:1 74:1 76:1 81:1 83:1 
0.1844023753256966 0 3:1 11:1 14:1 20:1 37:1 42:1 49:1 62:1 67:1 73:1 74:1 76:1 80:1 83:1 
0.5 0 4:1 6:1 18:1 22:1 36:1 40:1 49:1 63:1 71:1 73:1 74:1 76:1 80:1 83:1 
0.1511214924526668 0 1:1 6:1 18:1 24:1 38:1 42:1 55:1 64:1 67:1 72:1 74:1 76:1 78:1 83:1 
0.4755285678561344 0 5:1 7:1 17:1 22:1 36:1 40:1 56:1 63:1 67:1 73:1 74:1 76:1 78:1 83:1 
0.4117459017312086 0 3:1 6:1 16:1 21:1 35:1 40:1 48:1 63:1 67:1 73:1 74:1 76:1 79:1 83:1 
0.5 0 4:1 10:1 15:1 29:1 39:1 41:1 52:1 64:1 69:1 73:1 74:1 76:1 80:1 83:1 
0.1807002529250956 0 1:1 6:1 17:1 20:1 37:1 42:1 47:1 66:1 67:1 72:1 74:1 76:1 78:1 83:1 
0.5 0 4:1 6:1 17:1 20:1 37:1 40:1 51:1 63:1 67:1 73:1 74:1 76:1 80:1 86:1 
0.5 0 3:1 7:1 14:1 22:1 36:1 40:1 57:1 63:1 67:1 73:1 74:1 76:1 82:1 83:1 
0.5 0 3:1 6:1 18:1 19:1 39:1 41:1 51:1 64:1 67:1 73:1 74:1 77:1 80:1 83:1 
0.2089502621840446 0.05012842278275769 3:1 6:1 17:1 22:1 36:1 41:1 57:1 64:1 67:1 73:1 74:1 76:1 82:1 83:1 
0.5 0 5:1 10:1 17:1 22:1 36:1 40:1 59:1 63:1 67:1 73:1 75:1 76:1 80:1 83:1 
0.5 0 2:1 6:1 16:1 22:1 36:1 40:1 54:1 63:1 67:1 73:1 74:1 76:1 80:1 83:1 
0.5 0 4:1 6:1 14:1 25:1 38:1 40:1 49:1 63:1 67:1 73:1 74:1 76:1 81:1 83:1 
0.07941944555378108 0 2:1 6:1 17:1 22:1 36:1 42:1 57:1 64:1 67:1 72:1 74:1 76:1 80:1 83:1 
0.5 0 3:1 6:1 17:1 20:1 37:1 40:1 53:1 63:1 71:1 73:1 74:1 76:1 80:1 83:1 
0.5 0 3:1 6:1 18:1 29:1 39:1 42:1 51:1 66:1 67:1 73:1 74:1 76:1 80:1 83:1 
0.5 0 2:1 6:1 18:1 20:1 37:1 40:1 57:1 63:1 67:1 73:1 74:1 76:1 82:1 83:1 
0.3472525416415913 0 3:1 6:1 18:1 26:1 35:1 40:1 56:1 63:1 67:1 73:1 74:1 76:1 82:1 103:1 
0.5 0 2:1 7:1 14:1 19:1 39:1 42:1 51:1 64:1 67:1 73:1 74:1 76:1 82:1 83:1 
0.2664746300581511 0 1:1 6:1 15:1 22:1 36:1 42:1 48:1 62:1 71:1 73:1 74:1 76:1 82:1 83:1 
0.1712619266467816 0 3:1 18:1 21:1 35:1 42:1 64:1 67:1 72:1 74:1 76:1 80:1 83:1 
0.3434144453586626 0 1:1 6:1 15:1 20:1 37:1 42:1 48:1 65:1 68:1 72:1 74:1 76:1 80:1 102:1 
0.1708800615155147 0 1:1 6:1 17:1 19:1 39:1 42:1 55:1 62:1 67:1 72:1 74:1 76:1 79:1 83:1 
0.5 0 2:1 6:1 17:1 22:1 36:1 40:1 55:1 63:1 67:1 73:1 74:1 76:1 79:1 83:1 
0.2829083143726917 0 1:1 7:1 14:1 20:1 37:1 42:1 47:1 64:1 67:1 73:1 74:1 76:1 78:1 83:1 
0.5 0 2:1 6:1 17:1 21:1 35:1 40:1 53:1 63:1 67:1 73:1 75:1 76:1 80:1 83:1 
0.1540133683269769 0 1:1 17:1 21:1 35:1 42:1 62:1 71:1 73:1 74:1 76:1 78:1 83:1 
0.4269330598528505 0.05501397832012171 5:1 8:1 15:1 22:1 36:1 42:1 50:1 65:1 67:1 73:1 74:1 76:1 80:1 
0.2768866564876002 0 4:1 6:1 18:1 27:1 35:1 41:1 50:1 64:1 67:1 72:1 74:1 76:1 80:1 83:1 
0.5 0 2:1 18:1 20:1 37:1 40:1 61:1 67:1 72:1 74:1 76:1 78:1 83:1 
0.2021070111816287 0 2:1 6:1 18:1 31:1 35:1 40:1 57:1 63:1 67:1 73:1 74:1 76:1 80:1 83:1 
0.08779608192653902 0 1:1 6:1 15:1 22:1 36:1 42:1 53:1 62:1 71:1 73:1 74:1 76:1 78:1 83:1 
0.3459240551094767 0 3:1 7:1 14:1 19:1 39:1 42:1 49:1 64:1 67:1 72:1 74:1 76:1 78:1 83:1 
0.342893607702589 0 3:1 18:1 25:1 38:1 42:1 62:1 67:1 73:1 74:1 76:1 78:1 83:1 
0.1725528771761873 0 3:1 6:1 16:1 22:1 36:1 42:1 53:1 64:1 71:1 73:1 74:1 76:1 80:1 83:1 
0.5 0 4:1 6:1 16:1 29:1 39:1 40:1 52:1 63:1 67:1 73:1 74:1 76:1 80:1 83:1 
0.5 0 5:1 6:1 17:1 29:1 39:1 41:1 52:1 64:1 67:1 73:1 74:1 76:1 78:1 83:1 
0.2910497378159553 0 3:1 6:1 17:1 22:1 36:1 41:1 48:1 66:1 67:1 73:1 74:1 76:1 80:1 83:1 
0.5 0 3:1 6:1 14:1 22:1 36:1 40:1 57:1 63:1 67:1 73:1 74:1 76:1 80:1 83:1 
0.5 0 2:1 6:1 18:1 19:1 39:1 42:1 55:1 64:1 67:1 73:1 74:1 76:1 82:1 83:1 
0.3488785075473332 0.05730336676347884 1:1 11:1 15:1 24:1 38:1 42:1 52:1 64:1 67:1 73:1 74:1 76:1 78:1 83:1 
0.4236263247661571 0 4:1 6:1 14:1 25:1 38:1 42:1 48:1 64:1 67:1 73:1 74:1 76:1 78:1 83:1 
0.5 0.07594005031850906 4:1 7:1 14:1 22:1 36:1 41:1 51:1 66:1 67:1 72:1 74:1 76:1 82:1 83:1 
0.5 0 3:1 6:1 15:1 20:1 37:1 40:1 48:1 63:1 67:1 73:1 74:1 76:1 80:1 83:1 
0.5 0.0618208052994318 4:1 8:1 15:1 19:1 39:1 41:1 51:1 64:1 67:1 72:1 74:1 76:1 82:1 83:1 
0.5 0.05769374791018439 1:1 8:1 16:1 22:1 36:1 40:1 50:1 63:1 67:1 73:1 74:1 76:1 82:1 
0.1704891562536472 0 1:1 6:1 18:1 24:1 38:1 42:1 52:1 64:1 67:1 72:1 74:1 76:1 80:1 83:1 
0.5 0 4:1 6:1 18:1 22:1 36:1 40:1 54:1 63:1 67:1 73:1 74:1 76:1 80:1 83:1 
0.5 0 2:1 11:1 18:1 19:1 39:1 40:1 52:1 63:1 67:1 73:1 74:1 76:1 78:1 83:1 
0.3319276544701474 0 3:1 6:1 15:1 20:1 37:1 43:1 49:1 66:1 71:1 72:1 74:1 76:1 78:1 83:1 
0.3191924888260993 0 3:1 6:1 18:1 20:1 37:1 41:1 48:1 64:1 67:1 72:1 74:1 76:1 79:1 83:1 
0.1864877072585243 0 4:1 6:1 16:1 27:1 35:1 40:1 49:1 63:1 67:1 73:1 74:1 76:1 80:1 
0.5 0 3:1 6:1 16:1 19:1 39:1 42:1 50:1 64:1 67:1 72:1 74:1 77:1 80:1 83:1 
0.5 0 2:1 6:1 16:1 29:1 39:1 42:1 52:1 64:1 68:1 73:1 74:1 76:1 78:1 90:1 
0.3091507584028962 0 5:1 6:1 15:1 22:1 36:1 43:1 57:1 64:1 67:1 73:1 74:1 76:1 78:1 83:1 
0.5 0 5:1 11:1 17:1 19:1 39:1 41:1 55:1 64:1 71:1 72:1 74:1 76:1 79:1 83:1 
0.5 0 5:1 7:1 14:1 22:1 36:1 40:1 56:1 63:1 67:1 73:1 75:1 76:1 80:1 83:1 
0.0673315869199223 0 2:1 6:1 17:1 22:1 36:1 42:1 55:1 64:1 67:1 72:1 74:1 76:1 82:1 83:1 
0.3598106974714656 0 2:1 6:1 15:1 20:1 37:1 40:1 49:1 61:1 67:1 72:1 74:1 76:1 80:1 83:1 
0.5 0 2:1 8:1 14:1 19:1 39:1 42:1 50:1 64:1 67:1 73:1 74:1 76:1 82:1 83:1 
0.2143251085862249 0 3:1 6:1 16:1 22:1 36:1 41:1 53:1 65:1 67:1 73:1 74:1 76:1 80:1 83:1 
0.5 0.05628685909936596 4:1 7:1 15:1 24:1 38:1 40:1 48:1 63:1 67:1 73:1 74:1 77:1 82:1 83:1 
0.5 0 2:1 6:1 16:1 22:1 36:1 40:1 48:1 63:1 67:1 73:1 74:1 76:1 81:1 83:1 
0.09665864719624889 0 1:1 6:1 18:1 24:1 38:1 42:1 55:1 64:1 67:1 73:1 74:1 76:1 80:1 83:1 
0.4482248252946288 0.05876161830385605 1:1 10:1 15:1 24:1 38:1 42:1 55:1 62:1 71:1 72:1 74:1 76:1 79:1 83:1 
0.5 0 3:1 6:1 16:1 19:1 39:1 40:1 52:1 63:1 71:1 73:1 74:1 76:1 82:1 
0.175143844337971 0 3:1 7:1 15:1 22:1 36:1 40:1 57:1 63:1 67:1 73:1 74:1 76:1 78:1 83:1 
0.5 0 4:1 11:1 14:1 19:1 39:1 41:1 55:1 66:1 67:1 72:1 74:1 76:1 80:1 83:1 
0.5 0 5:1 6:1 15:1 22:1 36:1 40:1 49:1 61:1 67:1 72:1 74:1 76:1 78:1 83:1 
0.1163209646800804 0 2:1 18:1 22:1 36:1 41:1 64:1 67:1 73:1 74:1 76:1 80:1 83:1 
0.3129533031705548 0 1:1 6:1 14:1 20:1 37:1 41:1 53:1 62:1 67:1 73:1 74:1 76:1 80:1 83:1 
0.5 0 3:1 6:1 16:1 19:1 39:1 44:1 52:1 66:1 67:1 72:1 74:1 76:1 81:1 83:1 
0.2842176381203979 0 3:1 6:1 16:1 22:1 36:1 41:1 57:1 66:1 67:1 73:1 74:1 76:1 81:1 83:1 
0.5 0 2:1 7:1 17:1 22:1 36:1 40:1 48:1 63:1 67:1 73:1 74:1 76:1 80:1 83:1 
0.5 0 5:1 6:1 17:1 20:1 37:1 40:1 50:1 63:1 67:1 73:1 74:1 76:1 80:1 83:1 
0.4024217517333946 0 5:1 8:1 17:1 20:1 37:1 44:1 50:1 64:1 67:1 72:1 74:1 76:1 82:1 83:1 
0.4489071616394073 0 5:1 7:1 14:1 24:1 38:1 41:1 47:1 64:1 67:1 73:1 74:1 76:1 80:1 83:1 
0.1869991433399004 0 1:1 6:1 17:1 22:1 36:1 42:1 56:1 62:1 67:1 73:1 74:1 76:1 81:1 83:1 
0.2792708894208792 0 2:1 6:1 15:1 26:1 35:1 40:1 56:1 63:1 71:1 73:1 74:1 76:1 80:1 83:1 
0.2435512298653357 0 1:1 6:1 14:1 21:1 35:1 42:1 55:1 65:1 67:1 72:1 74:1 76:1 80:1 83:1 
0.4326684130800777 0 2:1 6:1 17:1 22:1 36:1 40:1 57:1 62:1 67:1 73:1 74:1 76:1 80:1 83:1 
0.3823720494625307 0 3:1 6:1 16:1 27:1 35:1 40:1 47:1 63:1 67:1 73:1 74:1 76:1 80:1 103:1 
0.5 0 2:1 8:1 17:1 19:1 39:1 40:1 48:1 63:1 67:1 73:1 74:1 76:1 82:1 87:1 
0.5 0 1:1 6:1 18:1 22:1 36:1 40:1 48:1 63:1 67:1 73:1 74:1 76:1 80:1 83:1 
0.2733486096677069 0 1:1 6:1 18:1 25:1 38:1 42:1 50:1 64:1 71:1 72:1 74:1 76:1 78:1 83:1 
0.5 0 3:1 11:1 15:1 19:1 39:1 40:1 50:1 63:1 67:1 73:1 74:1 76:1 80:1 83:1 
0.5 0.05652676082077559 4:1 10:1 16:1 19:1 39:1 41:1 52:1 66:1 71:1 72:1 74:1 76:1 78:1 83:1 
0.5 0 4:1 10:1 16:1 22:1 36:1 40:1 48:1 63:1 67:1 73:1 74:1 76:1 80:1 83:1 
0.3130384797311292 0 4:1 6:1 15:1 22:1 36:1 41:1 54:1 66:1 67:1 73:1 74:1 76:1 79:1 83:1 
0.5 0 2:1 6:1 16:1 22:1 36:1 40:1 54:1 62:1 67:1 73:1 74:1 76:1 80:1 83:1 
0.5 0 5:1 6:1 16:1 22:1 36:1 40:1 57:1 63:1 67:1 73:1 74:1 76:1 82:1 83:1 
0.5 0 5:1 6:1 14:1 19:1 39:1 40:1 47:1 63:1 67:1 73:1 74:1 76:1 80:1 83:1 
0.0788674791268176 0 1:1 15:1 21:1 35:1 42:1 62:1 67:1 72:1 74:1 76:1 78:1 83:1 
0.5 0 4:1 7:1 17:1 25:1 38:1 40:1 52:1 63:1 67:1 73:1 74:1 76:1 78:1 83:1 
0.5 0 5:1 6:1 18:1 26:1 35:1 40:1 49:1 63:1 71:1 73:1 74:1 76:1 81:1 83:1 
0.3562440410580178 0 4:1 6:1 17:1 33:1 35:1 40:1 54:1 63:1 67:1 73:1 74:1 76:1 80:1 
0.5 0 5:1 11:1 17:1 27:1 35:1 40:1 49:1 61:1 71:1 72:1 74:1 76:1 80:1 83:1 
0.5 0 2:1 6:1 15:1 22:1 36:1 40:1 54:1 61:1 67:1 72:1 74:1 76:1 80:1 83:1 
0.2211679844233785 0 3:1 6:1 14:1 22:1 36:1 41:1 55:1 66:1 71:1 72:1 74:1 76:1 80:1 83:1 
0.5 0.5 4:1 7:1 17:1 22:1 36:1 41:1 50:1 62:1 67:1 73:1 74:1 76:1 82:1 
0.1476671012469105 0.05620423217670952 1:1 6:1 18:1 22:1 36:1 42:1 48:1 65:1 71:1 73:1 74:1 76:1 80:1 83:1 
0.5 0.5 4:1 10:1 15:1 24:1 38:1 41:1 52:1 66:1 67:1 72:1 74:1 76:1 82:1 83:1 
-1 0 5:1 11:1 15:1 32:1 39:1 40:1 52:1 63:1 67:1 73:1 74:1 76:1 78:1 83:1 
-0.3909962431478369 0 5:1 18:1 19:1 39:1 40:1 63:1 67:1 73:1 74:1 76:1 80:1 83:1 
-1.759386147740611 0 5:1 6:1 14:1 27:1 35:1 42:1 57:1 64:1 67:1 73:1 74:1 76:1 82:1 83:1 
-1.572771871759509 0 3:1 6:1 17:1 19:1 39:1 42:1 50:1 64:1 70:1 72:1 74:1 76:1 82:1 83:1 
-1.443768109667476 0 4:1 6:1 14:1 29:1 39:1 42:1 47:1 64:1 67:1 73:1 74:1 76:1 79:1 83:1 
-1.41659523107183 0 5:1 6:1 15:1 22:1 36:1 40:1 49:1 63:1 67:1 73:1 74:1 76:1 80:1 83:1 
-1.36331142096708 0.05859486361041578 3:1 6:1 16:1 21:1 35:1 40:1 54:1 63:1 67:1 73:1 75:1 76:1 81:1 83:1 
-0.6984958989755509 0 5:1 6:1 16:1 32:1 39:1 40:1 52:1 63:1 67:1 73:1 74:1 77:1 82:1 83:1 
-1.164798544244013 0.05912086074463542 5:1 7:1 18:1 19:1 39:1 40:1 50:1 63:1 67:1 73:1 74:1 76:1 80:1 87:1 
-0.6035973226511032 0 4:1 6:1 15:1 19:1 39:1 40:1 48:1 63:1 67:1 73:1 75:1 76:1 80:1 83:1 
-0.7483581636616858 0 4:1 7:1 17:1 29:1 39:1 40:1 51:1 63:1 67:1 73:1 74:1 76:1 81:1 83:1 
-0.7979428806486936 0 5:1 6:1 15:1 22:1 36:1 40:1 50:1 63:1 67:1 73:1 74:1 76:1 82:1 83:1 
-1.282506308563508 0 5:1 6:1 15:1 20:1 37:1 40:1 57:1 63:1 67:1 73:1 74:1 76:1 78:1 83:1 
-0.5 0 3:1 6:1 17:1 22:1 36:1 40:1 51:1 63:1 67:1 73:1 74:1 76:1 80:1 83:1 
-1.077760045451886 0 3:1 6:1 18:1 22:1 36:1 40:1 51:1 63:1 67:1 73:1 74:1 76:1 82:1 83:1 
-1.942689029300287 0 2:1 6:1 18:1 22:1 36:1 40:1 50:1 63:1 67:1 73:1 74:1 76:1 82:1 83:1 
-1.087160565019413 0 4:1 6:1 16:1 19:1 39:1 40:1 52:1 61:1 67:1 72:1 75:1 76:1 78:1 83:1 
-1 0 2:1 6:1 16:1 20:1 37:1 40:1 47:1 63:1 67:1 73:1 75:1 76:1 80:1 83:1 
-1.454030506320819 0 4:1 6:1 16:1 22:1 36:1 40:1 49:1 61:1 71:1 72:1 74:1 76:1 80:1 83:1 
-1.113943768564743 0 4:1 6:1 14:1 20:1 37:1 40:1 47:1 63:1 67:1 73:1 74:1 76:1 78:1 83:1 
-0.8690327032323298 0 5:1 10:1 16:1 29:1 39:1 40:1 52:1 63:1 67:1 73:1 74:1 76:1 80:1 83:1 
-0.8342867024118177 0 3:1 7:1 18:1 19:1 39:1 40:1 50:1 63:1 67:1 73:1 74:1 76:1 81:1 83:1 
-0.3094954762127041 0 3:1 6:1 17:1 19:1 39:1 40:1 52:1 63:1 67:1 73:1 75:1 76:1 82:1 83:1 
-0.7019084052654472 0 5:1 9:1 14:1 22:1 36:1 40:1 51:1 63:1 67:1 73:1 75:1 76:1 80:1 83:1 
-1.313915549479038 0 2:1 6:1 14:1 22:1 36:1 40:1 48:1 63:1 67:1 73:1 74:1 76:1 80:1 83:1 
-0.07864591184724105 0 3:1 6:1 17:1 19:1 39:1 40:1 51:1 63:1 67:1 73:1 75:1 76:1 80:1 83:1 
-1.468783018343742 0 5:1 10:1 17:1 21:1 35:1 40:1 48:1 63:1 71:1 73:1 74:1 76:1 80:1 83:1 
-0.8692939095425347 0 4:1 6:1 15:1 22:1 36:1 40:1 50:1 63:1 67:1 73:1 74:1 76:1 82:1 83:1 
-1.088675886102761 0 5:1 6:1 17:1 25:1 38:1 40:1 51:1 63:1 67:1 73:1 74:1 76:1 80:1 88:1 
-0.6526294786476851 0 3:1 6:1 17:1 29:1 39:1 40:1 52:1 63:1 67:1 73:1 74:1 76:1 79:1 83:1 
-1.546613037730564 0.06186697379531805 2:1 10:1 18:1 32:1 39:1 42:1 52:1 64:1 67:1 73:1 74:1 76:1 82:1 103:1 
-1.366960235293326 0 4:1 6:1 16:1 22:1 36:1 40:1 48:1 63:1 67:1 73:1 75:1 76:1 81:1 83:1 
-0.7476110790138247 0 4:1 11:1 16:1 19:1 39:1 40:1 51:1 63:1 67:1 73:1 75:1 76:1 80:1 83:1 
-1.272572247489042 0 5:1 7:1 18:1 19:1 39:1 40:1 47:1 61:1 67:1 72:1 74:1 76:1 82:1 83:1 
-1.383612271407355 0 4:1 6:1 17:1 20:1 37:1 40:1 48:1 63:1 71:1 73:1 74:1 76:1 80:1 83:1 
-0.6757476478179976 0 3:1 6:1 16:1 29:1 39:1 40:1 50:1 63:1 67:1 73:1 74:1 76:1 82:1 83:1 
-1.369085667104939 0 5:1 6:1 16:1 19:1 39:1 41:1 51:1 64:1 71:1 73:1 75:1 76:1 80:1 83:1 
-1.323658408655592 0 3:1 6:1 14:1 20:1 37:1 40:1 47:1 63:1 67:1 73:1 74:1 76:1 82:1 83:1 
-1.449442672135155 0 3:1 6:1 14:1 22:1 36:1 40:1 57:1 63:1 67:1 73:1 75:1 76:1 82:1 83:1 
-0.5 0 4:1 6:1 17:1 19:1 39:1 40:1 52:1 63:1 67:1 73:1 74:1 77:1 80:1 83:1 
-1.069018715448489 0 4:1 6:1 14:1 25:1 38:1 40:1 50:1 63:1 67:1 73:1 74:1 77:1 82:1 83:1 
-1.46233767180196 0 5:1 16:1 20:1 37:1 40:1 61:1 67:1 72:1 74:1 76:1 81:1 83:1 
-0.5 0 5:1 6:1 14:1 22:1 36:1 40:1 53:1 63:1 67:1 73:1 74:1 76:1 80:1 83:1 
-1.209502519067431 0 5:1 6:1 16:1 19:1 39:1 43:1 51:1 64:1 67:1 73:1 75:1 76:1 81:1 83:1 
-0.939484175165208 0 4:1 6:1 17:1 22:1 36:1 40:1 47:1 63:1 67:1 73:1 74:1 76:1 81:1 83:1 
-1.453079918342039 0.06190388637966258 5:1 6:1 15:1 24:1 38:1 40:1 51:1 61:1 71:1 72:1 74:1 76:1 80:1 83:1 
-1.445247889737235 0.0586768870040529 2:1 10:1 15:1 19:1 39:1 42:1 52:1 64:1 71:1 73:1 75:1 76:1 81:1 
-0.7068333502956062 0 5:1 7:1 14:1 22:1 36:1 40:1 51:1 63:1 67:1 73:1 75:1 76:1 82:1 83:1 
-0.5770579784780134 0 4:1 8:1 15:1 19:1 39:1 40:1 50:1 63:1 67:1 73:1 74:1 76:1 82:1 83:1 
-1.655602087134217 0.06416414943984974 3:1 8:1 17:1 22:1 36:1 40:1 48:1 63:1 67:1 73:1 74:1 76:1 82:1 
-0.8204633062402406 0 4:1 6:1 18:1 20:1 37:1 40:1 57:1 63:1 67:1 73:1 74:1 76:1 82:1 83:1 
-1 0 3:1 6:1 17:1 22:1 36:1 40:1 54:1 63:1 67:1 73:1 74:1 76:1 82:1 83:1 
-0.8697129543922902 0 5:1 10:1 15:1 19:1 39:1 40:1 52:1 63:1 67:1 73:1 74:1 77:1 80:1 83:1 
-1.161439211960271 0 3:1 10:1 17:1 29:1 39:1 40:1 52:1 61:1 67:1 72:1 74:1 76:1 80:1 83:1 
-1.190702671935542 0 1:1 6:1 16:1 19:1 39:1 40:1 51:1 61:1 67:1 72:1 74:1 76:1 78:1 83:1 
-0.9277868658951909 0 3:1 11:1 14:1 29:1 39:1 40:1 52:1 63:1 67:1 73:1 75:1 76:1 79:1 83:1 
-0.7980569927448102 0 4:1 6:1 15:1 20:1 37:1 40:1 50:1 63:1 67:1 73:1 75:1 76:1 80:1 83:1 
-0.816979233232247 0 4:1 6:1 15:1 29:1 39:1 40:1 47:1 63:1 67:1 73:1 74:1 76:1 78:1 83:1 
-1.5 0 2:1 6:1 15:1 20:1 37:1 40:1 56:1 63:1 67:1 73:1 74:1 76:1 82:1 83:1 
-0.8576464602946863 0 3:1 6:1 15:1 20:1 37:1 40:1 51:1 63:1 67:1 73:1 75:1 76:1 80:1 83:1 
-1.431520727320774 0 3:1 6:1 17:1 20:1 37:1 40:1 55:1 61:1 67:1 72:1 74:1 76:1 79:1 83:1 
-0.6883441465941295 0 5:1 6:1 16:1 32:1 39:1 40:1 51:1 63:1 67:1 73:1 74:1 76:1 80:1 83:1 
-0.6942241485929483 0 3:1 7:1 14:1 19:1 39:1 40:1 52:1 63:1 67:1 73:1 74:1 76:1 82:1 83:1 
-1.485637633955285 0.06215864894257579 5:1 7:1 14:1 27:1 35:1 45:1 55:1 64:1 67:1 73:1 74:1 76:1 78:1 99:1 
-2.886437473100343 0 2:1 6:1 16:1 22:1 36:1 40:1 54:1 63:1 67:1 73:1 74:1 76:1 80:1 83:1 
-0.9281942722359829 0 4:1 10:1 17:1 20:1 37:1 40:1 48:1 63:1 67:1 73:1 74:1 76:1 80:1 83:1 
-0.1550864750950525 0 5:1 6:1 18:1 19:1 39:1 40:1 51:1 63:1 67:1 73:1 74:1 76:1 82:1 83:1 
-2.25087254890754 0 2:1 7:1 17:1 22:1 36:1 40:1 48:1 63:1 67:1 73:1 74:1 76:1 80:1 83:1 
-1.281416990811465 0 2:1 6:1 15:1 20:1 37:1 40:1 51:1 63:1 67:1 73:1 74:1 76:1 80:1 83:1 
-0.3473705213523149 0 3:1 6:1 17:1 19:1 39:1 40:1 52:1 63:1 67:1 73:1 74:1 76:1 80:1 83:1 
-1.823100772545054 0.06119957685796659 1:1 6:1 18:1 27:1 35:1 42:1 49:1 64:1 67:1 73:1 74:1 76:1 82:1 83:1 
-0.8384468595924615 0 4:1 6:1 14:1 20:1 37:1 40:1 50:1 63:1 67:1 73:1 74:1 76:1 81:1 83:1 
-0.5656142369213213 0 3:1 6:1 15:1 19:1 39:1 40:1 54:1 63:1 67:1 73:1 74:1 76:1 82:1 83:1 
-1.413967007628082 0 3:1 6:1 17:1 23:1 39:1 43:1 52:1 64:1 67:1 73:1 74:1 76:1 79:1 83:1 
-1.5 0 2:1 9:1 18:1 19:1 39:1 40:1 51:1 63:1 67:1 73:1 74:1 76:1 80:1 83:1 
-0.3381757328283087 0 2:1 6:1 17:1 19:1 39:1 40:1 51:1 63:1 67:1 73:1 74:1 76:1 80:1 83:1 
-0.701387077837058 0 5:1 8:1 15:1 23:1 39:1 40:1 52:1 63:1 67:1 73:1 75:1 76:1 82:1 83:1 
-1.566475380061846 0 4:1 6:1 16:1 22:1 36:1 40:1 57:1 63:1 67:1 73:1 74:1 76:1 82:1 83:1 
-1.327109694571019 0 4:1 7:1 16:1 20:1 37:1 40:1 48:1 63:1 67:1 73:1 74:1 77:1 80:1 83:1 
-1 0 4:1 7:1 14:1 22:1 36:1 40:1 51:1 63:1 67:1 73:1 74:1 76:1 80:1 83:1 
-1.18932030245948 0 2:1 6:1 16:1 19:1 39:1 46:1 51:1 61:1 67:1 72:1 74:1 76:1 80:1 83:1 
-1.271276300408499 0 4:1 6:1 15:1 25:1 38:1 40:1 55:1 61:1 67:1 72:1 74:1 76:1 80:1 83:1 
-1.429741715542479 0 5:1 7:1 16:1 22:1 36:1 42:1 56:1 64:1 67:1 73:1 75:1 76:1 80:1 83:1 
-1.482467847139243 0.06110295089478816 3:1 9:1 16:1 23:1 39:1 42:1 52:1 64:1 67:1 72:1 74:1 76:1 82:1 83:1 
-1.5 0 2:1 7:1 16:1 22:1 36:1 40:1 57:1 63:1 67:1 73:1 75:1 76:1 80:1 83:1 
-0.8027237051993845 0 5:1 14:1 23:1 39:1 40:1 63:1 67:1 73:1 75:1 76:1 78:1 83:1 
-0.8743083939462375 0 4:1 7:1 14:1 29:1 39:1 40:1 56:1 63:1 67:1 73:1 74:1 76:1 80:1 83:1 
-0.4268245172111289 0 2:1 6:1 17:1 22:1 36:1 40:1 54:1 63:1 67:1 73:1 74:1 76:1 82:1 83:1 
-0.379581917750639 0 3:1 6:1 14:1 19:1 39:1 40:1 57:1 63:1 67:1 73:1 75:1 76:1 82:1 83:1 
-1.612796909476751 0 3:1 6:1 18:1 32:1 39:1 42:1 52:1 64:1 67:1 73:1 74:1 76:1 80:1 110:1 
-1.395931624526924 0 4:1 6:1 16:1 32:1 39:1 42:1 52:1 64:1 67:1 73:1 74:1 76:1 79:1 83:1 
-0.9253050346740134 0 4:1 6:1 17:1 19:1 39:1 40:1 51:1 63:1 71:1 73:1 74:1 76:1 79:1 83:1 
-0.9882862759722657 0 4:1 6:1 17:1 25:1 38:1 40:1 54:1 63:1 67:1 73:1 74:1 76:1 80:1 83:1 
-0.8247254059372172 0 4:1 6:1 14:1 25:1 38:1 40:1 51:1 63:1 67:1 73:1 75:1 76:1 82:1 83:1 
-0.7524641835961728 0 5:1 6:1 14:1 19:1 39:1 40:1 50:1 63:1 67:1 73:1 75:1 76:1 78:1 83:1 
-0.05036344579142635 0 3:1 6:1 17:1 19:1 39:1 40:1 47:1 63:1 67:1 73:1 74:1 76:1 82:1 83:1 
-0.2103094205414799 0 4:1 6:1 17:1 19:1 39:1 40:1 51:1 63:1 67:1 73:1 75:1 76:1 82:1 83:1 
-1.278103311201495 0 3:1 11:1 17:1 29:1 39:1 40:1 52:1 61:1 67:1 72:1 75:1 76:1 79:1 83:1 
-0.7310094041011278 0 3:1 6:1 16:1 20:1 37:1 40:1 51:1 63:1 67:1 73:1 74:1 76:1 82:1 83:1 
-1.057491712918409 0 5:1 11:1 17:1 32:1 39:1 40:1 52:1 63:1 67:1 73:1 74:1 76:1 82:1 112:1 
-1.475528567856134 0.06050581676205411 2:1 6:1 17:1 22:1 36:1 40:1 53:1 61:1 67:1 72:1 74:1 76:1 80:1 103:1 
-1 0 5:1 7:1 14:1 23:1 39:1 40:1 52:1 63:1 67:1 73:1 74:1 76:1 82:1 85:1 
