svm_type c_svc
kernel_type rbf
gamma 0.5
nr_class 3
total_sv 1441
rho -0.510574 -0.944341 -0.939578
label -1 1 2
nr_sv 1057 382 2
SV
0.5171911668321519 0 3:1 11:1 14:1 19:1 39:1 42:1 55:1 64:1 67:1 73:1 75:1 76:1 80:1 83:1 
0.446059431775823 0 3:1 6:1 17:1 27:1 35:1 40:1 57:1 63:1 69:1 73:1 74:1 76:1 81:1 103:1 
0.4331078262023381 0 4:1 6:1 15:1 21:1 35:1 40:1 57:1 63:1 67:1 73:1 74:1 77:1 80:1 83:1 
0.1933451655885259 0 5:1 6:1 15:1 22:1 36:1 41:1 47:1 66:1 67:1 72:1 74:1 76:1 80:1 83:1 
1 0 2:1 6:1 16:1 22:1 36:1 40:1 54:1 63:1 67:1 73:1 75:1 76:1 80:1 83:1 
0.2365884289624833 0 2:1 6:1 14:1 20:1 37:1 41:1 47:1 64:1 67:1 73:1 74:1 76:1 82:1 83:1 
0.1890034968192487 0 1:1 6:1 14:1 22:1 36:1 42:1 49:1 64:1 67:1 72:1 74:1 77:1 80:1 83:1 
0.3200963251718471 0 2:1 6:1 18:1 20:1 37:1 42:1 48:1 64:1 71:1 73:1 74:1 76:1 81:1 83:1 
0.176170203682682 0 5:1 16:1 30:1 35:1 41:1 64:1 67:1 73:1 74:1 76:1 80:1 83:1 
1 0 5:1 6:1 15:1 20:1 37:1 40:1 50:1 63:1 67:1 73:1 75:1 76:1 80:1 83:1 
0.6669786388149863 0 5:1 7:1 16:1 29:1 39:1 40:1 48:1 63:1 67:1 73:1 74:1 76:1 78:1 83:1 
0.3252943173273126 0 1:1 11:1 18:1 20:1 37:1 42:1 59:1 62:1 71:1 72:1 74:1 76:1 80:1 83:1 
0.6591558265138124 0 2:1 11:1 18:1 20:1 37:1 40:1 54:1 63:1 67:1 73:1 74:1 76:1 80:1 83:1 
0.3097929984205207 0.0610361702537474 1:1 6:1 17:1 22:1 36:1 42:1 53:1 64:1 67:1 73:1 74:1 76:1 82:1 107:1 
1 0 1:1 6:1 14:1 20:1 37:1 40:1 55:1 63:1 67:1 73:1 74:1 76:1 80:1 83:1 
0.376814584020855 0 4:1 6:1 18:1 22:1 36:1 44:1 51:1 66:1 71:1 72:1 74:1 76:1 80:1 83:1 
0.6214658643030546 0 2:1 6:1 15:1 19:1 39:1 40:1 52:1 63:1 67:1 73:1 74:1 76:1 82:1 83:1 
0.1840751542054239 0 3:1 6:1 16:1 19:1 39:1 42:1 48:1 62:1 67:1 73:1 74:1 76:1 78:1 83:1 
0.3687135270021207 0 1:1 10:1 18:1 22:1 36:1 42:1 56:1 64:1 67:1 73:1 74:1 76:1 80:1 100:1 
0.09241120235235868 0 5:1 6:1 14:1 20:1 37:1 41:1 55:1 64:1 67:1 72:1 74:1 76:1 78:1 83:1 
1 0 3:1 6:1 14:1 22:1 36:1 40:1 54:1 63:1 67:1 73:1 74:1 76:1 80:1 83:1 
0.4246596055399873 0 3:1 10:1 18:1 22:1 36:1 43:1 51:1 64:1 71:1 73:1 74:1 76:1 80:1 83:1 
1 0 5:1 8:1 14:1 19:1 39:1 40:1 50:1 63:1 67:1 73:1 74:1 76:1 82:1 83:1 
0 0.06557479832508521 3:1 7:1 18:1 22:1 36:1 40:1 50:1 63:1 67:1 73:1 74:1 76:1 82:1 83:1 
0.5627156903111549 0 2:1 6:1 14:1 20:1 37:1 40:1 48:1 63:1 67:1 73:1 74:1 76:1 81:1 83:1 
1 0 5:1 6:1 14:1 22:1 36:1 40:1 48:1 63:1 67:1 73:1 74:1 76:1 78:1 83:1 
1 0 5:1 15:1 22:1 36:1 40:1 63:1 67:1 73:1 74:1 76:1 82:1 83:1 
0.4908912604234516 0 1:1 15:1 21:1 35:1 45:1 62:1 68:1 72:1 74:1 77:1 80:1 93:1 
0.1404960958647783 0 3:1 6:1 14:1 20:1 37:1 41:1 55:1 66:1 71:1 72:1 74:1 76:1 80:1 83:1 
0.3011132602652385 0 2:1 6:1 17:1 22:1 36:1 40:1 49:1 63:1 67:1 73:1 74:1 76:1 80:1 103:1 
0.2550575722378097 0 5:1 6:1 16:1 20:1 37:1 41:1 55:1 64:1 68:1 72:1 74:1 76:1 80:1 83:1 
0.6911384159748735 0 2:1 6:1 16:1 25:1 38:1 40:1 55:1 63:1 67:1 73:1 74:1 77:1 81:1 83:1 
0.1836866174549739 0 5:1 6:1 15:1 22:1 36:1 42:1 50:1 64:1 67:1 73:1 74:1 76:1 79:1 83:1 
1 0 5:1 7:1 14:1 22:1 36:1 40:1 56:1 63:1 67:1 73:1 74:1 77:1 82:1 83:1 
0.2933417046144037 0 1:1 6:1 17:1 22:1 36:1 42:1 50:1 64:1 67:1 72:1 75:1 76:1 80:1 83:1 
0.3103201130513543 0 4:1 6:1 14:1 26:1 35:1 41:1 54:1 64:1 67:1 72:1 74:1 76:1 80:1 83:1 
0.3989333377611264 0 3:1 6:1 15:1 22:1 36:1 40:1 48:1 63:1 67:1 73:1 74:1 76:1 78:1 83:1 
0.3524488064675647 0 1:1 6:1 17:1 20:1 37:1 42:1 51:1 64:1 67:1 72:1 75:1 76:1 80:1 83:1 
0.4386602898050093 0 5:1 7:1 15:1 22:1 36:1 42:1 56:1 66:1 67:1 73:1 74:1 76:1 81:1 83:1 
1 0 3:1 6:1 16:1 29:1 39:1 40:1 52:1 63:1 67:1 73:1 74:1 76:1 78:1 83:1 
0.1072421924810188 0 3:1 6:1 15:1 22:1 36:1 42:1 49:1 64:1 67:1 73:1 74:1 76:1 82:1 83:1 
0.9025401068178857 0 5:1 6:1 15:1 22:1 36:1 40:1 54:1 63:1 67:1 73:1 75:1 76:1 80:1 83:1 
0.5234428448622153 0 2:1 6:1 15:1 19:1 39:1 42:1 50:1 64:1 71:1 72:1 74:1 77:1 80:1 83:1 
1 0 4:1 6:1 18:1 25:1 38:1 40:1 57:1 63:1 67:1 73:1 74:1 76:1 82:1 83:1 
1 0 4:1 6:1 17:1 22:1 36:1 40:1 57:1 63:1 67:1 73:1 74:1 76:1 82:1 83:1 
0.1730228631597285 0 3:1 16:1 22:1 36:1 41:1 64:1 67:1 72:1 74:1 76:1 80:1 83:1 
0.5792606270076018 0 5:1 7:1 17:1 20:1 37:1 40:1 50:1 63:1 67:1 73:1 74:1 76:1 82:1 83:1 
1 0 5:1 6:1 18:1 22:1 36:1 40:1 48:1 63:1 67:1 73:1 74:1 76:1 82:1 83:1 
1 0 4:1 6:1 16:1 22:1 36:1 40:1 48:1 63:1 67:1 73:1 74:1 76:1 80:1 83:1 
0.6212703645454014 0 5:1 6:1 14:1 20:1 37:1 40:1 48:1 63:1 67:1 73:1 74:1 76:1 80:1 83:1 
0.3271581827553157 0 5:1 6:1 16:1 22:1 36:1 44:1 55:1 62:1 67:1 72:1 74:1 76:1 80:1 83:1 
1 0 4:1 7:1 16:1 20:1 37:1 40:1 56:1 63:1 67:1 73:1 74:1 76:1 82:1 83:1 
0.1981798904285949 0 4:1 6:1 14:1 20:1 37:1 42:1 55:1 62:1 67:1 72:1 74:1 76:1 80:1 83:1 
0.1489228467610438 0 5:1 6:1 18:1 22:1 36:1 43:1 55:1 64:1 67:1 72:1 74:1 76:1 78:1 83:1 
0.7051024235447143 0 3:1 11:1 14:1 20:1 37:1 40:1 51:1 63:1 67:1 73:1 74:1 76:1 80:1 83:1 
0.3521732072584137 0 3:1 6:1 17:1 24:1 38:1 42:1 55:1 62:1 67:1 72:1 74:1 76:1 81:1 83:1 
0.07889946726729133 0 1:1 6:1 18:1 22:1 36:1 41:1 48:1 64:1 67:1 73:1 74:1 76:1 82:1 83:1 
0.5694523248950635 0 3:1 6:1 14:1 20:1 37:1 40:1 48:1 63:1 67:1 73:1 74:1 77:1 81:1 83:1 
0.3594767354158198 0 1:1 6:1 14:1 25:1 38:1 42:1 59:1 64:1 67:1 73:1 74:1 76:1 82:1 83:1 
0.2646269329736508 0 1:1 6:1 17:1 21:1 35:1 42:1 55:1 62:1 68:1 72:1 74:1 76:1 78:1 83:1 
0.2917494370882274 0 2:1 6:1 14:1 20:1 37:1 41:1 51:1 66:1 67:1 72:1 74:1 76:1 80:1 83:1 
0.3447128894863402 0 5:1 11:1 14:1 22:1 36:1 41:1 51:1 64:1 67:1 72:1 74:1 76:1 82:1 83:1 
0.2631454265709353 0 4:1 6:1 14:1 22:1 36:1 42:1 49:1 64:1 71:1 72:1 74:1 76:1 81:1 83:1 
0.4080583920646926 0 5:1 6:1 15:1 26:1 35:1 41:1 49:1 64:1 67:1 72:1 74:1 76:1 79:1 87:1 
0.209372038602639 0 3:1 6:1 17:1 22:1 36:1 42:1 54:1 64:1 67:1 72:1 74:1 76:1 80:1 83:1 
0.2453947992917643 0 2:1 11:1 16:1 19:1 39:1 42:1 55:1 64:1 67:1 73:1 74:1 76:1 79:1 83:1 
0.2709386849638621 0 2:1 6:1 18:1 20:1 37:1 41:1 55:1 64:1 67:1 72:1 74:1 76:1 81:1 83:1 
0.3339826205722952 0 1:1 6:1 18:1 22:1 36:1 42:1 49:1 66:1 67:1 73:1 74:1 76:1 80:1 119:1 
0.2882956462176919 0 2:1 6:1 16:1 20:1 37:1 42:1 50:1 64:1 71:1 72:1 74:1 76:1 79:1 83:1 
0.2211570596604944 0 3:1 6:1 14:1 22:1 36:1 42:1 48:1 66:1 67:1 73:1 74:1 76:1 79:1 83:1 
0.250021989644367 0 2:1 6:1 18:1 22:1 36:1 42:1 56:1 62:1 71:1 73:1 74:1 76:1 78:1 83:1 
0.3971092500417762 0 5:1 6:1 16:1 20:1 37:1 42:1 55:1 65:1 71:1 72:1 74:1 76:1 80:1 101:1 
0.3807989455336568 0.07737926701613687 4:1 10:1 15:1 29:1 39:1 41:1 52:1 64:1 67:1 72:1 74:1 76:1 78:1 83:1 
0.3976923871901364 0.1104769468414472 2:1 7:1 17:1 25:1 38:1 41:1 50:1 66:1 67:1 73:1 74:1 76:1 82:1 83:1 
0.5987071361274735 0 2:1 9:1 16:1 24:1 38:1 40:1 55:1 63:1 67:1 73:1 74:1 76:1 82:1 83:1 
0.2056932047999132 0 1:1 6:1 18:1 31:1 35:1 42:1 50:1 65:1 67:1 72:1 74:1 76:1 78:1 83:1 
0.1123981115796649 0 5:1 6:1 15:1 20:1 37:1 44:1 48:1 64:1 67:1 73:1 74:1 76:1 80:1 83:1 
0.4570105460853188 0 5:1 10:1 16:1 19:1 39:1 43:1 52:1 64:1 67:1 73:1 74:1 76:1 78:1 
0.2575861377732518 0 4:1 6:1 15:1 22:1 36:1 42:1 50:1 64:1 71:1 72:1 74:1 76:1 81:1 83:1 
1 0 3:1 10:1 17:1 19:1 39:1 40:1 55:1 63:1 67:1 73:1 74:1 76:1 80:1 83:1 
0.1782494641707405 0 3:1 6:1 15:1 22:1 36:1 42:1 50:1 64:1 67:1 73:1 74:1 76:1 80:1 83:1 
0.3745918542214656 0 2:1 11:1 15:1 29:1 39:1 42:1 55:1 64:1 67:1 73:1 74:1 76:1 78:1 83:1 
0.2627219745996771 0 5:1 10:1 15:1 20:1 37:1 41:1 55:1 66:1 67:1 72:1 74:1 76:1 80:1 83:1 
0.2971667338618086 0 1:1 6:1 18:1 31:1 35:1 43:1 49:1 62:1 67:1 72:1 74:1 76:1 78:1 83:1 
1 0 2:1 7:1 15:1 22:1 36:1 40:1 48:1 63:1 67:1 73:1 74:1 76:1 80:1 83:1 
1 0 5:1 8:1 14:1 19:1 39:1 40:1 54:1 63:1 67:1 73:1 75:1 76:1 78:1 83:1 
1 0 2:1 6:1 18:1 22:1 36:1 40:1 48:1 63:1 67:1 73:1 74:1 76:1 80:1 83:1 
0.1426389531125612 0 5:1 6:1 17:1 20:1 37:1 41:1 50:1 66:1 67:1 72:1 74:1 76:1 82:1 83:1 
0.08126772263163529 0 3:1 6:1 14:1 22:1 36:1 41:1 50:1 64:1 67:1 72:1 74:1 76:1 82:1 83:1 
1 0 5:1 16:1 22:1 36:1 40:1 63:1 67:1 73:1 74:1 76:1 80:1 83:1 
0.7725743051448637 0 3:1 6:1 15:1 19:1 39:1 40:1 52:1 63:1 68:1 73:1 74:1 76:1 81:1 
0.2369745862378057 0 2:1 6:1 17:1 33:1 35:1 42:1 57:1 64:1 67:1 73:1 74:1 76:1 80:1 103:1 
0.3713040264022985 0 1:1 6:1 15:1 29:1 39:1 42:1 50:1 64:1 67:1 73:1 74:1 76:1 78:1 83:1 
0.4092386365440111 0 4:1 9:1 18:1 21:1 35:1 42:1 47:1 64:1 67:1 73:1 74:1 77:1 80:1 83:1 
0.1640375006070452 0 1:1 11:1 18:1 20:1 37:1 42:1 55:1 64:1 67:1 72:1 74:1 76:1 78:1 83:1 
0.3930325472822719 0.05630094141164134 3:1 7:1 17:1 20:1 37:1 43:1 49:1 62:1 67:1 72:1 74:1 76:1 80:1 95:1 
0.7442025300331433 0 3:1 6:1 18:1 23:1 39:1 42:1 52:1 64:1 67:1 73:1 74:1 76:1 82:1 83:1 
0.3345623988637739 0 2:1 6:1 17:1 20:1 37:1 42:1 52:1 64:1 67:1 73:1 74:1 77:1 80:1 
0.1453818283556034 0 1:1 6:1 18:1 20:1 37:1 42:1 49:1 62:1 67:1 73:1 74:1 76:1 79:1 83:1 
1 0 3:1 6:1 16:1 20:1 37:1 40:1 52:1 63:1 67:1 73:1 74:1 76:1 82:1 83:1 
0.3256667251363564 0 3:1 6:1 15:1 21:1 35:1 40:1 48:1 63:1 67:1 73:1 74:1 76:1 82:1 83:1 
1 0 2:1 9:1 18:1 19:1 39:1 40:1 51:1 63:1 67:1 73:1 74:1 76:1 80:1 83:1 
1 0 4:1 16:1 22:1 36:1 40:1 63:1 67:1 73:1 74:1 76:1 80:1 83:1 
0.1865486635445793 0 2:1 6:1 17:1 22:1 36:1 42:1 59:1 65:1 71:1 73:1 74:1 76:1 80:1 83:1 
0.385033280715439 0 1:1 9:1 14:1 22:1 36:1 46:1 50:1 61:1 67:1 72:1 74:1 76:1 80:1 83:1 
0.2406069172877747 0 3:1 6:1 14:1 22:1 36:1 43:1 55:1 66:1 67:1 72:1 74:1 76:1 81:1 83:1 
0.3389139798212817 0 2:1 10:1 15:1 29:1 39:1 42:1 55:1 64:1 67:1 72:1 74:1 76:1 80:1 83:1 
0.4652701969783313 0 2:1 6:1 18:1 34:1 35:1 42:1 49:1 65:1 67:1 72:1 74:1 76:1 79:1 103:1 
0.1330628069407737 0 2:1 11:1 14:1 19:1 39:1 42:1 52:1 64:1 67:1 73:1 74:1 76:1 78:1 83:1 
0.07300721915691608 0 2:1 16:1 22:1 36:1 42:1 62:1 71:1 73:1 74:1 76:1 80:1 83:1 
0.2265985561314007 0 1:1 11:1 15:1 20:1 37:1 42:1 49:1 62:1 67:1 73:1 74:1 76:1 80:1 83:1 
0.8716218586724266 0.06809923234981097 4:1 6:1 17:1 22:1 36:1 40:1 50:1 63:1 67:1 73:1 74:1 76:1 80:1 83:1 
0.0789028586054512 0 4:1 6:1 14:1 22:1 36:1 42:1 54:1 64:1 67:1 73:1 74:1 76:1 80:1 83:1 
1 0 3:1 6:1 18:1 19:1 39:1 40:1 50:1 61:1 67:1 72:1 74:1 76:1 78:1 83:1 
0.7078831962469105 0 2:1 6:1 14:1 24:1 38:1 40:1 53:1 63:1 67:1 73:1 74:1 76:1 80:1 83:1 
0.3552704603560312 0 4:1 6:1 15:1 22:1 36:1 45:1 48:1 64:1 67:1 73:1 74:1 76:1 80:1 100:1 
0.3538887194430702 0 4:1 6:1 14:1 20:1 37:1 42:1 56:1 65:1 67:1 73:1 74:1 76:1 82:1 83:1 
0.3040715241096309 0 5:1 6:1 17:1 21:1 35:1 41:1 48:1 65:1 67:1 72:1 74:1 76:1 80:1 83:1 
1 0 3:1 6:1 18:1 20:1 37:1 40:1 51:1 63:1 67:1 73:1 74:1 76:1 80:1 83:1 
0.2658384501003229 0 1:1 6:1 14:1 22:1 36:1 43:1 49:1 62:1 67:1 72:1 74:1 76:1 79:1 83:1 
0.2663754565639546 0 3:1 7:1 17:1 22:1 36:1 40:1 48:1 63:1 67:1 73:1 74:1 76:1 82:1 83:1 
0.3001387433161468 0 5:1 16:1 22:1 36:1 40:1 63:1 71:1 73:1 74:1 76:1 78:1 83:1 
0.6406926009918021 0 2:1 6:1 17:1 25:1 38:1 40:1 54:1 63:1 69:1 73:1 74:1 76:1 80:1 83:1 
0.3681324932285318 0.08476231682699635 3:1 10:1 18:1 24:1 38:1 41:1 52:1 64:1 67:1 73:1 74:1 76:1 82:1 83:1 
1 0 4:1 8:1 18:1 20:1 37:1 40:1 50:1 63:1 67:1 73:1 74:1 76:1 82:1 83:1 
0.1066613166447014 0 5:1 6:1 14:1 22:1 36:1 41:1 49:1 64:1 67:1 72:1 74:1 76:1 79:1 83:1 
1 0 2:1 6:1 16:1 22:1 36:1 40:1 57:1 63:1 67:1 73:1 74:1 76:1 82:1 83:1 
0.6219075046078479 0 3:1 6:1 18:1 22:1 36:1 41:1 51:1 66:1 67:1 72:1 74:1 77:1 82:1 83:1 
0.2254997976151247 0 1:1 6:1 15:1 22:1 36:1 42:1 53:1 62:1 71:1 72:1 74:1 76:1 78:1 83:1 
1 0 4:1 6:1 15:1 22:1 36:1 40:1 50:1 63:1 67:1 73:1 74:1 76:1 80:1 83:1 
0.2905474005001755 0 1:1 6:1 17:1 22:1 36:1 42:1 52:1 64:1 67:1 72:1 74:1 76:1 80:1 87:1 
0.4194446392568532 0 4:1 6:1 17:1 33:1 35:1 40:1 57:1 63:1 67:1 73:1 74:1 76:1 79:1 103:1 
0.225631645774787 0 2:1 6:1 18:1 20:1 37:1 41:1 53:1 64:1 67:1 73:1 74:1 76:1 82:1 83:1 
0.0933463156568515 0 2:1 6:1 18:1 22:1 36:1 40:1 57:1 63:1 67:1 73:1 74:1 76:1 81:1 83:1 
1 0 3:1 6:1 14:1 22:1 36:1 40:1 48:1 63:1 67:1 73:1 74:1 77:1 80:1 83:1 
0.7110305643307715 0 2:1 6:1 15:1 20:1 37:1 40:1 55:1 63:1 67:1 73:1 74:1 76:1 78:1 83:1 
0.47473345829954 0 2:1 10:1 15:1 22:1 36:1 42:1 59:1 65:1 71:1 73:1 74:1 77:1 80:1 83:1 
1 0 2:1 6:1 17:1 19:1 39:1 40:1 49:1 63:1 67:1 73:1 74:1 76:1 82:1 83:1 
0.3892326817937999 0.05652166957152302 3:1 11:1 15:1 19:1 39:1 42:1 52:1 66:1 67:1 72:1 74:1 76:1 78:1 83:1 
0.2464046576611945 0 5:1 6:1 16:1 20:1 37:1 41:1 50:1 64:1 67:1 72:1 74:1 76:1 82:1 83:1 
0.06740813516808686 0 1:1 16:1 20:1 37:1 42:1 62:1 71:1 73:1 74:1 76:1 78:1 83:1 
0.5802515144380909 0 5:1 6:1 15:1 22:1 36:1 40:1 49:1 63:1 71:1 73:1 74:1 76:1 82:1 85:1 
0.2040312408608102 0 5:1 6:1 14:1 29:1 39:1 41:1 52:1 64:1 67:1 72:1 74:1 76:1 80:1 83:1 
0.2492921226994388 0 4:1 14:1 22:1 36:1 43:1 66:1 67:1 72:1 74:1 76:1 78:1 83:1 
0.3946562911769532 0 4:1 6:1 18:1 21:1 35:1 40:1 57:1 63:1 67:1 73:1 74:1 77:1 80:1 83:1 
0.05614388256243715 0 3:1 6:1 17:1 22:1 36:1 42:1 55:1 64:1 67:1 72:1 74:1 76:1 80:1 83:1 
0.1239425707397661 0 2:1 6:1 16:1 22:1 36:1 42:1 53:1 62:1 67:1 72:1 74:1 76:1 80:1 83:1 
1 0 2:1 6:1 14:1 22:1 36:1 40:1 51:1 63:1 67:1 73:1 74:1 76:1 82:1 83:1 
0.130096076605135 0 1:1 6:1 16:1 20:1 37:1 42:1 53:1 64:1 67:1 73:1 74:1 76:1 78:1 83:1 
0.5824160564788463 0 4:1 11:1 15:1 22:1 36:1 40:1 59:1 63:1 67:1 73:1 74:1 76:1 80:1 83:1 
0.7776283432546465 0 5:1 7:1 15:1 25:1 38:1 40:1 56:1 63:1 67:1 73:1 74:1 76:1 80:1 83:1 
0.7061786028566783 0 4:1 8:1 16:1 19:1 39:1 42:1 50:1 64:1 67:1 73:1 75:1 76:1 82:1 83:1 
0.3447158766031234 0 1:1 6:1 17:1 21:1 35:1 40:1 48:1 63:1 67:1 73:1 74:1 76:1 82:1 83:1 
0.6443477146965745 0 3:1 6:1 16:1 22:1 36:1 40:1 57:1 63:1 67:1 73:1 75:1 76:1 80:1 83:1 
0.3395131367636298 0 1:1 6:1 17:1 22:1 36:1 40:1 56:1 63:1 67:1 73:1 74:1 76:1 80:1 83:1 
0.06325206717964128 0 1:1 18:1 20:1 37:1 42:1 62:1 67:1 72:1 74:1 76:1 79:1 83:1 
0.2985605688533666 0 1:1 6:1 15:1 20:1 37:1 42:1 55:1 62:1 68:1 72:1 74:1 76:1 80:1 102:1 
0.1277740498517383 0 5:1 6:1 14:1 22:1 36:1 44:1 49:1 66:1 67:1 72:1 74:1 76:1 78:1 83:1 
0.2654317655162377 0 1:1 6:1 17:1 19:1 39:1 42:1 50:1 64:1 67:1 72:1 74:1 76:1 81:1 83:1 
0.1160507221132528 0 1:1 6:1 17:1 20:1 37:1 42:1 50:1 64:1 67:1 73:1 74:1 76:1 81:1 83:1 
0.1579733700301839 0 1:1 6:1 14:1 22:1 36:1 42:1 53:1 62:1 67:1 73:1 74:1 76:1 79:1 83:1 
0.3229120365324596 0 1:1 6:1 16:1 28:1 35:1 42:1 50:1 64:1 67:1 72:1 74:1 76:1 78:1 
0.3416796986121191 0 5:1 6:1 15:1 20:1 37:1 44:1 51:1 66:1 67:1 72:1 74:1 76:1 80:1 83:1 
0.3838068565451593 0.05486509086361169 4:1 7:1 17:1 27:1 35:1 40:1 48:1 63:1 67:1 73:1 74:1 76:1 80:1 99:1 
0.4411302084260725 0.1003883031121354 2:1 7:1 17:1 22:1 36:1 41:1 56:1 66:1 67:1 73:1 74:1 76:1 82:1 83:1 
0.5175148167135459 0 2:1 6:1 18:1 20:1 37:1 40:1 50:1 63:1 70:1 73:1 74:1 76:1 82:1 
0.4408128061351557 0 2:1 9:1 14:1 25:1 38:1 42:1 52:1 65:1 68:1 73:1 74:1 76:1 80:1 83:1 
1 0 5:1 7:1 15:1 20:1 37:1 40:1 51:1 63:1 67:1 73:1 74:1 76:1 78:1 83:1 
1 0 2:1 6:1 15:1 20:1 37:1 40:1 48:1 63:1 67:1 73:1 74:1 76:1 80:1 83:1 
0.4789259244513243 0 1:1 6:1 18:1 27:1 35:1 42:1 56:1 66:1 70:1 73:1 74:1 76:1 79:1 103:1 
0.2725418599357145 0.06162174203158863 4:1 7:1 14:1 20:1 37:1 42:1 56:1 62:1 67:1 73:1 74:1 76:1 82:1 83:1 
0.3715712633957308 0 1:1 6:1 17:1 20:1 37:1 42:1 48:1 65:1 68:1 72:1 74:1 76:1 80:1 84:1 
1 0 3:1 6:1 18:1 22:1 36:1 40:1 48:1 63:1 67:1 73:1 74:1 76:1 81:1 83:1 
0.3079221211446405 0 4:1 6:1 18:1 22:1 36:1 41:1 49:1 66:1 71:1 73:1 74:1 76:1 78:1 83:1 
0.1586000308400041 0 2:1 6:1 18:1 20:1 37:1 42:1 50:1 64:1 67:1 73:1 74:1 76:1 81:1 83:1 
0.2504475271694252 0 2:1 10:1 17:1 20:1 37:1 42:1 55:1 64:1 67:1 73:1 74:1 76:1 80:1 83:1 
0.3320292861363933 0 3:1 6:1 18:1 31:1 35:1 40:1 56:1 63:1 67:1 73:1 74:1 76:1 79:1 103:1 
0.4801003030435989 0 3:1 7:1 18:1 30:1 35:1 45:1 48:1 64:1 67:1 73:1 74:1 76:1 80:1 103:1 
0.3064980468444991 0 4:1 6:1 18:1 30:1 35:1 42:1 49:1 62:1 67:1 73:1 74:1 76:1 78:1 83:1 
0.6435676386202027 0 2:1 6:1 18:1 19:1 39:1 40:1 48:1 63:1 67:1 73:1 74:1 76:1 80:1 83:1 
0.3721126162559946 0 4:1 10:1 16:1 22:1 36:1 41:1 57:1 64:1 71:1 72:1 74:1 76:1 79:1 83:1 
0.426373157876328 0.05657335661189276 5:1 6:1 15:1 25:1 38:1 44:1 52:1 64:1 67:1 72:1 74:1 76:1 79:1 83:1 
0.1570599282180042 0.08222356005279771 4:1 10:1 15:1 20:1 37:1 41:1 55:1 66:1 67:1 72:1 74:1 76:1 80:1 83:1 
0.2354146079826443 0 2:1 6:1 17:1 20:1 37:1 42:1 50:1 65:1 67:1 72:1 74:1 76:1 78:1 83:1 
0.3095432502512434 0 1:1 6:1 17:1 19:1 39:1 42:1 51:1 64:1 67:1 73:1 74:1 76:1 80:1 83:1 
0.3622030180830475 0 1:1 6:1 18:1 26:1 35:1 43:1 53:1 65:1 67:1 73:1 74:1 76:1 80:1 119:1 
0.06984531301715995 0 1:1 6:1 18:1 31:1 35:1 42:1 50:1 62:1 67:1 73:1 74:1 76:1 78:1 83:1 
1 0 2:1 6:1 18:1 19:1 39:1 40:1 51:1 63:1 67:1 73:1 74:1 76:1 80:1 83:1 
0.3815971587217797 0 5:1 10:1 18:1 29:1 39:1 44:1 52:1 64:1 67:1 72:1 74:1 76:1 80:1 83:1 
0.3483755573452891 0 2:1 6:1 15:1 19:1 39:1 42:1 55:1 62:1 67:1 72:1 74:1 76:1 78:1 119:1 
0.5051779969517788 0 5:1 6:1 15:1 33:1 35:1 40:1 53:1 63:1 67:1 73:1 74:1 76:1 82:1 
0.1946643968580829 0 2:1 6:1 18:1 22:1 36:1 43:1 57:1 64:1 67:1 73:1 74:1 76:1 81:1 83:1 
0.1463531209844435 0 2:1 6:1 14:1 22:1 36:1 42:1 49:1 62:1 67:1 72:1 74:1 76:1 79:1 83:1 
1 0.06051701437927644 4:1 7:1 17:1 19:1 39:1 40:1 51:1 63:1 67:1 73:1 74:1 76:1 82:1 88:1 
1 0 2:1 6:1 18:1 22:1 36:1 40:1 51:1 61:1 67:1 72:1 74:1 76:1 80:1 83:1 
1 0 3:1 7:1 18:1 22:1 36:1 40:1 51:1 63:1 67:1 73:1 74:1 76:1 82:1 83:1 
1 0 4:1 6:1 18:1 20:1 37:1 40:1 47:1 63:1 67:1 73:1 74:1 76:1 80:1 83:1 
0.8890055912444972 0 3:1 6:1 16:1 19:1 39:1 40:1 49:1 61:1 67:1 72:1 74:1 76:1 80:1 83:1 
0.06967391397481214 0 1:1 6:1 17:1 22:1 36:1 42:1 55:1 62:1 67:1 72:1 74:1 76:1 80:1 83:1 
0.4991080314799357 0 5:1 6:1 15:1 20:1 37:1 41:1 48:1 64:1 67:1 73:1 75:1 76:1 80:1 83:1 
0.6620246273306385 0 3:1 10:1 17:1 20:1 37:1 40:1 48:1 63:1 67:1 73:1 74:1 77:1 80:1 83:1 
0.3326176883544396 0 3:1 6:1 16:1 22:1 36:1 42:1 58:1 66:1 71:1 72:1 74:1 76:1 78:1 
0.254627780849037 0 2:1 6:1 16:1 22:1 36:1 42:1 54:1 65:1 71:1 73:1 74:1 76:1 80:1 83:1 
0.3690830207559974 0 3:1 6:1 14:1 19:1 39:1 42:1 50:1 62:1 71:1 72:1 74:1 76:1 80:1 83:1 
0.2839927666887037 0 1:1 6:1 18:1 21:1 35:1 42:1 57:1 62:1 67:1 73:1 74:1 76:1 82:1 83:1 
0.5755404788938339 0 1:1 10:1 16:1 20:1 37:1 40:1 56:1 63:1 67:1 73:1 74:1 76:1 80:1 83:1 
0.4329605921857342 0 5:1 8:1 17:1 19:1 39:1 43:1 50:1 64:1 67:1 72:1 74:1 76:1 78:1 83:1 
0.08474531669435344 0 4:1 6:1 14:1 22:1 36:1 41:1 54:1 64:1 67:1 72:1 74:1 76:1 78:1 83:1 
0.4558460565155587 0 5:1 8:1 15:1 20:1 37:1 41:1 51:1 64:1 67:1 73:1 74:1 76:1 82:1 83:1 
0.4781181666727108 0 2:1 11:1 18:1 22:1 36:1 40:1 59:1 63:1 67:1 73:1 74:1 76:1 81:1 83:1 
0.3988988087494942 0 1:1 10:1 15:1 20:1 37:1 43:1 59:1 64:1 67:1 73:1 74:1 76:1 82:1 83:1 
0.5081398371406894 0 5:1 6:1 17:1 20:1 37:1 40:1 48:1 63:1 67:1 73:1 74:1 76:1 80:1 83:1 
0.122398248290879 0 5:1 6:1 18:1 31:1 35:1 41:1 48:1 64:1 67:1 73:1 74:1 76:1 80:1 83:1 
0.0635509370448905 0 2:1 6:1 18:1 22:1 36:1 40:1 57:1 63:1 71:1 73:1 74:1 76:1 80:1 83:1 
0.1470364842033111 0 1:1 6:1 14:1 20:1 37:1 42:1 52:1 64:1 67:1 73:1 74:1 76:1 79:1 83:1 
0.1749731113828403 0 3:1 6:1 16:1 22:1 36:1 40:1 57:1 63:1 67:1 73:1 74:1 76:1 78:1 83:1 
0.4843327303315333 0 5:1 7:1 18:1 22:1 36:1 44:1 51:1 66:1 68:1 72:1 74:1 76:1 82:1 93:1 
0.2275316491163288 0 1:1 6:1 18:1 31:1 35:1 42:1 56:1 62:1 67:1 73:1 74:1 76:1 79:1 83:1 
0.1546782011292096 0 2:1 6:1 15:1 22:1 36:1 42:1 49:1 66:1 71:1 72:1 74:1 76:1 78:1 83:1 
0.3985340946028845 0 2:1 6:1 15:1 27:1 35:1 44:1 55:1 64:1 67:1 72:1 74:1 76:1 79:1 83:1 
0.5157137488134354 0 2:1 11:1 17:1 23:1 39:1 42:1 52:1 64:1 68:1 73:1 75:1 76:1 82:1 90:1 
0.3470006398280258 0 3:1 7:1 15:1 20:1 37:1 40:1 48:1 63:1 69:1 73:1 74:1 76:1 82:1 83:1 
0.3292822804623776 0 3:1 17:1 25:1 38:1 42:1 62:1 67:1 72:1 74:1 76:1 80:1 83:1 
0.1654379444960452 0 5:1 6:1 18:1 22:1 36:1 44:1 50:1 64:1 67:1 72:1 74:1 76:1 80:1 83:1 
0.2180155776816825 0 2:1 6:1 18:1 33:1 35:1 40:1 56:1 63:1 67:1 73:1 74:1 76:1 78:1 103:1 
1 0 4:1 6:1 18:1 22:1 36:1 40:1 50:1 63:1 67:1 73:1 75:1 76:1 82:1 83:1 
0.2949296969693919 0 1:1 6:1 18:1 19:1 39:1 42:1 47:1 64:1 71:1 73:1 74:1 76:1 80:1 
0.5422170996464808 0 2:1 6:1 14:1 19:1 39:1 42:1 52:1 64:1 67:1 72:1 75:1 76:1 80:1 83:1 
1 0 2:1 6:1 14:1 19:1 39:1 40:1 50:1 63:1 67:1 73:1 74:1 76:1 82:1 83:1 
0.3890365150154479 0 3:1 11:1 17:1 20:1 37:1 41:1 51:1 64:1 71:1 72:1 74:1 76:1 80:1 83:1 
0.3709821818085027 0 5:1 6:1 18:1 21:1 35:1 41:1 57:1 64:1 67:1 73:1 74:1 76:1 82:1 83:1 
1 0 5:1 6:1 16:1 22:1 36:1 40:1 52:1 63:1 67:1 73:1 75:1 76:1 80:1 83:1 
0.5273323371781765 0 5:1 7:1 14:1 27:1 35:1 40:1 50:1 63:1 67:1 73:1 74:1 76:1 82:1 83:1 
0.3347279909749946 0 3:1 6:1 16:1 22:1 36:1 43:1 51:1 62:1 67:1 73:1 74:1 76:1 80:1 83:1 
0.4659282611483611 0 3:1 9:1 14:1 20:1 37:1 41:1 47:1 66:1 69:1 72:1 74:1 76:1 78:1 83:1 
0.3433837611449112 0 3:1 6:1 17:1 19:1 39:1 42:1 55:1 64:1 71:1 73:1 74:1 76:1 80:1 83:1 
0.2391888881465235 0 4:1 6:1 15:1 20:1 37:1 41:1 49:1 66:1 71:1 72:1 74:1 76:1 80:1 83:1 
0.6642127457022268 0 3:1 6:1 18:1 19:1 39:1 40:1 51:1 61:1 67:1 72:1 74:1 76:1 82:1 88:1 
0.1347698037847086 0 1:1 16:1 25:1 38:1 42:1 62:1 67:1 73:1 74:1 76:1 80:1 83:1 
0.2210508160434182 0 2:1 6:1 15:1 22:1 36:1 41:1 48:1 64:1 67:1 73:1 74:1 76:1 80:1 83:1 
0.3093630008735502 0 1:1 6:1 16:1 22:1 36:1 42:1 49:1 62:1 67:1 72:1 75:1 76:1 78:1 83:1 
0.4131318106936058 0 2:1 7:1 17:1 19:1 39:1 42:1 47:1 64:1 67:1 73:1 74:1 76:1 81:1 83:1 
1 0 2:1 6:1 17:1 19:1 39:1 40:1 52:1 63:1 67:1 73:1 74:1 76:1 80:1 83:1 
0.4396528016511342 0 4:1 11:1 18:1 19:1 39:1 41:1 59:1 64:1 67:1 72:1 74:1 76:1 80:1 83:1 
1 0 2:1 6:1 14:1 22:1 36:1 40:1 48:1 63:1 67:1 73:1 74:1 76:1 80:1 83:1 
0.1605092883158245 0 2:1 6:1 17:1 19:1 39:1 42:1 47:1 62:1 67:1 73:1 74:1 76:1 80:1 83:1 
0.1873349271195422 0 1:1 7:1 18:1 20:1 37:1 42:1 49:1 62:1 67:1 73:1 74:1 76:1 78:1 83:1 
0.4426829432300296 0 5:1 18:1 22:1 36:1 40:1 61:1 67:1 72:1 74:1 76:1 78:1 83:1 
0.5918155050352831 0 3:1 11:1 18:1 29:1 39:1 40:1 59:1 63:1 71:1 73:1 74:1 76:1 80:1 83:1 
1 0 4:1 6:1 16:1 20:1 37:1 40:1 54:1 63:1 71:1 73:1 74:1 76:1 80:1 83:1 
0.1689651617083868 0 3:1 6:1 16:1 22:1 36:1 40:1 48:1 63:1 67:1 73:1 74:1 76:1 82:1 83:1 
0.222636527468886 0 3:1 6:1 16:1 21:1 35:1 40:1 54:1 63:1 67:1 73:1 74:1 76:1 80:1 83:1 
0.8296355901211796 0 2:1 6:1 16:1 19:1 39:1 40:1 51:1 63:1 67:1 73:1 74:1 76:1 80:1 107:1 
0.273003408417801 0 3:1 6:1 15:1 22:1 36:1 41:1 55:1 64:1 67:1 72:1 74:1 76:1 80:1 83:1 
0.3715750681896872 0 4:1 6:1 16:1 21:1 35:1 44:1 49:1 64:1 67:1 72:1 74:1 76:1 78:1 119:1 
0.155070136198816 0 4:1 6:1 14:1 20:1 37:1 41:1 55:1 64:1 68:1 72:1 74:1 76:1 80:1 83:1 
0.05406947494453117 0 4:1 6:1 16:1 33:1 35:1 40:1 48:1 63:1 67:1 73:1 74:1 76:1 80:1 83:1 
0.3023705003151268 0 1:1 9:1 15:1 22:1 36:1 42:1 49:1 64:1 67:1 72:1 74:1 76:1 80:1 83:1 
0.1091156494214669 0 1:1 15:1 20:1 37:1 42:1 65:1 67:1 72:1 74:1 76:1 78:1 83:1 
0.5623770897006913 0 4:1 6:1 17:1 19:1 39:1 43:1 47:1 64:1 67:1 73:1 74:1 76:1 80:1 83:1 
0.3333491711440544 0.06414727358407299 3:1 6:1 17:1 24:1 38:1 41:1 50:1 66:1 67:1 72:1 74:1 76:1 80:1 83:1 
0.278439929080924 0 4:1 6:1 14:1 22:1 36:1 41:1 52:1 64:1 67:1 72:1 74:1 76:1 81:1 83:1 
0.219097226796403 0 2:1 10:1 16:1 25:1 38:1 42:1 59:1 64:1 67:1 73:1 74:1 76:1 80:1 83:1 
1 0 4:1 6:1 16:1 22:1 36:1 40:1 51:1 63:1 67:1 73:1 74:1 76:1 81:1 83:1 
0.407701157740154 0 4:1 6:1 17:1 23:1 39:1 41:1 55:1 64:1 67:1 73:1 74:1 76:1 80:1 83:1 
0.356879042911786 0.05822242316087436 5:1 7:1 18:1 31:1 35:1 41:1 50:1 64:1 67:1 72:1 74:1 76:1 82:1 83:1 
0.4590457728381311 0 3:1 6:1 15:1 22:1 36:1 40:1 54:1 63:1 67:1 73:1 74:1 76:1 80:1 83:1 
1 0 4:1 7:1 14:1 19:1 39:1 40:1 56:1 63:1 67:1 73:1 74:1 76:1 82:1 83:1 
0.2627454821082034 0 2:1 6:1 16:1 26:1 35:1 40:1 48:1 63:1 67:1 73:1 74:1 76:1 80:1 83:1 
1 0 4:1 6:1 15:1 22:1 36:1 40:1 51:1 63:1 67:1 73:1 74:1 76:1 82:1 83:1 
0.4541593399461517 0.05940681232111572 5:1 7:1 15:1 22:1 36:1 40:1 50:1 63:1 68:1 73:1 74:1 76:1 82:1 93:1 
0.3665931030649276 0 5:1 6:1 17:1 22:1 36:1 41:1 51:1 66:1 67:1 72:1 74:1 76:1 79:1 83:1 
0.2697397026308896 0 1:1 6:1 16:1 20:1 37:1 42:1 50:1 62:1 68:1 73:1 74:1 76:1 80:1 83:1 
1 0 5:1 6:1 15:1 22:1 36:1 40:1 50:1 63:1 67:1 73:1 74:1 76:1 80:1 83:1 
0.1894580307446558 0 2:1 11:1 18:1 19:1 39:1 42:1 48:1 64:1 67:1 73:1 74:1 76:1 80:1 83:1 
0.9235925560574363 0 2:1 6:1 17:1 22:1 36:1 40:1 50:1 63:1 67:1 73:1 74:1 76:1 80:1 83:1 
0.1326311207208535 0 1:1 6:1 15:1 20:1 37:1 42:1 58:1 62:1 67:1 72:1 74:1 76:1 78:1 83:1 
0.3077387890224252 0 3:1 11:1 14:1 22:1 36:1 42:1 49:1 62:1 67:1 72:1 74:1 76:1 80:1 83:1 
0.6023076128098637 0 2:1 6:1 17:1 25:1 38:1 42:1 51:1 62:1 67:1 73:1 74:1 76:1 82:1 83:1 
0.469020911634346 0 1:1 6:1 14:1 19:1 39:1 40:1 49:1 63:1 67:1 73:1 74:1 76:1 78:1 83:1 
0.3616739225869032 0 5:1 6:1 17:1 27:1 35:1 44:1 54:1 66:1 71:1 72:1 74:1 76:1 80:1 83:1 
1 0 3:1 14:1 22:1 36:1 40:1 63:1 67:1 73:1 74:1 76:1 80:1 83:1 
0.3391738412527757 0 1:1 10:1 18:1 28:1 35:1 42:1 49:1 62:1 71:1 73:1 74:1 76:1 78:1 83:1 
0.3653973154948746 0 5:1 6:1 15:1 22:1 36:1 42:1 52:1 66:1 67:1 72:1 74:1 77:1 80:1 83:1 
1 0 5:1 16:1 19:1 39:1 40:1 63:1 67:1 73:1 74:1 76:1 78:1 83:1 
0.417417865470529 0 3:1 6:1 17:1 20:1 37:1 41:1 47:1 64:1 67:1 72:1 74:1 76:1 80:1 100:1 
0.2972057471646113 0 1:1 6:1 17:1 22:1 36:1 42:1 50:1 64:1 67:1 73:1 74:1 77:1 82:1 83:1 
0.1447379143188686 0 3:1 10:1 14:1 22:1 36:1 42:1 49:1 62:1 67:1 73:1 74:1 76:1 80:1 83:1 
0.4347371179320723 0 1:1 6:1 15:1 20:1 37:1 40:1 55:1 61:1 69:1 72:1 74:1 76:1 81:1 83:1 
0.2554542400012967 0 2:1 6:1 17:1 20:1 37:1 40:1 48:1 63:1 67:1 73:1 74:1 76:1 80:1 83:1 
0.280118464687105 0 3:1 7:1 17:1 20:1 37:1 41:1 56:1 64:1 67:1 73:1 74:1 76:1 80:1 83:1 
0.4577829003535193 0 2:1 6:1 17:1 19:1 39:1 42:1 52:1 64:1 67:1 72:1 74:1 76:1 82:1 83:1 
0.6044764652444452 0.06304825873210486 3:1 6:1 17:1 32:1 39:1 41:1 52:1 66:1 67:1 72:1 74:1 76:1 82:1 83:1 
0.1779797922832378 0 1:1 18:1 20:1 37:1 42:1 62:1 67:1 72:1 74:1 77:1 78:1 83:1 
0.1165628375410322 0 2:1 6:1 17:1 22:1 36:1 42:1 48:1 62:1 67:1 73:1 74:1 76:1 80:1 83:1 
0.3174765441081242 0 2:1 6:1 18:1 20:1 37:1 42:1 49:1 62:1 67:1 73:1 74:1 77:1 78:1 83:1 
0.3390121169897091 0 3:1 6:1 15:1 20:1 37:1 43:1 54:1 62:1 67:1 73:1 74:1 76:1 80:1 83:1 
0.2498629991533255 0 5:1 7:1 17:1 27:1 35:1 40:1 48:1 63:1 67:1 73:1 74:1 76:1 78:1 83:1 
0.2364713453804476 0 1:1 6:1 15:1 20:1 37:1 42:1 55:1 62:1 68:1 73:1 74:1 76:1 78:1 83:1 
0.2766448138333559 0 1:1 6:1 18:1 33:1 35:1 42:1 53:1 64:1 67:1 73:1 74:1 76:1 78:1 103:1 
0.09944896566210619 0 1:1 6:1 16:1 22:1 36:1 42:1 53:1 64:1 67:1 73:1 74:1 76:1 82:1 83:1 
0.8860139485450681 0 5:1 14:1 19:1 39:1 40:1 63:1 67:1 73:1 74:1 76:1 78:1 83:1 
0.6395518874441462 0 4:1 6:1 17:1 22:1 36:1 40:1 48:1 63:1 70:1 73:1 74:1 76:1 80:1 83:1 
0.4911380576849083 0 4:1 6:1 16:1 26:1 35:1 40:1 54:1 65:1 68:1 72:1 74:1 76:1 81:1 94:1 
0.3246688377519607 0 1:1 6:1 15:1 25:1 38:1 42:1 55:1 62:1 67:1 72:1 74:1 76:1 82:1 83:1 
0.3378687013265459 0 1:1 10:1 18:1 31:1 35:1 42:1 49:1 64:1 67:1 73:1 74:1 76:1 80:1 83:1 
0.1641704066576887 0 1:1 6:1 14:1 20:1 37:1 42:1 57:1 64:1 67:1 73:1 74:1 76:1 82:1 83:1 
0.9004879271647989 0 2:1 11:1 16:1 22:1 36:1 40:1 59:1 63:1 67:1 73:1 74:1 76:1 80:1 83:1 
0.3035868138092324 0 3:1 10:1 17:1 19:1 39:1 42:1 52:1 64:1 67:1 72:1 74:1 76:1 80:1 83:1 
0.5906360300444835 0 3:1 10:1 17:1 29:1 39:1 44:1 52:1 64:1 67:1 72:1 74:1 76:1 80:1 83:1 
1 0 2:1 6:1 16:1 22:1 36:1 40:1 54:1 63:1 67:1 73:1 74:1 76:1 80:1 83:1 
0.2449479808341226 0 4:1 6:1 15:1 22:1 36:1 42:1 57:1 64:1 69:1 73:1 74:1 76:1 80:1 83:1 
0.2013182934448305 0 1:1 6:1 16:1 22:1 36:1 42:1 52:1 66:1 67:1 72:1 74:1 76:1 82:1 83:1 
0.4879607053495144 0 2:1 10:1 16:1 24:1 38:1 40:1 59:1 63:1 67:1 73:1 74:1 77:1 80:1 85:1 
0.3304543695339375 0 4:1 6:1 15:1 22:1 36:1 44:1 50:1 66:1 69:1 72:1 74:1 76:1 80:1 83:1 
0.05962720480816457 0 1:1 6:1 15:1 20:1 37:1 42:1 50:1 65:1 67:1 72:1 74:1 76:1 78:1 83:1 
0.4030598231772604 0 3:1 6:1 14:1 19:1 39:1 42:1 50:1 64:1 67:1 73:1 74:1 76:1 81:1 83:1 
0.6931627813543866 0 5:1 10:1 14:1 22:1 36:1 40:1 51:1 63:1 69:1 73:1 74:1 76:1 82:1 83:1 
1 0 4:1 7:1 16:1 19:1 39:1 40:1 52:1 63:1 67:1 73:1 74:1 76:1 80:1 83:1 
0.1996293098468927 0 2:1 7:1 18:1 20:1 37:1 42:1 48:1 64:1 67:1 73:1 74:1 76:1 81:1 83:1 
0.9489857657742123 0 3:1 6:1 18:1 22:1 36:1 40:1 52:1 63:1 67:1 73:1 74:1 77:1 82:1 83:1 
0.2120390064927891 0 1:1 6:1 15:1 20:1 37:1 41:1 49:1 64:1 67:1 73:1 74:1 76:1 78:1 83:1 
0.2341377321557049 0 5:1 16:1 21:1 35:1 42:1 66:1 67:1 73:1 74:1 76:1 80:1 83:1 
1 0 3:1 6:1 17:1 20:1 37:1 40:1 48:1 63:1 67:1 73:1 74:1 76:1 80:1 83:1 
0.4567497919510647 0 5:1 7:1 18:1 22:1 36:1 44:1 49:1 65:1 67:1 72:1 75:1 76:1 78:1 83:1 
0.1753416619432739 0 1:1 6:1 17:1 21:1 35:1 42:1 55:1 62:1 71:1 72:1 74:1 76:1 80:1 83:1 
0.1109944087555028 0 2:1 6:1 18:1 19:1 39:1 42:1 55:1 64:1 67:1 73:1 74:1 76:1 81:1 83:1 
0.5028356212490166 0 5:1 15:1 23:1 39:1 45:1 66:1 68:1 72:1 74:1 76:1 80:1 102:1 
1 0 5:1 6:1 15:1 22:1 36:1 40:1 48:1 63:1 67:1 73:1 74:1 76:1 80:1 83:1 
0.5639652853170858 0.08277361161458344 4:1 10:1 14:1 19:1 39:1 41:1 52:1 66:1 67:1 73:1 74:1 76:1 82:1 83:1 
0.1140500279003269 0 4:1 6:1 18:1 22:1 36:1 43:1 54:1 66:1 71:1 72:1 74:1 76:1 80:1 83:1 
0.2386831698815488 0 4:1 6:1 16:1 22:1 36:1 41:1 54:1 66:1 67:1 72:1 74:1 76:1 82:1 83:1 
0.05951411332746663 0 1:1 6:1 14:1 31:1 35:1 42:1 49:1 62:1 67:1 72:1 74:1 76:1 78:1 83:1 
0.4112839778220339 0 2:1 10:1 18:1 19:1 39:1 42:1 59:1 62:1 71:1 73:1 74:1 76:1 82:1 83:1 
0.3299783917072902 0 2:1 6:1 17:1 20:1 37:1 40:1 54:1 63:1 67:1 73:1 74:1 76:1 80:1 83:1 
1 0 5:1 6:1 18:1 22:1 36:1 40:1 51:1 63:1 67:1 73:1 74:1 76:1 78:1 83:1 
0.2765561696474392 0 1:1 6:1 17:1 22:1 36:1 42:1 54:1 65:1 67:1 73:1 74:1 76:1 80:1 103:1 
0.3697426949025814 0 2:1 6:1 14:1 20:1 37:1 40:1 49:1 61:1 69:1 72:1 74:1 76:1 80:1 83:1 
1 0 2:1 6:1 15:1 22:1 36:1 40:1 54:1 63:1 67:1 73:1 74:1 76:1 80:1 83:1 
0.4660983156490095 0 2:1 6:1 15:1 31:1 35:1 40:1 48:1 61:1 70:1 72:1 74:1 76:1 82:1 114:1 
1 0 4:1 6:1 15:1 19:1 39:1 40:1 50:1 63:1 67:1 73:1 74:1 76:1 82:1 83:1 
0.3458120353352951 0 4:1 6:1 16:1 22:1 36:1 41:1 54:1 62:1 71:1 72:1 74:1 76:1 80:1 83:1 
0.1677872594933057 0 1:1 6:1 18:1 20:1 37:1 42:1 57:1 62:1 71:1 73:1 74:1 76:1 80:1 83:1 
0.8248731955730438 0 2:1 6:1 18:1 32:1 39:1 42:1 52:1 64:1 67:1 73:1 74:1 76:1 80:1 
0.5384521301057605 0 3:1 8:1 15:1 20:1 37:1 40:1 52:1 63:1 67:1 73:1 74:1 76:1 78:1 83:1 
0.05815962920973333 0 1:1 16:1 24:1 38:1 42:1 62:1 67:1 73:1 74:1 76:1 80:1 83:1 
1 0 5:1 6:1 18:1 19:1 39:1 40:1 54:1 63:1 67:1 73:1 74:1 76:1 80:1 83:1 
0.1098425110480177 0 1:1 6:1 16:1 21:1 35:1 42:1 53:1 62:1 67:1 73:1 74:1 76:1 78:1 83:1 
0.1516155941536157 0 3:1 6:1 14:1 22:1 36:1 41:1 56:1 64:1 67:1 73:1 74:1 76:1 82:1 83:1 
0.2131475387684146 0 1:1 6:1 14:1 27:1 35:1 42:1 54:1 62:1 67:1 73:1 74:1 76:1 80:1 83:1 
1 0 4:1 6:1 16:1 20:1 37:1 40:1 48:1 63:1 67:1 73:1 74:1 76:1 80:1 83:1 
1 0 5:1 9:1 14:1 22:1 36:1 40:1 47:1 63:1 67:1 73:1 74:1 76:1 80:1 83:1 
0.5033786782539902 0 2:1 6:1 16:1 22:1 36:1 40:1 54:1 63:1 67:1 73:1 75:1 76:1 82:1 105:1 
1 0 2:1 7:1 17:1 22:1 36:1 40:1 50:1 63:1 67:1 73:1 74:1 76:1 80:1 83:1 
0.7921190835327872 0.05811413431180942 5:1 7:1 17:1 22:1 36:1 40:1 48:1 63:1 67:1 73:1 74:1 76:1 82:1 83:1 
0.3122162369386842 0 1:1 6:1 18:1 19:1 39:1 42:1 52:1 64:1 67:1 73:1 74:1 76:1 81:1 83:1 
0.403929016971901 0 5:1 6:1 15:1 34:1 35:1 42:1 54:1 64:1 67:1 73:1 74:1 76:1 80:1 107:1 
0.2970936243928259 0 2:1 6:1 15:1 26:1 35:1 40:1 56:1 63:1 69:1 73:1 74:1 76:1 80:1 83:1 
1 0 4:1 8:1 16:1 22:1 36:1 40:1 57:1 63:1 67:1 73:1 74:1 76:1 82:1 83:1 
1 0 5:1 6:1 15:1 22:1 36:1 40:1 59:1 63:1 67:1 73:1 74:1 76:1 80:1 83:1 
0.3787215372548777 0 2:1 6:1 17:1 22:1 36:1 42:1 55:1 66:1 67:1 72:1 74:1 76:1 79:1 86:1 
1 0 5:1 7:1 14:1 19:1 39:1 40:1 52:1 63:1 67:1 73:1 74:1 76:1 82:1 83:1 
0.1028147036201152 0 1:1 6:1 15:1 22:1 36:1 42:1 54:1 64:1 67:1 72:1 74:1 76:1 78:1 83:1 
1 0 4:1 6:1 14:1 22:1 36:1 40:1 57:1 63:1 67:1 73:1 74:1 76:1 82:1 83:1 
0.1689356290078864 0 4:1 6:1 14:1 22:1 36:1 42:1 48:1 64:1 67:1 72:1 74:1 76:1 82:1 83:1 
0.2907074383728439 0 3:1 8:1 15:1 22:1 36:1 40:1 57:1 63:1 67:1 73:1 74:1 76:1 82:1 83:1 
0.765862267844295 0 2:1 6:1 18:1 22:1 36:1 40:1 48:1 63:1 67:1 73:1 74:1 76:1 82:1 83:1 
0.4083358395590534 0 5:1 9:1 17:1 19:1 39:1 42:1 55:1 64:1 67:1 73:1 74:1 77:1 80:1 83:1 
0.2212635633010143 0 1:1 6:1 18:1 19:1 39:1 42:1 55:1 62:1 67:1 72:1 74:1 76:1 80:1 83:1 
0.4059756407153595 0 2:1 10:1 18:1 19:1 39:1 42:1 52:1 64:1 67:1 72:1 74:1 76:1 81:1 83:1 
0.05588940576163042 0 1:1 17:1 19:1 39:1 42:1 62:1 67:1 73:1 74:1 76:1 78:1 83:1 
0.1805867450187138 0 1:1 6:1 15:1 21:1 35:1 42:1 49:1 62:1 71:1 73:1 74:1 76:1 78:1 83:1 
0.846442747474806 0 2:1 6:1 14:1 19:1 39:1 40:1 47:1 63:1 67:1 73:1 74:1 76:1 78:1 83:1 
0.1318424128263233 0 2:1 6:1 17:1 22:1 36:1 41:1 54:1 66:1 67:1 73:1 74:1 76:1 80:1 83:1 
0.2961190278294924 0 5:1 6:1 14:1 20:1 37:1 41:1 48:1 64:1 71:1 72:1 74:1 76:1 81:1 83:1 
0.494770003177147 0.06019914734232111 3:1 6:1 17:1 22:1 36:1 43:1 57:1 65:1 67:1 73:1 74:1 76:1 82:1 103:1 
0.3648535772025121 0 3:1 11:1 15:1 22:1 36:1 43:1 48:1 64:1 67:1 73:1 74:1 76:1 81:1 83:1 
0.2195845095437456 0 5:1 6:1 16:1 22:1 36:1 42:1 49:1 64:1 71:1 72:1 74:1 76:1 79:1 83:1 
0 0.05800997304325466 1:1 6:1 17:1 22:1 36:1 42:1 50:1 62:1 67:1 72:1 74:1 76:1 78:1 83:1 
0.2596761951062161 0 1:1 17:1 31:1 35:1 42:1 62:1 71:1 73:1 74:1 76:1 80:1 83:1 
0.5144611779055039 0 3:1 6:1 16:1 19:1 39:1 44:1 52:1 64:1 67:1 72:1 74:1 76:1 82:1 83:1 
1 0 3:1 10:1 17:1 22:1 36:1 40:1 48:1 63:1 67:1 73:1 74:1 76:1 80:1 
0.1931408823184485 0 2:1 14:1 20:1 37:1 43:1 64:1 67:1 73:1 74:1 76:1 82:1 83:1 
0.320348305023543 0 4:1 6:1 14:1 19:1 39:1 42:1 55:1 62:1 67:1 72:1 74:1 76:1 79:1 83:1 
0.4032134626267533 0 2:1 6:1 15:1 27:1 35:1 41:1 53:1 65:1 67:1 73:1 74:1 76:1 82:1 83:1 
0.1222410892104748 0 1:1 6:1 18:1 21:1 35:1 42:1 58:1 62:1 67:1 72:1 74:1 76:1 78:1 83:1 
0.3003587764247777 0 5:1 6:1 16:1 22:1 36:1 42:1 51:1 64:1 67:1 72:1 74:1 76:1 79:1 83:1 
1 0 2:1 6:1 15:1 19:1 39:1 40:1 52:1 63:1 67:1 73:1 74:1 76:1 82:1 83:1 
0.3980051333178238 0 3:1 6:1 14:1 31:1 35:1 42:1 50:1 66:1 67:1 72:1 74:1 76:1 79:1 
0.4601974520971506 0 5:1 10:1 16:1 33:1 35:1 40:1 59:1 63:1 67:1 73:1 74:1 76:1 78:1 83:1 
0.2039985579869639 0 1:1 6:1 14:1 20:1 37:1 45:1 50:1 66:1 67:1 72:1 74:1 76:1 80:1 83:1 
1 0 4:1 10:1 14:1 19:1 39:1 40:1 52:1 61:1 67:1 72:1 74:1 76:1 81:1 83:1 
0.3264696134996539 0 2:1 6:1 15:1 33:1 35:1 42:1 57:1 64:1 67:1 73:1 74:1 76:1 80:1 112:1 
0.3702964279753565 0 3:1 6:1 17:1 19:1 39:1 41:1 52:1 64:1 67:1 72:1 74:1 76:1 80:1 83:1 
1 0 2:1 6:1 18:1 22:1 36:1 40:1 48:1 63:1 67:1 73:1 74:1 76:1 80:1 83:1 
0.3853823619739946 0 4:1 6:1 18:1 22:1 36:1 40:1 57:1 63:1 67:1 73:1 74:1 76:1 80:1 83:1 
0.9344600257287909 0 4:1 10:1 16:1 22:1 36:1 40:1 57:1 63:1 67:1 73:1 74:1 76:1 82:1 83:1 
0.5695025839366084 0.05996795096551065 4:1 6:1 15:1 27:1 35:1 40:1 52:1 61:1 67:1 72:1 74:1 76:1 81:1 83:1 
0.4524904165274136 0 2:1 6:1 17:1 29:1 39:1 42:1 51:1 62:1 67:1 73:1 74:1 76:1 79:1 83:1 
0.3719766608698535 0 1:1 6:1 17:1 19:1 39:1 42:1 52:1 64:1 67:1 73:1 74:1 76:1 78:1 85:1 
0.2350860120688384 0 5:1 6:1 17:1 33:1 35:1 40:1 57:1 63:1 67:1 73:1 74:1 76:1 80:1 83:1 
1 0 4:1 6:1 16:1 22:1 36:1 40:1 48:1 63:1 67:1 73:1 74:1 76:1 80:1 83:1 
0.5982734972666598 0 2:1 6:1 15:1 22:1 36:1 40:1 48:1 61:1 67:1 72:1 74:1 76:1 81:1 83:1 
0.2301599079280226 0 1:1 6:1 14:1 22:1 36:1 42:1 48:1 64:1 67:1 73:1 74:1 77:1 80:1 83:1 
0.327810851939632 0 1:1 6:1 16:1 20:1 37:1 42:1 52:1 62:1 67:1 72:1 75:1 76:1 78:1 83:1 
0.2571590720642799 0 5:1 6:1 14:1 20:1 37:1 41:1 49:1 66:1 71:1 72:1 74:1 76:1 81:1 83:1 
0.1204188294698129 0 1:1 6:1 18:1 22:1 36:1 40:1 50:1 65:1 67:1 73:1 74:1 76:1 78:1 83:1 
0.3011995714244782 0 3:1 7:1 16:1 22:1 36:1 40:1 48:1 63:1 67:1 73:1 74:1 76:1 80:1 83:1 
0.9228084240705149 0 4:1 6:1 14:1 24:1 38:1 40:1 48:1 63:1 67:1 73:1 74:1 76:1 81:1 83:1 
0.2275476554869729 0 2:1 6:1 15:1 22:1 36:1 42:1 48:1 64:1 67:1 73:1 74:1 76:1 80:1 114:1 
0.8063040570308027 0 2:1 6:1 17:1 22:1 36:1 40:1 54:1 63:1 67:1 73:1 74:1 76:1 80:1 86:1 
0.07688641324581204 0 2:1 6:1 15:1 22:1 36:1 42:1 48:1 62:1 67:1 73:1 74:1 76:1 80:1 83:1 
1 0 2:1 7:1 18:1 19:1 39:1 40:1 50:1 63:1 67:1 73:1 74:1 76:1 82:1 83:1 
0.1122367826020821 0 3:1 6:1 14:1 22:1 36:1 42:1 50:1 62:1 67:1 72:1 74:1 76:1 80:1 83:1 
0.3035878578725333 0 4:1 6:1 16:1 22:1 36:1 43:1 54:1 66:1 71:1 72:1 74:1 76:1 80:1 83:1 
0.1895633479089466 0 1:1 6:1 18:1 20:1 37:1 42:1 55:1 64:1 67:1 73:1 74:1 76:1 80:1 83:1 
0.09548756431076878 0 2:1 7:1 14:1 19:1 39:1 42:1 52:1 64:1 67:1 73:1 74:1 76:1 82:1 83:1 
0.3212719535212603 0 3:1 7:1 18:1 20:1 37:1 42:1 50:1 64:1 67:1 73:1 74:1 76:1 82:1 83:1 
1 0 5:1 18:1 20:1 37:1 40:1 63:1 67:1 73:1 74:1 76:1 80:1 83:1 
1 0 2:1 6:1 16:1 22:1 36:1 40:1 57:1 63:1 67:1 73:1 74:1 76:1 80:1 83:1 
0.5202506245192315 0 3:1 6:1 16:1 20:1 37:1 40:1 49:1 61:1 67:1 72:1 74:1 76:1 78:1 83:1 
0.3593610795411679 0 2:1 6:1 17:1 20:1 37:1 42:1 52:1 64:1 71:1 72:1 75:1 76:1 82:1 83:1 
0.8618468017925494 0 3:1 11:1 18:1 22:1 36:1 40:1 55:1 63:1 67:1 73:1 75:1 76:1 80:1 83:1 
1 0 5:1 8:1 16:1 19:1 39:1 40:1 51:1 63:1 67:1 73:1 74:1 76:1 80:1 83:1 
0.2900967207840182 0 3:1 6:1 17:1 22:1 36:1 43:1 49:1 66:1 71:1 72:1 74:1 76:1 79:1 83:1 
0.2854031426446784 0 3:1 6:1 14:1 20:1 37:1 42:1 56:1 66:1 67:1 73:1 74:1 76:1 82:1 83:1 
0.5879666497618455 0 3:1 7:1 14:1 22:1 36:1 40:1 56:1 63:1 67:1 73:1 74:1 76:1 82:1 83:1 
0.5327675636428753 0 4:1 6:1 18:1 20:1 37:1 40:1 56:1 61:1 67:1 72:1 74:1 76:1 78:1 83:1 
0.7638209119736767 0 3:1 6:1 16:1 22:1 36:1 40:1 48:1 63:1 67:1 73:1 74:1 76:1 80:1 83:1 
0.3605816139865905 0 3:1 10:1 16:1 22:1 36:1 42:1 52:1 66:1 71:1 72:1 74:1 76:1 79:1 83:1 
0.0942295276544349 0 5:1 6:1 14:1 22:1 36:1 44:1 55:1 66:1 67:1 72:1 74:1 76:1 80:1 83:1 
0.457052488845056 0 4:1 11:1 16:1 29:1 39:1 42:1 52:1 62:1 67:1 72:1 74:1 76:1 79:1 83:1 
0.2138941931101792 0 2:1 6:1 15:1 33:1 35:1 40:1 53:1 63:1 67:1 73:1 74:1 76:1 82:1 103:1 
0.0726688412865852 0 2:1 18:1 22:1 36:1 42:1 66:1 67:1 72:1 74:1 76:1 78:1 83:1 
0.5745958968820146 0 5:1 6:1 17:1 22:1 36:1 40:1 53:1 63:1 71:1 73:1 74:1 76:1 80:1 
0.2885672068448862 0 5:1 6:1 16:1 34:1 35:1 42:1 54:1 64:1 67:1 73:1 74:1 76:1 78:1 83:1 
0.1848222334863587 0 1:1 7:1 18:1 22:1 36:1 42:1 56:1 62:1 67:1 73:1 74:1 76:1 80:1 83:1 
0.1875774897527386 0 1:1 6:1 16:1 22:1 36:1 42:1 53:1 62:1 69:1 73:1 74:1 76:1 80:1 83:1 
0.455949025921831 0 3:1 7:1 16:1 19:1 39:1 41:1 51:1 64:1 67:1 73:1 74:1 76:1 78:1 83:1 
1 0 2:1 7:1 17:1 22:1 36:1 40:1 48:1 63:1 67:1 73:1 74:1 76:1 81:1 83:1 
0.1297938908750604 0 4:1 6:1 15:1 22:1 36:1 44:1 50:1 64:1 67:1 72:1 74:1 76:1 80:1 83:1 
0.5369077809099906 0 4:1 6:1 14:1 28:1 35:1 42:1 57:1 64:1 68:1 73:1 74:1 76:1 79:1 83:1 
0.3593073990081978 0 4:1 7:1 16:1 20:1 37:1 41:1 48:1 64:1 67:1 73:1 74:1 76:1 80:1 83:1 
0.3284000393974769 0 2:1 6:1 18:1 24:1 38:1 42:1 52:1 64:1 68:1 73:1 74:1 76:1 80:1 83:1 
0.2969999167629607 0 1:1 11:1 16:1 20:1 37:1 42:1 49:1 62:1 71:1 73:1 74:1 76:1 78:1 83:1 
0.3931250346928493 0 2:1 7:1 14:1 24:1 38:1 42:1 49:1 62:1 67:1 73:1 74:1 76:1 82:1 83:1 
0.1719920360889764 0 5:1 6:1 15:1 22:1 36:1 42:1 54:1 62:1 67:1 72:1 74:1 76:1 80:1 83:1 
0.602955004252657 0 3:1 11:1 18:1 19:1 39:1 40:1 59:1 63:1 71:1 73:1 74:1 76:1 82:1 83:1 
0.3859705166354243 0 2:1 6:1 14:1 30:1 35:1 42:1 49:1 65:1 67:1 72:1 74:1 76:1 78:1 119:1 
0.1601936698635586 0 1:1 6:1 15:1 28:1 35:1 42:1 50:1 62:1 67:1 72:1 74:1 76:1 78:1 83:1 
1 0 5:1 14:1 19:1 39:1 40:1 63:1 67:1 73:1 74:1 76:1 80:1 83:1 
1 0 2:1 6:1 14:1 22:1 36:1 40:1 52:1 63:1 67:1 73:1 74:1 76:1 82:1 83:1 
0.5091558906720842 0 5:1 6:1 15:1 22:1 36:1 40:1 51:1 61:1 67:1 72:1 74:1 76:1 80:1 83:1 
0.2585632780578608 0 1:1 6:1 18:1 21:1 35:1 42:1 58:1 64:1 67:1 72:1 74:1 76:1 79:1 83:1 
0.3425115608539839 0 1:1 6:1 18:1 24:1 38:1 42:1 50:1 64:1 71:1 73:1 74:1 76:1 80:1 
0.09631258881898615 0 1:1 6:1 14:1 20:1 37:1 42:1 55:1 62:1 67:1 72:1 74:1 76:1 79:1 83:1 
0.339615046391296 0 4:1 6:1 15:1 22:1 36:1 42:1 48:1 66:1 67:1 72:1 74:1 76:1 80:1 86:1 
0.2827573940157648 0 3:1 6:1 18:1 20:1 37:1 42:1 50:1 66:1 71:1 72:1 74:1 76:1 80:1 83:1 
0.5059560038993002 0 2:1 6:1 17:1 29:1 39:1 42:1 51:1 64:1 70:1 73:1 74:1 76:1 78:1 95:1 
0.1884124029453367 0 3:1 6:1 14:1 20:1 37:1 41:1 53:1 66:1 67:1 72:1 74:1 76:1 80:1 83:1 
0.06433606935435463 0 1:1 6:1 16:1 28:1 35:1 42:1 49:1 62:1 67:1 73:1 74:1 76:1 78:1 83:1 
0.1186693377768184 0 3:1 6:1 16:1 20:1 37:1 41:1 54:1 64:1 67:1 73:1 74:1 76:1 80:1 83:1 
0.5738651952176344 0 5:1 6:1 17:1 31:1 35:1 40:1 57:1 63:1 67:1 73:1 74:1 76:1 80:1 83:1 
0.1265277072323703 0 2:1 6:1 16:1 20:1 37:1 41:1 55:1 64:1 67:1 72:1 74:1 76:1 79:1 83:1 
1 0 3:1 8:1 14:1 22:1 36:1 40:1 51:1 63:1 67:1 73:1 74:1 76:1 80:1 83:1 
0.2561998242945837 0 1:1 6:1 17:1 27:1 35:1 40:1 48:1 63:1 67:1 73:1 74:1 76:1 80:1 103:1 
0.6288864063107464 0 2:1 6:1 14:1 20:1 37:1 40:1 55:1 63:1 67:1 73:1 74:1 76:1 82:1 83:1 
0.2903977870876371 0 4:1 6:1 14:1 22:1 36:1 44:1 55:1 66:1 67:1 72:1 74:1 76:1 79:1 83:1 
0.3464028094511471 0 1:1 6:1 17:1 21:1 35:1 42:1 50:1 62:1 67:1 72:1 74:1 77:1 78:1 83:1 
0.4193753931519925 0 2:1 7:1 18:1 27:1 35:1 40:1 52:1 63:1 67:1 73:1 74:1 76:1 82:1 83:1 
0.4614089305670632 0 4:1 6:1 18:1 26:1 35:1 40:1 51:1 63:1 67:1 73:1 74:1 76:1 80:1 103:1 
0.8665815489651828 0 3:1 6:1 15:1 20:1 37:1 40:1 55:1 63:1 67:1 73:1 74:1 76:1 82:1 83:1 
0.4048160647619865 0 4:1 6:1 15:1 26:1 35:1 43:1 53:1 62:1 67:1 73:1 74:1 76:1 79:1 83:1 
0.4042964283413978 0 5:1 6:1 16:1 30:1 35:1 40:1 49:1 65:1 71:1 72:1 74:1 76:1 78:1 83:1 
0.1111271718633169 0 1:1 6:1 16:1 20:1 37:1 42:1 50:1 62:1 71:1 72:1 74:1 76:1 78:1 83:1 
0.2020383519728169 0 1:1 16:1 24:1 38:1 42:1 65:1 67:1 73:1 74:1 76:1 78:1 83:1 
0.7822593265566734 0 5:1 6:1 16:1 22:1 36:1 40:1 50:1 63:1 67:1 73:1 74:1 76:1 78:1 83:1 
0.7643008358999741 0 3:1 8:1 16:1 20:1 37:1 40:1 50:1 63:1 67:1 73:1 74:1 77:1 80:1 83:1 
0.5348957526522038 0 5:1 6:1 14:1 23:1 39:1 45:1 52:1 66:1 67:1 73:1 74:1 76:1 82:1 83:1 
0.7081758416128978 0 2:1 11:1 16:1 29:1 39:1 40:1 52:1 63:1 67:1 73:1 74:1 76:1 78:1 83:1 
1 0 4:1 7:1 14:1 19:1 39:1 40:1 56:1 63:1 67:1 73:1 74:1 76:1 82:1 83:1 
0.71636084791855 0 4:1 7:1 18:1 22:1 36:1 40:1 52:1 63:1 67:1 73:1 74:1 76:1 82:1 83:1 
0.6819450162019123 0 4:1 6:1 15:1 20:1 37:1 40:1 48:1 63:1 69:1 73:1 74:1 76:1 80:1 83:1 
0.2484135074507661 0 1:1 13:1 17:1 31:1 35:1 42:1 62:1 67:1 73:1 74:1 76:1 78:1 83:1 
0.4338210820548336 0.05940624101842632 3:1 10:1 15:1 25:1 38:1 42:1 51:1 66:1 69:1 72:1 74:1 76:1 80:1 83:1 
0.3535553188618867 0 3:1 6:1 18:1 22:1 36:1 41:1 48:1 64:1 67:1 73:1 74:1 77:1 79:1 83:1 
0.6617886174220625 0 3:1 6:1 17:1 20:1 37:1 40:1 49:1 63:1 67:1 73:1 74:1 76:1 82:1 83:1 
0.239187913256409 0 2:1 6:1 16:1 25:1 38:1 42:1 47:1 64:1 67:1 73:1 74:1 76:1 80:1 83:1 
0.1541173081940338 0 5:1 6:1 15:1 20:1 37:1 44:1 58:1 66:1 67:1 72:1 74:1 76:1 80:1 83:1 
0.4899956063804185 0 2:1 6:1 18:1 31:1 35:1 40:1 51:1 61:1 67:1 72:1 74:1 76:1 79:1 83:1 
0.09121507783311941 0 2:1 6:1 16:1 22:1 36:1 41:1 55:1 64:1 67:1 72:1 74:1 76:1 80:1 83:1 
0.5729715931183247 0 1:1 6:1 14:1 25:1 38:1 40:1 57:1 63:1 67:1 73:1 74:1 76:1 80:1 83:1 
0.3712571981086674 0 3:1 6:1 16:1 22:1 36:1 42:1 52:1 64:1 67:1 72:1 74:1 77:1 81:1 83:1 
0.527537882109133 0 2:1 6:1 16:1 19:1 39:1 42:1 51:1 62:1 68:1 72:1 74:1 76:1 82:1 110:1 
0.4479270642999733 0 1:1 6:1 14:1 22:1 36:1 40:1 48:1 63:1 67:1 73:1 74:1 76:1 81:1 83:1 
1 0 2:1 6:1 15:1 22:1 36:1 40:1 48:1 63:1 67:1 73:1 74:1 76:1 80:1 83:1 
0.5480923107468193 0 4:1 16:1 31:1 35:1 40:1 61:1 67:1 72:1 74:1 76:1 78:1 95:1 
0.5997229667722621 0 2:1 6:1 17:1 22:1 36:1 40:1 49:1 63:1 67:1 73:1 74:1 76:1 80:1 83:1 
0.6352474465770823 0 1:1 6:1 17:1 22:1 36:1 40:1 58:1 61:1 67:1 72:1 75:1 76:1 80:1 83:1 
1 0 2:1 6:1 15:1 22:1 36:1 40:1 51:1 63:1 67:1 73:1 74:1 76:1 82:1 83:1 
1 0 5:1 17:1 29:1 39:1 40:1 63:1 67:1 73:1 74:1 76:1 82:1 83:1 
0.2787237961866354 0 5:1 17:1 25:1 38:1 42:1 64:1 67:1 73:1 74:1 76:1 78:1 83:1 
0.2296142378724102 0 4:1 6:1 18:1 27:1 35:1 40:1 48:1 63:1 67:1 73:1 74:1 76:1 80:1 83:1 
0.1153224923939082 0 5:1 6:1 16:1 22:1 36:1 41:1 55:1 66:1 67:1 72:1 74:1 76:1 81:1 83:1 
0.4380482635498442 0 4:1 6:1 17:1 19:1 39:1 42:1 52:1 64:1 71:1 73:1 74:1 76:1 80:1 83:1 
0.3729534111808306 0 5:1 18:1 26:1 35:1 43:1 64:1 71:1 73:1 74:1 76:1 80:1 83:1 
0.3689347767785768 0 4:1 9:1 17:1 25:1 38:1 41:1 47:1 64:1 67:1 73:1 74:1 76:1 80:1 83:1 
0.4994168283190816 0 3:1 9:1 14:1 20:1 37:1 41:1 51:1 64:1 67:1 72:1 74:1 76:1 80:1 83:1 
1 0 4:1 6:1 14:1 20:1 37:1 40:1 48:1 63:1 67:1 73:1 74:1 76:1 80:1 83:1 
0.2830119823416243 0 1:1 6:1 14:1 21:1 35:1 42:1 49:1 62:1 69:1 73:1 74:1 76:1 78:1 83:1 
0.4528271132343001 0 5:1 6:1 14:1 30:1 35:1 40:1 57:1 63:1 71:1 73:1 74:1 76:1 78:1 83:1 
0.6084093146206442 0 5:1 6:1 16:1 23:1 39:1 42:1 52:1 64:1 67:1 73:1 74:1 76:1 82:1 83:1 
0.3233317016791736 0 5:1 7:1 17:1 20:1 37:1 41:1 57:1 64:1 67:1 72:1 74:1 76:1 78:1 83:1 
0.08311277677303901 0 2:1 6:1 16:1 22:1 36:1 42:1 50:1 64:1 67:1 72:1 74:1 76:1 79:1 83:1 
1 0 4:1 6:1 15:1 22:1 36:1 40:1 51:1 61:1 67:1 72:1 74:1 76:1 80:1 83:1 
0.3213018729186998 0 2:1 6:1 17:1 22:1 36:1 42:1 54:1 64:1 67:1 73:1 74:1 76:1 82:1 83:1 
0.2584882327593156 0 2:1 6:1 16:1 22:1 36:1 41:1 48:1 64:1 67:1 73:1 74:1 76:1 82:1 83:1 
0.1181880758206255 0 4:1 6:1 16:1 22:1 36:1 42:1 50:1 64:1 67:1 72:1 74:1 76:1 78:1 83:1 
0.07159012343810732 0 1:1 6:1 17:1 22:1 36:1 42:1 49:1 64:1 67:1 73:1 74:1 76:1 79:1 83:1 
0.1085566003150214 0 5:1 15:1 22:1 36:1 44:1 64:1 67:1 72:1 74:1 76:1 78:1 83:1 
0.5377571633802819 0 1:1 6:1 15:1 20:1 37:1 40:1 55:1 63:1 71:1 73:1 74:1 76:1 80:1 83:1 
0.5189508282680175 0 1:1 6:1 14:1 19:1 39:1 40:1 55:1 62:1 69:1 72:1 75:1 76:1 78:1 83:1 
0.3829000009868537 0 5:1 6:1 16:1 27:1 35:1 45:1 54:1 64:1 67:1 73:1 74:1 76:1 80:1 114:1 
0.3503989508560134 0 4:1 6:1 15:1 21:1 35:1 42:1 53:1 65:1 71:1 72:1 74:1 76:1 80:1 83:1 
0.4053028476559779 0 5:1 6:1 17:1 24:1 38:1 41:1 55:1 64:1 67:1 73:1 74:1 77:1 80:1 83:1 
0.2899253681104123 0 5:1 6:1 14:1 31:1 35:1 44:1 55:1 64:1 67:1 72:1 74:1 76:1 78:1 83:1 
0.4098779581064464 0 3:1 6:1 14:1 20:1 37:1 41:1 55:1 64:1 67:1 72:1 75:1 76:1 80:1 83:1 
0.406031114386427 0 1:1 7:1 18:1 26:1 35:1 42:1 52:1 64:1 67:1 73:1 74:1 76:1 79:1 103:1 
0.3404845113220845 0 2:1 6:1 14:1 19:1 39:1 42:1 55:1 62:1 68:1 72:1 74:1 76:1 78:1 83:1 
0.6318675067714682 0 5:1 6:1 16:1 24:1 38:1 40:1 50:1 61:1 67:1 72:1 75:1 76:1 80:1 83:1 
0.4649925979982975 0.07344588182386075 4:1 17:1 25:1 38:1 41:1 64:1 67:1 73:1 74:1 76:1 82:1 83:1 
1 0 3:1 6:1 17:1 22:1 36:1 40:1 48:1 63:1 67:1 73:1 74:1 76:1 82:1 83:1 
0.1874402119517384 0 5:1 6:1 18:1 22:1 36:1 41:1 50:1 65:1 67:1 72:1 74:1 76:1 78:1 83:1 
0.2550567222223671 0 3:1 6:1 14:1 19:1 39:1 42:1 52:1 64:1 67:1 73:1 74:1 76:1 78:1 83:1 
0.1521037057240206 0 5:1 6:1 15:1 20:1 37:1 41:1 54:1 64:1 67:1 73:1 74:1 76:1 82:1 83:1 
0.898663066136898 0 4:1 6:1 18:1 29:1 39:1 40:1 50:1 63:1 67:1 73:1 74:1 76:1 80:1 109:1 
0.361472404427077 0 5:1 6:1 14:1 22:1 36:1 41:1 55:1 65:1 69:1 72:1 74:1 76:1 79:1 83:1 
0.374152468572862 0 5:1 6:1 15:1 27:1 35:1 44:1 49:1 66:1 69:1 72:1 74:1 76:1 78:1 83:1 
1 0 1:1 6:1 18:1 20:1 37:1 40:1 55:1 63:1 67:1 73:1 74:1 76:1 81:1 83:1 
0.2687266835288353 0 2:1 15:1 19:1 39:1 42:1 66:1 67:1 72:1 74:1 76:1 78:1 83:1 
0.2935543148170049 0 3:1 7:1 16:1 22:1 36:1 42:1 48:1 64:1 67:1 73:1 74:1 76:1 79:1 83:1 
0.3508354394952259 0 3:1 9:1 16:1 19:1 39:1 42:1 52:1 62:1 67:1 72:1 74:1 76:1 80:1 83:1 
0.4155883652630416 0 5:1 10:1 15:1 20:1 37:1 44:1 49:1 64:1 67:1 72:1 74:1 76:1 80:1 100:1 
0.3537481213444639 0 2:1 6:1 14:1 20:1 37:1 42:1 51:1 64:1 67:1 73:1 74:1 77:1 82:1 83:1 
0.2053518347134246 0 2:1 6:1 16:1 19:1 39:1 42:1 52:1 62:1 67:1 72:1 74:1 76:1 79:1 83:1 
1 0 5:1 6:1 16:1 22:1 36:1 40:1 54:1 63:1 67:1 73:1 74:1 76:1 82:1 83:1 
0.3993270687141234 0 2:1 7:1 16:1 22:1 36:1 40:1 48:1 63:1 67:1 73:1 74:1 76:1 82:1 83:1 
0.8714788874792037 0.07920102715094032 4:1 6:1 15:1 22:1 36:1 41:1 55:1 66:1 67:1 72:1 74:1 76:1 82:1 83:1 
0.3287548080033094 0 4:1 6:1 16:1 19:1 39:1 42:1 55:1 62:1 67:1 73:1 74:1 76:1 80:1 83:1 
0.3880496117292608 0 3:1 11:1 17:1 29:1 39:1 42:1 52:1 62:1 67:1 72:1 74:1 76:1 78:1 83:1 
0.3886227202786934 0 3:1 7:1 16:1 21:1 35:1 40:1 57:1 63:1 67:1 73:1 74:1 76:1 80:1 83:1 
1 0 3:1 11:1 18:1 19:1 39:1 40:1 51:1 63:1 67:1 73:1 74:1 76:1 79:1 83:1 
0.06619121335116189 0 1:1 6:1 14:1 20:1 37:1 42:1 52:1 64:1 67:1 73:1 74:1 76:1 81:1 83:1 
0.3061332097740127 0 2:1 6:1 15:1 24:1 38:1 42:1 49:1 64:1 71:1 72:1 74:1 76:1 80:1 83:1 
0.346823707475568 0 5:1 7:1 16:1 22:1 36:1 40:1 48:1 63:1 67:1 73:1 75:1 76:1 78:1 83:1 
0.4608194648878893 0 1:1 6:1 15:1 26:1 35:1 42:1 48:1 66:1 67:1 73:1 75:1 76:1 80:1 83:1 
1 0 3:1 6:1 17:1 22:1 36:1 40:1 48:1 63:1 67:1 73:1 74:1 76:1 80:1 83:1 
0.21086879483336 0 4:1 6:1 18:1 22:1 36:1 42:1 51:1 66:1 71:1 72:1 74:1 76:1 78:1 83:1 
0.3916076017370379 0 2:1 6:1 16:1 21:1 35:1 42:1 49:1 62:1 71:1 73:1 75:1 76:1 78:1 83:1 
1 0 3:1 6:1 14:1 22:1 36:1 41:1 51:1 66:1 67:1 72:1 74:1 76:1 80:1 83:1 
0.3161079136865138 0 1:1 10:1 16:1 19:1 39:1 42:1 52:1 62:1 67:1 72:1 74:1 76:1 80:1 83:1 
0.1659076784526277 0 2:1 11:1 15:1 22:1 36:1 42:1 59:1 64:1 67:1 73:1 74:1 76:1 80:1 83:1 
0.3551858875538639 0 3:1 6:1 14:1 19:1 39:1 42:1 55:1 64:1 67:1 72:1 74:1 76:1 81:1 83:1 
0.2847160751440607 0 2:1 7:1 15:1 26:1 35:1 40:1 48:1 63:1 67:1 73:1 74:1 76:1 80:1 83:1 
0.4973824185087129 0 5:1 6:1 18:1 26:1 35:1 40:1 54:1 63:1 71:1 73:1 75:1 76:1 80:1 83:1 
0.4274402402587477 0 3:1 11:1 17:1 20:1 37:1 43:1 51:1 62:1 67:1 72:1 74:1 76:1 80:1 83:1 
0.1885666312211898 0 3:1 6:1 14:1 20:1 37:1 41:1 52:1 64:1 67:1 73:1 74:1 76:1 82:1 83:1 
0.2332688171162435 0 2:1 6:1 18:1 22:1 36:1 41:1 54:1 66:1 67:1 72:1 74:1 76:1 78:1 83:1 
0.2995729543629163 0 2:1 6:1 16:1 31:1 35:1 42:1 55:1 62:1 67:1 73:1 74:1 76:1 82:1 83:1 
0.389485783274559 0 3:1 6:1 16:1 19:1 39:1 42:1 51:1 64:1 67:1 73:1 74:1 76:1 78:1 87:1 
0.3640059919182238 0 5:1 6:1 16:1 31:1 35:1 44:1 56:1 66:1 67:1 73:1 74:1 76:1 78:1 83:1 
0.2690953820124867 0 1:1 6:1 14:1 22:1 36:1 42:1 49:1 62:1 67:1 73:1 74:1 76:1 78:1 87:1 
0.215451368925189 0 1:1 6:1 14:1 22:1 36:1 42:1 53:1 65:1 71:1 73:1 74:1 76:1 80:1 83:1 
0.2624026367950975 0 4:1 6:1 17:1 22:1 36:1 42:1 55:1 66:1 67:1 72:1 74:1 76:1 82:1 83:1 
0.2451422271884656 0 4:1 6:1 15:1 22:1 36:1 42:1 57:1 64:1 67:1 73:1 74:1 76:1 80:1 100:1 
0.2449835113802744 0 5:1 6:1 18:1 22:1 36:1 41:1 55:1 66:1 67:1 72:1 74:1 76:1 81:1 83:1 
0.4081081080110415 0 2:1 6:1 14:1 27:1 35:1 40:1 50:1 65:1 67:1 73:1 74:1 76:1 80:1 83:1 
0.1422398696577464 0.05666268956471752 1:1 6:1 17:1 22:1 36:1 42:1 49:1 62:1 67:1 73:1 74:1 76:1 80:1 103:1 
0.2105877668336205 0 2:1 6:1 16:1 21:1 35:1 42:1 57:1 62:1 67:1 73:1 74:1 76:1 82:1 83:1 
0.2481953408738509 0 3:1 6:1 18:1 22:1 36:1 41:1 49:1 64:1 67:1 72:1 74:1 76:1 82:1 83:1 
0.4670345861122859 0 3:1 9:1 15:1 19:1 39:1 42:1 55:1 62:1 67:1 73:1 74:1 76:1 79:1 83:1 
0.7334867908404056 0 3:1 10:1 15:1 20:1 37:1 40:1 49:1 61:1 67:1 72:1 74:1 76:1 80:1 83:1 
0.3315053553940869 0 2:1 7:1 16:1 19:1 39:1 42:1 52:1 65:1 67:1 73:1 74:1 76:1 80:1 83:1 
0.4943665164269711 0 5:1 6:1 15:1 33:1 35:1 40:1 54:1 63:1 67:1 73:1 74:1 77:1 80:1 83:1 
1 0 5:1 6:1 15:1 22:1 36:1 40:1 48:1 63:1 67:1 73:1 74:1 76:1 80:1 83:1 
0.06281431118599891 0 2:1 6:1 17:1 20:1 37:1 42:1 48:1 64:1 67:1 73:1 74:1 76:1 81:1 83:1 
0.3078953341313439 0 3:1 6:1 18:1 22:1 36:1 43:1 49:1 64:1 71:1 72:1 74:1 76:1 80:1 83:1 
0.3122223491324184 0 1:1 6:1 18:1 33:1 35:1 42:1 53:1 65:1 67:1 73:1 74:1 76:1 78:1 97:1 
0.5041778137062071 0 4:1 6:1 16:1 22:1 36:1 43:1 52:1 66:1 67:1 72:1 74:1 77:1 80:1 86:1 
0.082416669172104 0 2:1 6:1 17:1 20:1 37:1 42:1 49:1 64:1 67:1 73:1 74:1 76:1 82:1 83:1 
0.7875756592740115 0 5:1 6:1 15:1 27:1 35:1 42:1 49:1 64:1 67:1 73:1 74:1 76:1 82:1 83:1 
0.4954109635674645 0 5:1 7:1 15:1 20:1 37:1 40:1 49:1 63:1 67:1 73:1 74:1 76:1 82:1 83:1 
1 0 3:1 6:1 17:1 22:1 36:1 40:1 53:1 63:1 67:1 73:1 74:1 76:1 80:1 83:1 
0.5557240349762833 0 1:1 18:1 22:1 36:1 40:1 63:1 67:1 73:1 74:1 76:1 80:1 83:1 
0.2280576675086586 0 3:1 6:1 15:1 20:1 37:1 42:1 50:1 64:1 67:1 73:1 74:1 76:1 82:1 83:1 
0.5127607816155312 0 5:1 14:1 26:1 35:1 40:1 63:1 67:1 73:1 74:1 76:1 82:1 83:1 
0.4408038553314384 0 3:1 10:1 18:1 20:1 37:1 42:1 51:1 66:1 71:1 72:1 74:1 76:1 82:1 83:1 
0.235316800248125 0 5:1 6:1 15:1 22:1 36:1 41:1 51:1 64:1 67:1 72:1 74:1 76:1 82:1 83:1 
0.1039875628434147 0 1:1 6:1 17:1 20:1 37:1 42:1 49:1 64:1 67:1 73:1 74:1 76:1 79:1 83:1 
0.2834848307912825 0 3:1 6:1 17:1 22:1 36:1 43:1 50:1 66:1 71:1 72:1 74:1 76:1 78:1 83:1 
0.289899203745788 0 5:1 7:1 15:1 20:1 37:1 41:1 50:1 64:1 67:1 72:1 74:1 76:1 79:1 83:1 
0.201966064074309 0 3:1 6:1 15:1 22:1 36:1 41:1 53:1 64:1 67:1 72:1 74:1 76:1 82:1 83:1 
0.4361077917273076 0 5:1 6:1 17:1 22:1 36:1 42:1 48:1 65:1 68:1 73:1 74:1 76:1 80:1 84:1 
0.2593366210317722 0 2:1 6:1 16:1 22:1 36:1 42:1 54:1 66:1 67:1 73:1 74:1 76:1 80:1 83:1 
0.2814391090293006 0 2:1 6:1 14:1 20:1 37:1 42:1 53:1 62:1 68:1 73:1 74:1 76:1 80:1 83:1 
1 0 5:1 6:1 16:1 20:1 37:1 40:1 56:1 63:1 67:1 73:1 74:1 76:1 80:1 83:1 
0.3177522818760324 0 4:1 6:1 15:1 20:1 37:1 41:1 55:1 64:1 68:1 72:1 74:1 76:1 79:1 83:1 
0.1757768494465021 0 5:1 18:1 26:1 35:1 41:1 64:1 67:1 72:1 74:1 76:1 78:1 83:1 
0.6225285717439179 0 2:1 7:1 15:1 20:1 37:1 40:1 50:1 63:1 67:1 73:1 74:1 76:1 82:1 83:1 
0.1936959429691973 0 1:1 6:1 15:1 24:1 38:1 42:1 55:1 62:1 67:1 73:1 74:1 76:1 80:1 83:1 
0.2356991641000259 0 3:1 6:1 18:1 31:1 35:1 41:1 48:1 64:1 67:1 73:1 74:1 76:1 80:1 83:1 
0.2999679491075574 0 2:1 6:1 17:1 20:1 37:1 41:1 55:1 66:1 71:1 72:1 74:1 76:1 79:1 83:1 
0.3492369247651326 0 3:1 6:1 18:1 33:1 35:1 41:1 53:1 66:1 67:1 73:1 74:1 76:1 80:1 103:1 
1 0 3:1 6:1 14:1 19:1 39:1 40:1 51:1 61:1 67:1 72:1 74:1 76:1 80:1 83:1 
0.7365975025727485 0 3:1 6:1 14:1 20:1 37:1 40:1 47:1 63:1 67:1 73:1 74:1 77:1 80:1 83:1 
1 0 2:1 6:1 17:1 22:1 36:1 40:1 48:1 63:1 67:1 73:1 74:1 76:1 80:1 83:1 
0.3651493301843876 0 2:1 8:1 18:1 22:1 36:1 42:1 50:1 64:1 67:1 73:1 74:1 76:1 82:1 83:1 
0.6199894369518955 0 3:1 9:1 18:1 20:1 37:1 40:1 47:1 61:1 67:1 72:1 75:1 76:1 80:1 83:1 
1 0 2:1 6:1 16:1 24:1 38:1 40:1 51:1 63:1 67:1 73:1 74:1 76:1 80:1 83:1 
0.2190414985213438 0 2:1 6:1 15:1 22:1 36:1 42:1 51:1 62:1 71:1 73:1 74:1 76:1 80:1 83:1 
0.4685188359583871 0 3:1 8:1 15:1 29:1 39:1 41:1 51:1 64:1 67:1 72:1 74:1 76:1 82:1 83:1 
0.4005526248099539 0 2:1 6:1 15:1 20:1 37:1 40:1 54:1 63:1 71:1 73:1 74:1 76:1 80:1 83:1 
0.4186242507359557 0 5:1 9:1 14:1 19:1 39:1 45:1 51:1 64:1 67:1 72:1 74:1 76:1 80:1 83:1 
0.3643553761207533 0 5:1 14:1 21:1 35:1 45:1 66:1 71:1 72:1 74:1 76:1 78:1 83:1 
0.7784412810371821 0 2:1 6:1 16:1 19:1 39:1 42:1 52:1 62:1 67:1 72:1 74:1 76:1 80:1 83:1 
1 0 4:1 6:1 15:1 22:1 36:1 40:1 49:1 63:1 67:1 73:1 74:1 76:1 80:1 83:1 
0.5458406600538484 0 5:1 8:1 18:1 29:1 39:1 41:1 51:1 64:1 71:1 72:1 74:1 76:1 82:1 83:1 
0.2401746854747275 0 1:1 6:1 18:1 31:1 35:1 42:1 49:1 64:1 67:1 72:1 74:1 76:1 79:1 83:1 
0.9418678186044606 0 2:1 6:1 15:1 22:1 36:1 40:1 50:1 63:1 67:1 73:1 74:1 76:1 81:1 83:1 
0.4061798763070084 0 4:1 6:1 16:1 25:1 38:1 42:1 48:1 66:1 67:1 73:1 74:1 76:1 80:1 83:1 
0.5390941287625632 0 5:1 7:1 16:1 24:1 38:1 40:1 48:1 63:1 67:1 73:1 75:1 76:1 78:1 113:1 
0.2094821606375294 0 4:1 6:1 17:1 33:1 35:1 40:1 53:1 63:1 67:1 73:1 74:1 76:1 80:1 103:1 
0.6725686295246632 0 5:1 6:1 14:1 20:1 37:1 40:1 51:1 63:1 67:1 73:1 74:1 77:1 80:1 83:1 
0.476129216090696 0.05892658938466124 4:1 11:1 15:1 22:1 36:1 41:1 48:1 66:1 67:1 73:1 74:1 76:1 80:1 83:1 
0.4299631928158426 0.06481365104617844 2:1 6:1 15:1 25:1 38:1 43:1 52:1 66:1 67:1 72:1 74:1 76:1 80:1 83:1 
0.3191987308899863 0 2:1 6:1 17:1 20:1 37:1 45:1 57:1 64:1 67:1 72:1 74:1 76:1 79:1 83:1 
0.5684016005955809 0 3:1 6:1 16:1 22:1 36:1 40:1 50:1 61:1 67:1 72:1 74:1 76:1 78:1 83:1 
0.1446773199676358 0 2:1 6:1 17:1 20:1 37:1 41:1 49:1 64:1 67:1 72:1 74:1 76:1 78:1 83:1 
0.1364103095235171 0 1:1 6:1 17:1 21:1 35:1 42:1 55:1 65:1 67:1 72:1 74:1 76:1 78:1 83:1 
0.1480058999476225 0 1:1 6:1 14:1 20:1 37:1 42:1 51:1 64:1 67:1 72:1 74:1 76:1 79:1 83:1 
1 0 5:1 6:1 15:1 20:1 37:1 40:1 48:1 63:1 67:1 73:1 74:1 76:1 82:1 83:1 
0.2238537939578686 0 5:1 6:1 17:1 22:1 36:1 44:1 49:1 65:1 67:1 72:1 74:1 76:1 78:1 83:1 
0.1101371055126836 0 5:1 18:1 22:1 36:1 40:1 63:1 67:1 73:1 74:1 76:1 78:1 83:1 
0.1323433244824049 0 1:1 11:1 18:1 20:1 37:1 42:1 55:1 62:1 67:1 72:1 74:1 76:1 78:1 83:1 
1 0.07538756283276593 4:1 10:1 15:1 29:1 39:1 41:1 52:1 66:1 71:1 72:1 74:1 76:1 80:1 83:1 
0.5291296508135629 0 5:1 7:1 16:1 22:1 36:1 40:1 51:1 63:1 67:1 73:1 74:1 76:1 78:1 83:1 
0.3710003573681484 0 1:1 16:1 19:1 39:1 42:1 64:1 67:1 73:1 74:1 76:1 82:1 83:1 
0.5226241816844296 0 3:1 6:1 14:1 22:1 36:1 42:1 53:1 64:1 67:1 73:1 75:1 76:1 82:1 83:1 
0.3955726960624482 0 5:1 10:1 15:1 22:1 36:1 41:1 57:1 65:1 67:1 73:1 74:1 76:1 80:1 83:1 
1 0 4:1 6:1 16:1 25:1 38:1 40:1 48:1 63:1 67:1 73:1 74:1 76:1 82:1 83:1 
0.1785755995769977 0 1:1 6:1 17:1 19:1 39:1 42:1 49:1 62:1 67:1 72:1 74:1 76:1 78:1 83:1 
0.3482362547703147 0.06904012535944856 4:1 7:1 16:1 22:1 36:1 41:1 52:1 64:1 67:1 73:1 74:1 76:1 78:1 83:1 
1 0.08300159025231158 4:1 10:1 14:1 24:1 38:1 40:1 52:1 63:1 67:1 73:1 74:1 76:1 82:1 83:1 
1 0 3:1 6:1 15:1 19:1 39:1 40:1 51:1 63:1 67:1 73:1 74:1 76:1 81:1 83:1 
1 0 2:1 6:1 15:1 22:1 36:1 40:1 57:1 63:1 67:1 73:1 74:1 76:1 82:1 83:1 
1 0 2:1 6:1 15:1 22:1 36:1 40:1 48:1 63:1 67:1 73:1 74:1 76:1 80:1 83:1 
0.3461976495387769 0 2:1 10:1 16:1 25:1 38:1 42:1 59:1 64:1 67:1 73:1 74:1 76:1 82:1 83:1 
0.4567027581451796 0 5:1 7:1 16:1 33:1 35:1 40:1 56:1 63:1 67:1 73:1 74:1 76:1 82:1 87:1 
0.5625629746838495 0 1:1 6:1 18:1 19:1 39:1 42:1 50:1 64:1 67:1 72:1 74:1 76:1 82:1 83:1 
0.407803249007181 0 5:1 6:1 18:1 26:1 35:1 40:1 58:1 61:1 71:1 72:1 74:1 76:1 78:1 83:1 
1 0 3:1 6:1 14:1 22:1 36:1 40:1 57:1 63:1 67:1 73:1 75:1 76:1 80:1 83:1 
0.2260678143913249 0 5:1 6:1 15:1 22:1 36:1 41:1 55:1 66:1 67:1 73:1 74:1 76:1 78:1 83:1 
0.7745466783812048 0 4:1 6:1 16:1 31:1 35:1 40:1 50:1 63:1 67:1 73:1 74:1 77:1 82:1 83:1 
0.5426149125193314 0 2:1 7:1 16:1 25:1 38:1 40:1 56:1 63:1 67:1 73:1 74:1 76:1 82:1 83:1 
1 0 5:1 7:1 14:1 22:1 36:1 40:1 56:1 63:1 67:1 73:1 74:1 76:1 82:1 83:1 
0.4557587755086274 0 2:1 6:1 16:1 19:1 39:1 42:1 47:1 64:1 67:1 72:1 74:1 76:1 79:1 83:1 
0.4291587305865818 0 3:1 7:1 17:1 22:1 36:1 40:1 56:1 63:1 67:1 73:1 74:1 76:1 81:1 83:1 
0.2321426124382414 0 3:1 6:1 18:1 21:1 35:1 40:1 54:1 63:1 67:1 73:1 74:1 76:1 80:1 83:1 
0.4000452240305664 0 2:1 6:1 17:1 20:1 37:1 42:1 57:1 64:1 71:1 73:1 75:1 76:1 82:1 83:1 
0.4984680899663161 0 2:1 10:1 16:1 20:1 37:1 45:1 52:1 64:1 67:1 73:1 74:1 76:1 82:1 88:1 
0.1258576961499331 0 1:1 16:1 20:1 37:1 42:1 65:1 67:1 73:1 74:1 76:1 80:1 83:1 
0.5695031523560389 0 5:1 10:1 18:1 25:1 38:1 40:1 57:1 63:1 71:1 73:1 74:1 76:1 80:1 83:1 
0.0557385799016652 0 1:1 6:1 18:1 22:1 36:1 42:1 54:1 62:1 67:1 72:1 74:1 76:1 80:1 83:1 
0.3713458794831151 0 5:1 6:1 14:1 27:1 35:1 40:1 48:1 63:1 67:1 73:1 74:1 76:1 80:1 83:1 
0.4933807444879828 0 4:1 6:1 16:1 22:1 36:1 40:1 49:1 63:1 68:1 73:1 74:1 76:1 80:1 94:1 
0.3892910792648224 0 4:1 6:1 18:1 22:1 36:1 41:1 50:1 66:1 71:1 73:1 75:1 76:1 80:1 83:1 
0.5573170567699703 0 2:1 11:1 16:1 32:1 39:1 42:1 52:1 64:1 67:1 72:1 74:1 76:1 82:1 83:1 
1 0 5:1 9:1 14:1 19:1 39:1 40:1 51:1 63:1 67:1 73:1 74:1 76:1 80:1 83:1 
0.09066206218267613 0 1:1 6:1 17:1 21:1 35:1 40:1 54:1 63:1 67:1 73:1 74:1 76:1 80:1 83:1 
0.11766392402598 0 3:1 6:1 18:1 33:1 35:1 40:1 49:1 63:1 67:1 73:1 74:1 76:1 80:1 103:1 
0.4191830517873379 0 4:1 10:1 14:1 27:1 35:1 41:1 53:1 64:1 67:1 73:1 74:1 76:1 80:1 83:1 
1 0 3:1 7:1 14:1 22:1 36:1 40:1 56:1 63:1 67:1 73:1 74:1 76:1 82:1 83:1 
0.4774685393243301 0.05695324840454417 4:1 6:1 16:1 24:1 38:1 41:1 51:1 64:1 71:1 72:1 74:1 76:1 80:1 101:1 
0.3562956145953528 0.05691753558788119 5:1 7:1 16:1 22:1 36:1 44:1 50:1 64:1 67:1 72:1 74:1 76:1 82:1 83:1 
0.2891838662446608 0 3:1 9:1 14:1 22:1 36:1 42:1 55:1 62:1 71:1 72:1 74:1 76:1 80:1 83:1 
0.6760444240371231 0 3:1 6:1 15:1 20:1 37:1 40:1 52:1 63:1 67:1 73:1 74:1 76:1 80:1 83:1 
0.1394708207905974 0 1:1 6:1 17:1 21:1 35:1 40:1 57:1 63:1 67:1 73:1 74:1 76:1 80:1 83:1 
0.3058003126753479 0 1:1 6:1 17:1 20:1 37:1 43:1 50:1 66:1 67:1 72:1 74:1 76:1 81:1 83:1 
0.3257124899904705 0 2:1 6:1 18:1 21:1 35:1 40:1 56:1 63:1 67:1 73:1 74:1 76:1 82:1 103:1 
0.3648565208005372 0 5:1 7:1 15:1 20:1 37:1 43:1 50:1 64:1 67:1 73:1 74:1 76:1 79:1 83:1 
0.3670826551694907 0 2:1 6:1 15:1 19:1 39:1 42:1 52:1 66:1 70:1 73:1 74:1 76:1 80:1 83:1 
0.4619712395747923 0 3:1 6:1 16:1 19:1 39:1 42:1 49:1 64:1 68:1 72:1 74:1 76:1 79:1 117:1 
0.08094037438420096 0 1:1 6:1 14:1 20:1 37:1 42:1 53:1 64:1 67:1 72:1 74:1 76:1 79:1 83:1 
0.4423341359178254 0 1:1 14:1 20:1 37:1 40:1 63:1 67:1 73:1 74:1 76:1 78:1 83:1 
0.3136148641344088 0 1:1 17:1 20:1 37:1 45:1 66:1 71:1 72:1 74:1 76:1 80:1 83:1 
0.205433726143377 0 5:1 6:1 14:1 22:1 36:1 45:1 55:1 64:1 67:1 72:1 74:1 76:1 82:1 83:1 
0.5267242217607656 0.06799711315775157 5:1 10:1 15:1 24:1 38:1 41:1 49:1 64:1 67:1 72:1 75:1 76:1 78:1 83:1 
0.3459358004887919 0 1:1 6:1 17:1 20:1 37:1 42:1 55:1 65:1 67:1 73:1 74:1 76:1 78:1 115:1 
0.4115157446174849 0 5:1 6:1 18:1 31:1 35:1 44:1 54:1 64:1 67:1 73:1 74:1 76:1 82:1 83:1 
0.2904719151339543 0.05893530978072289 2:1 7:1 17:1 19:1 39:1 41:1 50:1 64:1 67:1 73:1 74:1 76:1 80:1 83:1 
0.4617877722458925 0 2:1 6:1 17:1 20:1 37:1 40:1 57:1 63:1 67:1 73:1 74:1 76:1 80:1 119:1 
0.166661805215519 0 4:1 6:1 17:1 20:1 37:1 41:1 50:1 66:1 67:1 72:1 74:1 76:1 80:1 83:1 
0.4547285639253882 0.0570788126615695 3:1 6:1 18:1 24:1 38:1 41:1 51:1 64:1 67:1 72:1 74:1 76:1 82:1 83:1 
0.4611062600147766 0 3:1 6:1 16:1 21:1 35:1 42:1 48:1 62:1 67:1 73:1 75:1 76:1 80:1 83:1 
0.3073207193078814 0 1:1 6:1 15:1 25:1 38:1 42:1 50:1 64:1 71:1 72:1 74:1 76:1 79:1 83:1 
0.05473079161868323 0 5:1 6:1 14:1 20:1 37:1 41:1 49:1 64:1 67:1 72:1 74:1 76:1 78:1 83:1 
0.9366955573544193 0 3:1 10:1 17:1 24:1 38:1 40:1 52:1 63:1 67:1 73:1 74:1 76:1 82:1 83:1 
0.08803840499488533 0 2:1 6:1 18:1 20:1 37:1 42:1 55:1 62:1 67:1 73:1 74:1 76:1 78:1 83:1 
0.6474628057994923 0 5:1 14:1 31:1 35:1 40:1 63:1 69:1 73:1 75:1 76:1 78:1 83:1 
0.3040531495076752 0 5:1 15:1 20:1 37:1 41:1 64:1 71:1 73:1 74:1 76:1 82:1 83:1 
0.4865046845724462 0 2:1 6:1 18:1 22:1 36:1 40:1 49:1 63:1 67:1 73:1 74:1 76:1 80:1 83:1 
1 0 1:1 6:1 18:1 22:1 36:1 40:1 50:1 63:1 67:1 73:1 74:1 76:1 82:1 83:1 
0.2665132091595944 0 3:1 6:1 16:1 21:1 35:1 41:1 54:1 66:1 67:1 72:1 74:1 76:1 80:1 83:1 
0.3704979959820297 0 2:1 6:1 14:1 22:1 36:1 42:1 57:1 66:1 67:1 72:1 74:1 77:1 82:1 83:1 
0.405803183775505 0.05882613490061611 2:1 6:1 14:1 24:1 38:1 41:1 47:1 64:1 67:1 72:1 74:1 76:1 81:1 83:1 
0.3593786750353032 0 2:1 6:1 16:1 19:1 39:1 42:1 55:1 64:1 67:1 72:1 74:1 76:1 80:1 83:1 
0.2422446889802291 0.05630949614571955 1:1 6:1 14:1 20:1 37:1 41:1 52:1 66:1 67:1 72:1 74:1 76:1 79:1 83:1 
0.09878374361603468 0 3:1 6:1 17:1 22:1 36:1 42:1 48:1 64:1 67:1 73:1 74:1 76:1 82:1 83:1 
1 0 4:1 6:1 14:1 22:1 36:1 40:1 55:1 63:1 67:1 73:1 74:1 76:1 78:1 83:1 
1 0 3:1 10:1 14:1 20:1 37:1 40:1 59:1 63:1 67:1 73:1 74:1 76:1 82:1 83:1 
0.4316244788919369 0 4:1 6:1 15:1 34:1 35:1 40:1 49:1 63:1 67:1 73:1 74:1 76:1 80:1 
0.3350538149432169 0 1:1 10:1 14:1 20:1 37:1 42:1 49:1 64:1 67:1 72:1 74:1 77:1 80:1 83:1 
0.4572649485756647 0 3:1 6:1 14:1 33:1 35:1 45:1 49:1 66:1 68:1 72:1 74:1 76:1 80:1 98:1 
1 0 3:1 6:1 18:1 22:1 36:1 40:1 50:1 63:1 67:1 73:1 74:1 76:1 82:1 83:1 
1 0 3:1 6:1 16:1 22:1 36:1 40:1 54:1 63:1 67:1 73:1 74:1 76:1 80:1 83:1 
1 0 3:1 6:1 14:1 20:1 37:1 40:1 48:1 63:1 67:1 73:1 74:1 76:1 82:1 83:1 
0.6905015571750452 0 1:1 7:1 14:1 19:1 39:1 40:1 51:1 61:1 67:1 72:1 74:1 76:1 80:1 83:1 
0.09492357422840339 0 3:1 6:1 14:1 19:1 39:1 42:1 55:1 62:1 67:1 72:1 74:1 76:1 80:1 83:1 
0.3769029173832058 0 3:1 6:1 17:1 21:1 35:1 40:1 48:1 63:1 67:1 73:1 74:1 76:1 80:1 114:1 
0.3588031648758706 0 3:1 6:1 15:1 21:1 35:1 41:1 49:1 65:1 67:1 72:1 74:1 76:1 78:1 83:1 
0.2079529795085105 0 3:1 6:1 18:1 21:1 35:1 42:1 54:1 66:1 67:1 72:1 74:1 76:1 80:1 83:1 
1 0 3:1 6:1 15:1 22:1 36:1 40:1 48:1 63:1 67:1 73:1 74:1 76:1 80:1 83:1 
1 0 4:1 10:1 16:1 19:1 39:1 40:1 52:1 63:1 67:1 73:1 74:1 76:1 82:1 83:1 
0.4486634526997285 0 4:1 6:1 14:1 22:1 36:1 42:1 54:1 64:1 67:1 73:1 75:1 76:1 81:1 83:1 
1 0 5:1 7:1 14:1 20:1 37:1 40:1 56:1 63:1 67:1 73:1 74:1 76:1 82:1 83:1 
0.2622250206677531 0 2:1 6:1 16:1 29:1 39:1 42:1 52:1 64:1 67:1 73:1 74:1 76:1 80:1 83:1 
0.4544343736105305 0 3:1 10:1 14:1 20:1 37:1 43:1 55:1 66:1 69:1 72:1 74:1 76:1 80:1 83:1 
0.2340094611608945 0 2:1 6:1 17:1 24:1 38:1 42:1 55:1 64:1 67:1 72:1 74:1 76:1 81:1 83:1 
0.4020744593266349 0 2:1 6:1 17:1 24:1 38:1 42:1 54:1 66:1 71:1 72:1 74:1 76:1 80:1 83:1 
0.3682520660725586 0 2:1 6:1 16:1 22:1 36:1 40:1 48:1 63:1 67:1 73:1 74:1 76:1 82:1 83:1 
0.6659627047858552 0 5:1 10:1 14:1 20:1 37:1 40:1 57:1 63:1 67:1 73:1 74:1 76:1 80:1 83:1 
0.3655194262475334 0 2:1 10:1 16:1 19:1 39:1 42:1 52:1 62:1 71:1 72:1 74:1 76:1 79:1 83:1 
0.5563172782042433 0 3:1 9:1 18:1 29:1 39:1 42:1 47:1 64:1 67:1 72:1 74:1 76:1 80:1 83:1 
0.5598023959444454 0 3:1 6:1 18:1 24:1 38:1 42:1 51:1 66:1 67:1 73:1 74:1 76:1 82:1 83:1 
0.4570693813047213 0 3:1 6:1 17:1 21:1 35:1 40:1 50:1 63:1 67:1 73:1 74:1 76:1 78:1 
1 0 4:1 7:1 14:1 20:1 37:1 40:1 48:1 63:1 67:1 73:1 74:1 76:1 80:1 83:1 
1 0 4:1 6:1 17:1 22:1 36:1 40:1 54:1 63:1 67:1 73:1 74:1 76:1 80:1 83:1 
0.1174536619860768 0 1:1 6:1 16:1 26:1 35:1 42:1 54:1 62:1 67:1 73:1 74:1 76:1 80:1 83:1 
0.07484771076862187 0 1:1 6:1 15:1 20:1 37:1 42:1 52:1 64:1 67:1 72:1 74:1 76:1 78:1 83:1 
0.07997239357904366 0 4:1 6:1 17:1 20:1 37:1 41:1 55:1 66:1 67:1 72:1 74:1 76:1 80:1 83:1 
0.383082721210089 0.05567849131683245 5:1 11:1 18:1 22:1 36:1 41:1 49:1 62:1 71:1 73:1 74:1 76:1 80:1 83:1 
0.3648834319618792 0 5:1 6:1 14:1 24:1 38:1 41:1 48:1 64:1 71:1 73:1 74:1 76:1 81:1 83:1 
0.345585309242741 0 1:1 6:1 16:1 33:1 35:1 42:1 53:1 65:1 67:1 73:1 74:1 76:1 80:1 114:1 
0.2911977969175688 0 5:1 6:1 16:1 26:1 35:1 40:1 49:1 63:1 67:1 73:1 74:1 76:1 80:1 83:1 
0.4526145959861562 0 2:1 6:1 18:1 20:1 37:1 40:1 50:1 65:1 68:1 72:1 74:1 76:1 80:1 92:1 
0.1889409488216443 0 1:1 6:1 15:1 28:1 35:1 42:1 57:1 62:1 67:1 73:1 74:1 76:1 78:1 83:1 
0.3746498910312912 0 1:1 6:1 18:1 20:1 37:1 42:1 50:1 64:1 67:1 73:1 74:1 76:1 82:1 83:1 
0.3943947312416921 0 2:1 6:1 16:1 24:1 38:1 40:1 55:1 63:1 67:1 73:1 74:1 76:1 80:1 99:1 
0.3937907981329093 0 1:1 6:1 15:1 20:1 37:1 42:1 52:1 65:1 68:1 72:1 74:1 76:1 78:1 93:1 
0.0649948156512614 0 2:1 17:1 20:1 37:1 42:1 62:1 67:1 72:1 74:1 76:1 80:1 83:1 
1 0 3:1 6:1 14:1 25:1 38:1 40:1 55:1 63:1 67:1 73:1 74:1 76:1 80:1 83:1 
0.3691619849295699 0 4:1 6:1 16:1 31:1 35:1 40:1 56:1 63:1 71:1 73:1 74:1 76:1 80:1 83:1 
0.8903970559264144 0 5:1 7:1 15:1 22:1 36:1 40:1 57:1 63:1 67:1 73:1 74:1 76:1 82:1 83:1 
0.3140952283335073 0 5:1 14:1 33:1 35:1 40:1 63:1 67:1 73:1 74:1 76:1 80:1 83:1 
0.3909327278394363 0 2:1 6:1 17:1 19:1 39:1 42:1 53:1 66:1 67:1 73:1 74:1 76:1 79:1 83:1 
0.2334132781309001 0 2:1 18:1 22:1 36:1 41:1 66:1 71:1 72:1 74:1 76:1 78:1 83:1 
0.4136999537918749 0 4:1 7:1 15:1 33:1 35:1 40:1 48:1 63:1 67:1 73:1 74:1 76:1 80:1 83:1 
0.08264226951463431 0 3:1 6:1 16:1 22:1 36:1 41:1 49:1 62:1 67:1 73:1 74:1 76:1 80:1 83:1 
0.5527419056244264 0 4:1 10:1 18:1 19:1 39:1 42:1 52:1 62:1 67:1 73:1 74:1 76:1 82:1 83:1 
0.1454265211152822 0 2:1 6:1 16:1 20:1 37:1 42:1 54:1 64:1 67:1 72:1 74:1 76:1 80:1 83:1 
0.1749275430131505 0 3:1 6:1 14:1 22:1 36:1 40:1 49:1 63:1 67:1 73:1 74:1 76:1 80:1 83:1 
0.5478968019061163 0 1:1 11:1 17:1 20:1 37:1 40:1 55:1 63:1 71:1 73:1 74:1 76:1 79:1 83:1 
0.3112310262049505 0 2:1 6:1 17:1 22:1 36:1 43:1 48:1 66:1 71:1 73:1 74:1 76:1 80:1 83:1 
0.5558989306988342 0 5:1 6:1 18:1 22:1 36:1 40:1 54:1 61:1 67:1 72:1 75:1 76:1 80:1 119:1 
0.3169008142697933 0 4:1 14:1 20:1 37:1 41:1 64:1 69:1 72:1 74:1 76:1 79:1 83:1 
0.2569890476023342 0 1:1 6:1 14:1 26:1 35:1 42:1 49:1 66:1 67:1 72:1 74:1 76:1 78:1 83:1 
0.1058018395294152 0 1:1 6:1 17:1 28:1 35:1 42:1 49:1 62:1 67:1 73:1 74:1 76:1 78:1 83:1 
0.3774714282560822 0.05835372906874966 5:1 8:1 14:1 22:1 36:1 45:1 50:1 64:1 67:1 73:1 74:1 76:1 82:1 83:1 
0.2346679032178808 0 1:1 14:1 21:1 35:1 42:1 62:1 71:1 72:1 74:1 76:1 80:1 83:1 
0.3683194349534758 0.05982668807608611 5:1 6:1 16:1 24:1 38:1 42:1 52:1 65:1 67:1 72:1 74:1 76:1 78:1 83:1 
0.4060655102585627 0 3:1 11:1 18:1 20:1 37:1 42:1 57:1 62:1 71:1 73:1 74:1 76:1 80:1 83:1 
0.3195277132097297 0 3:1 6:1 17:1 22:1 36:1 42:1 57:1 62:1 67:1 73:1 74:1 77:1 80:1 83:1 
0.3939188870112967 0 5:1 11:1 14:1 29:1 39:1 41:1 52:1 64:1 67:1 72:1 74:1 76:1 79:1 83:1 
0.5379774426581251 0 5:1 7:1 18:1 31:1 35:1 40:1 50:1 63:1 67:1 73:1 74:1 76:1 79:1 83:1 
1 0 5:1 6:1 16:1 22:1 36:1 40:1 54:1 63:1 67:1 73:1 75:1 76:1 81:1 83:1 
0.4742545293500718 0.05096620964762877 4:1 10:1 16:1 27:1 35:1 45:1 49:1 64:1 67:1 72:1 74:1 76:1 79:1 86:1 
0.4751600474196835 0 3:1 6:1 14:1 20:1 37:1 43:1 49:1 64:1 67:1 72:1 75:1 76:1 82:1 83:1 
0.6406389204588321 0 5:1 7:1 14:1 22:1 36:1 44:1 56:1 64:1 67:1 73:1 74:1 76:1 82:1 83:1 
0.848581430809327 0 4:1 6:1 14:1 20:1 37:1 40:1 48:1 63:1 67:1 73:1 74:1 76:1 82:1 83:1 
0.838166215097735 0 3:1 6:1 18:1 25:1 38:1 40:1 56:1 63:1 67:1 73:1 74:1 76:1 82:1 83:1 
0.44774483013098 0.1024330580551431 4:1 6:1 16:1 22:1 36:1 41:1 57:1 62:1 67:1 73:1 74:1 76:1 82:1 83:1 
0.3006407423791609 0 2:1 10:1 16:1 20:1 37:1 42:1 49:1 62:1 67:1 72:1 74:1 76:1 78:1 83:1 
0.3276992733946288 0 1:1 6:1 14:1 19:1 39:1 42:1 51:1 64:1 67:1 72:1 74:1 76:1 78:1 83:1 
0.5504421619537001 0 5:1 11:1 14:1 19:1 39:1 45:1 52:1 64:1 67:1 73:1 75:1 76:1 80:1 83:1 
0.9033905950552612 0.05504653879665126 4:1 10:1 15:1 22:1 36:1 40:1 59:1 63:1 67:1 73:1 74:1 76:1 82:1 83:1 
1 0 3:1 6:1 15:1 25:1 38:1 40:1 48:1 63:1 67:1 73:1 74:1 76:1 80:1 83:1 
0.534771622114492 0.0531392189847282 4:1 6:1 15:1 24:1 38:1 43:1 51:1 64:1 67:1 73:1 74:1 76:1 80:1 83:1 
1 0.05233724049791999 2:1 6:1 15:1 32:1 39:1 40:1 52:1 61:1 67:1 72:1 74:1 76:1 82:1 83:1 
0.7108161337553391 0 5:1 6:1 14:1 20:1 37:1 40:1 51:1 61:1 67:1 72:1 74:1 76:1 81:1 83:1 
0.2440378564294962 0 2:1 6:1 18:1 22:1 36:1 41:1 48:1 66:1 67:1 73:1 74:1 76:1 79:1 83:1 
1 0 5:1 8:1 15:1 22:1 36:1 40:1 50:1 63:1 67:1 73:1 74:1 76:1 82:1 83:1 
0.05689260833469987 0 1:1 6:1 15:1 20:1 37:1 42:1 53:1 62:1 67:1 73:1 74:1 76:1 78:1 83:1 
0.2425858551502821 0 1:1 11:1 17:1 19:1 39:1 42:1 52:1 62:1 67:1 72:1 74:1 76:1 78:1 83:1 
1 0 5:1 18:1 22:1 36:1 40:1 63:1 67:1 73:1 74:1 76:1 78:1 83:1 
0.3207507882090315 0 1:1 6:1 18:1 22:1 36:1 42:1 48:1 62:1 67:1 73:1 75:1 76:1 80:1 83:1 
0.6519275037669131 0 1:1 6:1 16:1 31:1 35:1 40:1 49:1 63:1 67:1 73:1 75:1 76:1 80:1 83:1 
1 0 5:1 18:1 22:1 36:1 40:1 63:1 67:1 73:1 74:1 76:1 80:1 83:1 
0.3620820091628293 0 5:1 14:1 27:1 35:1 41:1 64:1 67:1 73:1 74:1 76:1 78:1 83:1 
0.3490277366907342 0 5:1 16:1 30:1 35:1 44:1 64:1 71:1 72:1 74:1 76:1 80:1 83:1 
0.3320883889397466 0 2:1 6:1 14:1 22:1 36:1 42:1 55:1 64:1 67:1 73:1 74:1 76:1 82:1 103:1 
0.4741123911253078 0 2:1 6:1 14:1 22:1 36:1 40:1 53:1 63:1 69:1 73:1 74:1 76:1 78:1 83:1 
0.2215587189628179 0 2:1 6:1 16:1 22:1 36:1 43:1 55:1 62:1 67:1 72:1 74:1 76:1 80:1 83:1 
0.1957411205766995 0 2:1 6:1 17:1 26:1 35:1 40:1 54:1 63:1 67:1 73:1 74:1 76:1 80:1 83:1 
1 0 5:1 10:1 14:1 22:1 36:1 40:1 57:1 63:1 67:1 73:1 74:1 76:1 80:1 83:1 
1 0 3:1 6:1 15:1 22:1 36:1 40:1 54:1 63:1 67:1 73:1 74:1 76:1 80:1 83:1 
0.3370883132941469 0 5:1 17:1 21:1 35:1 44:1 65:1 67:1 72:1 74:1 76:1 78:1 83:1 
0.3636293642734361 0 5:1 10:1 17:1 20:1 37:1 41:1 49:1 66:1 71:1 72:1 74:1 76:1 80:1 83:1 
0.2557974699668567 0 4:1 15:1 22:1 36:1 41:1 64:1 71:1 72:1 74:1 76:1 78:1 83:1 
0.4983111047009404 0 4:1 6:1 14:1 21:1 35:1 40:1 49:1 61:1 67:1 72:1 74:1 76:1 80:1 83:1 
0.3835357337884496 0 1:1 10:1 17:1 19:1 39:1 42:1 52:1 64:1 71:1 72:1 74:1 76:1 80:1 83:1 
0.4413859050527494 0 3:1 6:1 15:1 22:1 36:1 40:1 48:1 65:1 69:1 73:1 74:1 76:1 80:1 83:1 
0.342099565718448 0 5:1 6:1 16:1 31:1 35:1 41:1 55:1 66:1 67:1 72:1 74:1 76:1 82:1 83:1 
0.4237873180435186 0 3:1 6:1 18:1 19:1 39:1 42:1 49:1 64:1 67:1 73:1 74:1 76:1 79:1 83:1 
1 0 4:1 6:1 17:1 22:1 36:1 40:1 48:1 63:1 71:1 73:1 74:1 76:1 80:1 83:1 
0.8223962710107509 0 3:1 6:1 18:1 19:1 39:1 42:1 51:1 64:1 67:1 72:1 75:1 76:1 82:1 83:1 
0.3381934785750664 0 2:1 6:1 17:1 22:1 36:1 43:1 51:1 64:1 67:1 73:1 74:1 76:1 80:1 
0.4271777919662517 0 5:1 6:1 18:1 28:1 35:1 40:1 48:1 63:1 67:1 73:1 74:1 76:1 80:1 112:1 
0.5044011574235445 0 3:1 6:1 15:1 19:1 39:1 44:1 51:1 66:1 67:1 72:1 74:1 76:1 80:1 83:1 
0.05361416564172762 0 2:1 6:1 14:1 20:1 37:1 42:1 47:1 64:1 67:1 72:1 74:1 76:1 80:1 83:1 
0.1664260395738051 0 5:1 6:1 14:1 27:1 35:1 44:1 49:1 64:1 67:1 72:1 74:1 76:1 78:1 83:1 
0.836036523815398 0 5:1 6:1 17:1 20:1 37:1 40:1 50:1 63:1 67:1 73:1 74:1 76:1 78:1 83:1 
1 0 3:1 6:1 14:1 20:1 37:1 40:1 49:1 63:1 67:1 73:1 74:1 76:1 80:1 83:1 
0.6347617994047162 0 4:1 6:1 15:1 31:1 35:1 40:1 57:1 63:1 67:1 73:1 74:1 76:1 82:1 83:1 
1 0 2:1 6:1 18:1 22:1 36:1 40:1 53:1 63:1 67:1 73:1 74:1 76:1 80:1 83:1 
1 0 3:1 6:1 16:1 19:1 39:1 40:1 48:1 63:1 67:1 73:1 74:1 76:1 80:1 83:1 
0.1003944797497179 0 1:1 14:1 22:1 36:1 42:1 62:1 67:1 72:1 74:1 76:1 82:1 83:1 
0.40535630000712 0 3:1 6:1 17:1 26:1 35:1 40:1 53:1 63:1 67:1 73:1 74:1 76:1 80:1 83:1 
0.755759131123675 0 3:1 6:1 16:1 24:1 38:1 40:1 59:1 63:1 71:1 73:1 74:1 76:1 82:1 83:1 
0.4523041140445443 0 4:1 8:1 17:1 27:1 35:1 40:1 48:1 63:1 67:1 73:1 74:1 76:1 80:1 
1 0 4:1 17:1 22:1 36:1 40:1 63:1 67:1 73:1 74:1 76:1 80:1 83:1 
0.4063325453061906 0 1:1 6:1 18:1 28:1 35:1 42:1 52:1 64:1 68:1 72:1 74:1 76:1 78:1 117:1 
0.2853126747866989 0 3:1 6:1 15:1 20:1 37:1 42:1 49:1 64:1 67:1 73:1 74:1 77:1 80:1 83:1 
1 0 2:1 6:1 18:1 19:1 39:1 40:1 51:1 63:1 67:1 73:1 74:1 76:1 82:1 83:1 
0.1911252684536956 0 1:1 6:1 17:1 22:1 36:1 42:1 57:1 62:1 71:1 73:1 74:1 76:1 78:1 83:1 
0.3814043060978882 0 1:1 6:1 17:1 34:1 35:1 42:1 49:1 64:1 68:1 72:1 74:1 76:1 80:1 108:1 
0.469598522218826 0.07008342919372959 3:1 6:1 17:1 22:1 36:1 41:1 47:1 62:1 67:1 73:1 74:1 76:1 81:1 83:1 
0.3780924953921521 0 3:1 6:1 18:1 20:1 37:1 41:1 51:1 64:1 67:1 73:1 74:1 76:1 80:1 83:1 
0.4253110375295183 0 1:1 8:1 16:1 19:1 39:1 42:1 51:1 62:1 68:1 73:1 74:1 76:1 79:1 110:1 
0.5216704204098197 0 2:1 7:1 14:1 29:1 39:1 42:1 52:1 64:1 67:1 73:1 74:1 76:1 81:1 85:1 
0.4371131594473926 0 4:1 6:1 14:1 22:1 36:1 41:1 49:1 64:1 67:1 73:1 74:1 77:1 80:1 83:1 
1 0 3:1 6:1 17:1 24:1 38:1 40:1 51:1 63:1 67:1 73:1 74:1 76:1 80:1 86:1 
0.07308654699296663 0 4:1 6:1 18:1 33:1 35:1 40:1 54:1 63:1 67:1 73:1 74:1 76:1 80:1 103:1 
0.3262687160172821 0 3:1 6:1 14:1 25:1 38:1 41:1 50:1 66:1 67:1 72:1 74:1 76:1 80:1 83:1 
0.6881661427579187 0 3:1 10:1 18:1 22:1 36:1 40:1 49:1 63:1 67:1 73:1 74:1 76:1 80:1 83:1 
0.1453235468497244 0 1:1 6:1 14:1 28:1 35:1 42:1 55:1 64:1 67:1 72:1 74:1 76:1 80:1 83:1 
0.2667003086081002 0 4:1 11:1 17:1 19:1 39:1 41:1 55:1 64:1 67:1 73:1 74:1 76:1 80:1 83:1 
0.3048488665728338 0 5:1 6:1 17:1 22:1 36:1 45:1 51:1 66:1 67:1 72:1 74:1 76:1 78:1 83:1 
0.145707129888488 0 2:1 6:1 18:1 19:1 39:1 42:1 52:1 64:1 67:1 73:1 74:1 76:1 82:1 83:1 
0.5283553006025515 0.05913812073171623 4:1 6:1 16:1 20:1 37:1 41:1 50:1 66:1 67:1 73:1 74:1 76:1 82:1 83:1 
0.3108137464728821 0 3:1 6:1 14:1 29:1 39:1 42:1 49:1 64:1 67:1 72:1 74:1 76:1 78:1 83:1 
0.3260572569766256 0 1:1 6:1 15:1 21:1 35:1 42:1 57:1 65:1 67:1 73:1 74:1 76:1 80:1 114:1 
0.6729051918588578 0 2:1 6:1 15:1 20:1 37:1 40:1 53:1 63:1 67:1 73:1 74:1 76:1 80:1 100:1 
0.3542752698187701 0.05016868365830016 4:1 10:1 17:1 22:1 36:1 43:1 49:1 66:1 71:1 72:1 74:1 76:1 80:1 83:1 
0.6105439907073373 0.07001028108232973 4:1 7:1 16:1 22:1 36:1 40:1 48:1 63:1 67:1 73:1 74:1 76:1 82:1 85:1 
0.4208315505498068 0 2:1 6:1 18:1 19:1 39:1 42:1 47:1 64:1 71:1 72:1 74:1 76:1 80:1 106:1 
0.4448603508874438 0 5:1 15:1 22:1 36:1 42:1 64:1 67:1 73:1 74:1 77:1 79:1 83:1 
0.4259327758388118 0 2:1 6:1 15:1 33:1 35:1 40:1 54:1 63:1 67:1 73:1 75:1 76:1 80:1 103:1 
0.366095215899339 0 5:1 6:1 17:1 22:1 36:1 44:1 54:1 66:1 71:1 72:1 74:1 76:1 81:1 83:1 
0.1272257076601792 0 1:1 6:1 18:1 21:1 35:1 42:1 52:1 62:1 67:1 73:1 74:1 76:1 80:1 83:1 
1 0 4:1 10:1 17:1 22:1 36:1 40:1 57:1 63:1 71:1 73:1 74:1 76:1 80:1 83:1 
0.2140973501092277 0 3:1 6:1 14:1 24:1 38:1 42:1 55:1 64:1 67:1 72:1 74:1 76:1 80:1 83:1 
0.350988333405804 0 4:1 6:1 16:1 22:1 36:1 41:1 47:1 66:1 71:1 72:1 74:1 76:1 79:1 83:1 
1 0 5:1 18:1 22:1 36:1 40:1 63:1 71:1 73:1 74:1 76:1 80:1 83:1 
0.2247961477124026 0 5:1 6:1 16:1 22:1 36:1 44:1 53:1 64:1 67:1 72:1 74:1 76:1 80:1 83:1 
0.6006729312858765 0 4:1 6:1 14:1 29:1 39:1 44:1 52:1 64:1 67:1 72:1 75:1 76:1 82:1 83:1 
0.5794191123532582 0 5:1 16:1 22:1 36:1 40:1 63:1 67:1 73:1 75:1 76:1 78:1 83:1 
0.5057596093076554 0 5:1 6:1 16:1 21:1 35:1 40:1 54:1 63:1 67:1 73:1 74:1 76:1 80:1 83:1 
0.2042609675725315 0 1:1 18:1 20:1 37:1 42:1 62:1 67:1 72:1 74:1 77:1 80:1 83:1 
0.3744740629452963 0 2:1 6:1 14:1 31:1 35:1 45:1 55:1 66:1 67:1 72:1 74:1 76:1 80:1 103:1 
0.3480755622483772 0 5:1 7:1 15:1 31:1 35:1 40:1 56:1 63:1 67:1 73:1 74:1 76:1 80:1 83:1 
0.3397473897843841 0 4:1 7:1 15:1 20:1 37:1 41:1 55:1 66:1 67:1 72:1 74:1 76:1 79:1 83:1 
0.1962177648417123 0 1:1 6:1 15:1 20:1 37:1 42:1 50:1 62:1 71:1 72:1 74:1 76:1 78:1 83:1 
1 0 5:1 6:1 18:1 19:1 39:1 40:1 52:1 63:1 67:1 73:1 74:1 76:1 82:1 83:1 
0.3068372186456134 0 3:1 6:1 16:1 24:1 38:1 41:1 48:1 64:1 67:1 73:1 74:1 76:1 80:1 83:1 
0.4048722062035349 0 4:1 6:1 16:1 22:1 36:1 40:1 48:1 63:1 68:1 73:1 74:1 76:1 80:1 110:1 
0.09691338768598141 0 5:1 6:1 16:1 20:1 37:1 41:1 49:1 64:1 67:1 72:1 74:1 76:1 80:1 83:1 
1 0 2:1 8:1 14:1 19:1 39:1 40:1 50:1 63:1 67:1 73:1 74:1 76:1 80:1 83:1 
1 0 5:1 10:1 14:1 19:1 39:1 40:1 52:1 61:1 67:1 72:1 74:1 76:1 80:1 83:1 
0.1882159487203384 0 4:1 6:1 16:1 22:1 36:1 41:1 55:1 64:1 67:1 72:1 74:1 76:1 78:1 83:1 
0.09372599402509101 0 1:1 6:1 15:1 31:1 35:1 42:1 50:1 62:1 67:1 72:1 74:1 76:1 78:1 83:1 
0.2082172562162806 0 1:1 6:1 18:1 25:1 38:1 42:1 55:1 64:1 67:1 72:1 74:1 76:1 80:1 83:1 
0.2397377966463861 0 5:1 6:1 18:1 27:1 35:1 41:1 54:1 66:1 67:1 72:1 74:1 76:1 80:1 83:1 
0.4139665878396004 0 4:1 6:1 14:1 27:1 35:1 42:1 49:1 62:1 67:1 73:1 74:1 76:1 82:1 83:1 
0.5853343304379862 0 3:1 11:1 14:1 20:1 37:1 40:1 51:1 63:1 67:1 73:1 74:1 76:1 79:1 83:1 
0.3525138917896402 0 3:1 11:1 15:1 22:1 36:1 41:1 52:1 64:1 67:1 73:1 74:1 76:1 80:1 83:1 
0.9184352774599026 0 3:1 6:1 14:1 19:1 39:1 40:1 50:1 61:1 67:1 73:1 74:1 76:1 82:1 
0.1687284198676602 0 1:1 6:1 16:1 20:1 37:1 42:1 55:1 64:1 67:1 72:1 74:1 76:1 81:1 83:1 
0.09011751380655066 0 4:1 6:1 15:1 22:1 36:1 41:1 55:1 64:1 67:1 73:1 74:1 76:1 78:1 83:1 
0.3697642053980844 0 5:1 9:1 14:1 22:1 36:1 42:1 55:1 64:1 71:1 72:1 74:1 76:1 80:1 83:1 
0.2325343679334515 0 1:1 6:1 16:1 24:1 38:1 42:1 50:1 62:1 67:1 73:1 74:1 76:1 78:1 83:1 
0.5651403058160905 0 3:1 11:1 17:1 29:1 39:1 40:1 52:1 63:1 68:1 73:1 74:1 76:1 78:1 90:1 
1 0 3:1 6:1 18:1 22:1 36:1 40:1 48:1 63:1 67:1 73:1 74:1 76:1 80:1 83:1 
0.6223272862003143 0 4:1 6:1 17:1 19:1 39:1 41:1 51:1 64:1 67:1 73:1 74:1 76:1 79:1 83:1 
0.2259292557288202 0 3:1 6:1 16:1 20:1 37:1 42:1 48:1 62:1 67:1 72:1 74:1 76:1 78:1 83:1 
0.1615104590995394 0 2:1 15:1 22:1 36:1 43:1 66:1 67:1 72:1 74:1 76:1 80:1 83:1 
0.07253478770220756 0 5:1 17:1 22:1 36:1 44:1 64:1 67:1 72:1 74:1 76:1 78:1 83:1 
0.456084696798879 0 2:1 6:1 17:1 21:1 35:1 43:1 56:1 65:1 67:1 73:1 74:1 76:1 80:1 86:1 
0.180097705414648 0 1:1 10:1 16:1 20:1 37:1 42:1 55:1 64:1 67:1 72:1 74:1 76:1 80:1 83:1 
0.6126532891374313 0 2:1 8:1 15:1 22:1 36:1 40:1 50:1 63:1 67:1 73:1 74:1 76:1 82:1 83:1 
1 0 5:1 6:1 14:1 22:1 36:1 40:1 51:1 63:1 67:1 73:1 74:1 76:1 82:1 83:1 
1 0 3:1 6:1 15:1 22:1 36:1 40:1 50:1 63:1 67:1 73:1 74:1 76:1 82:1 83:1 
0.08354017515547864 0 3:1 6:1 18:1 20:1 37:1 42:1 57:1 64:1 67:1 73:1 74:1 76:1 80:1 83:1 
0.1593877761485725 0 4:1 6:1 18:1 27:1 35:1 40:1 54:1 63:1 67:1 73:1 74:1 76:1 80:1 83:1 
0.2086310147732435 0 4:1 6:1 17:1 22:1 36:1 43:1 53:1 64:1 67:1 73:1 74:1 76:1 80:1 83:1 
0.2680109097288667 0 4:1 11:1 16:1 20:1 37:1 41:1 55:1 64:1 67:1 72:1 74:1 76:1 80:1 83:1 
0.6255668616781879 0 4:1 6:1 18:1 22:1 36:1 40:1 57:1 63:1 67:1 73:1 75:1 76:1 81:1 83:1 
0.2966100581258305 0 5:1 6:1 16:1 22:1 36:1 41:1 59:1 64:1 67:1 73:1 74:1 76:1 80:1 83:1 
0.5128637352534151 0 5:1 10:1 18:1 19:1 39:1 44:1 52:1 64:1 71:1 72:1 74:1 77:1 78:1 83:1 
0.4048410306133629 0 5:1 6:1 16:1 27:1 35:1 44:1 49:1 64:1 67:1 72:1 74:1 76:1 78:1 88:1 
0.1543872042663428 0 1:1 6:1 16:1 22:1 36:1 42:1 50:1 62:1 67:1 72:1 74:1 76:1 79:1 83:1 
0.2599370618910993 0.05918330373155326 1:1 7:1 14:1 22:1 36:1 42:1 48:1 62:1 67:1 73:1 74:1 76:1 80:1 83:1 
0.4908936822559439 0 2:1 7:1 15:1 19:1 39:1 41:1 48:1 64:1 67:1 73:1 74:1 76:1 82:1 83:1 
0.1101758234145083 0 5:1 6:1 17:1 22:1 36:1 41:1 55:1 66:1 67:1 72:1 74:1 76:1 80:1 83:1 
0.4186333854134263 0 2:1 6:1 15:1 22:1 36:1 42:1 55:1 66:1 71:1 72:1 75:1 76:1 79:1 83:1 
0.4565320165598023 0 1:1 6:1 17:1 20:1 37:1 40:1 54:1 63:1 67:1 73:1 74:1 76:1 80:1 83:1 
0.7678997842715716 0 5:1 7:1 17:1 22:1 36:1 40:1 56:1 63:1 67:1 73:1 74:1 76:1 80:1 83:1 
0.09951207283520118 0 1:1 6:1 18:1 22:1 36:1 42:1 53:1 62:1 69:1 73:1 74:1 76:1 80:1 83:1 
0.5208922152951939 0 2:1 6:1 17:1 20:1 37:1 40:1 47:1 61:1 67:1 72:1 74:1 76:1 80:1 83:1 
0.1230472477603339 0 3:1 6:1 17:1 20:1 37:1 42:1 49:1 64:1 67:1 72:1 74:1 76:1 78:1 83:1 
0.2656459431127768 0 3:1 6:1 18:1 33:1 35:1 40:1 48:1 63:1 67:1 73:1 74:1 76:1 80:1 103:1 
0.2931206268803713 0 2:1 9:1 18:1 20:1 37:1 42:1 47:1 64:1 67:1 73:1 74:1 76:1 80:1 83:1 
0.4879952983483639 0 5:1 7:1 14:1 19:1 39:1 44:1 50:1 66:1 67:1 72:1 74:1 76:1 78:1 83:1 
0.4735000798673334 0 5:1 6:1 17:1 19:1 39:1 43:1 55:1 66:1 67:1 72:1 74:1 76:1 80:1 83:1 
0.3583775795202082 0 4:1 6:1 16:1 20:1 37:1 44:1 52:1 66:1 67:1 72:1 74:1 76:1 80:1 83:1 
0.08900513264441083 0 4:1 6:1 15:1 20:1 37:1 41:1 55:1 66:1 67:1 72:1 74:1 76:1 79:1 83:1 
0.4205702267835716 0 5:1 6:1 16:1 27:1 35:1 40:1 48:1 63:1 71:1 73:1 74:1 76:1 80:1 83:1 
1 0 5:1 6:1 16:1 29:1 39:1 40:1 53:1 63:1 67:1 73:1 74:1 76:1 81:1 83:1 
0.7436411123519623 0 5:1 10:1 14:1 20:1 37:1 40:1 59:1 63:1 67:1 73:1 75:1 76:1 81:1 83:1 
0.4035658731745538 0 2:1 6:1 15:1 21:1 35:1 42:1 48:1 64:1 68:1 73:1 74:1 76:1 80:1 90:1 
0.6830390909009282 0 2:1 6:1 15:1 22:1 36:1 40:1 57:1 63:1 67:1 73:1 74:1 76:1 80:1 83:1 
0.3307540107205887 0 4:1 10:1 18:1 20:1 37:1 41:1 59:1 66:1 67:1 72:1 74:1 76:1 80:1 83:1 
0.3045276829903291 0 2:1 6:1 18:1 22:1 36:1 40:1 57:1 63:1 67:1 73:1 75:1 76:1 81:1 83:1 
0.3866817831863647 0 1:1 6:1 18:1 31:1 35:1 42:1 53:1 65:1 67:1 73:1 74:1 77:1 81:1 83:1 
0.2938213971433216 0 3:1 11:1 14:1 29:1 39:1 41:1 55:1 64:1 67:1 72:1 74:1 76:1 80:1 83:1 
0.2434724416276853 0 2:1 6:1 17:1 20:1 37:1 43:1 53:1 64:1 67:1 73:1 74:1 76:1 80:1 83:1 
0.4205660338113278 0 5:1 6:1 17:1 26:1 35:1 42:1 53:1 62:1 67:1 73:1 74:1 76:1 80:1 119:1 
0.3761481008121719 0 3:1 6:1 16:1 20:1 37:1 41:1 51:1 64:1 67:1 73:1 74:1 76:1 79:1 83:1 
0.9473978060768878 0 4:1 11:1 15:1 20:1 37:1 40:1 51:1 63:1 67:1 73:1 74:1 77:1 80:1 83:1 
0.3357872542977732 0 2:1 6:1 17:1 22:1 36:1 42:1 48:1 64:1 67:1 73:1 74:1 77:1 79:1 83:1 
0.1963243702373212 0 1:1 11:1 17:1 19:1 39:1 42:1 47:1 64:1 67:1 72:1 74:1 76:1 80:1 83:1 
1 0 2:1 6:1 17:1 22:1 36:1 40:1 57:1 63:1 67:1 73:1 74:1 76:1 82:1 83:1 
0.1729513287281583 0 2:1 6:1 18:1 20:1 37:1 42:1 48:1 66:1 67:1 73:1 74:1 76:1 82:1 83:1 
1 0 5:1 6:1 17:1 22:1 36:1 40:1 49:1 63:1 67:1 73:1 74:1 76:1 80:1 83:1 
0.1285211125207963 0 2:1 6:1 17:1 22:1 36:1 42:1 53:1 64:1 67:1 73:1 74:1 76:1 81:1 83:1 
0.1499184132609457 0 3:1 11:1 14:1 20:1 37:1 42:1 49:1 62:1 67:1 73:1 74:1 76:1 80:1 83:1 
0.2567794343134858 0 4:1 6:1 18:1 22:1 36:1 40:1 49:1 63:1 71:1 73:1 74:1 76:1 80:1 83:1 
0.1384304655608694 0 1:1 6:1 18:1 24:1 38:1 42:1 55:1 64:1 67:1 72:1 74:1 76:1 78:1 83:1 
0.3132555136532298 0 5:1 7:1 17:1 22:1 36:1 40:1 56:1 63:1 67:1 73:1 74:1 76:1 78:1 83:1 
0.3492103393506725 0 3:1 6:1 16:1 21:1 35:1 40:1 48:1 63:1 67:1 73:1 74:1 76:1 79:1 83:1 
0.5209639451621739 0 4:1 10:1 15:1 29:1 39:1 41:1 52:1 64:1 69:1 73:1 74:1 76:1 80:1 83:1 
0.1772305070615028 0 1:1 6:1 17:1 20:1 37:1 42:1 47:1 66:1 67:1 72:1 74:1 76:1 78:1 83:1 
0.9244901170845018 0 4:1 6:1 17:1 20:1 37:1 40:1 51:1 63:1 67:1 73:1 74:1 76:1 80:1 86:1 
0.1876881867261111 0 3:1 7:1 14:1 22:1 36:1 40:1 57:1 63:1 67:1 73:1 74:1 76:1 82:1 83:1 
0.5221248427757699 0 3:1 6:1 18:1 19:1 39:1 41:1 51:1 64:1 67:1 73:1 74:1 77:1 80:1 83:1 
0.2723089573693382 0 3:1 6:1 17:1 22:1 36:1 41:1 57:1 64:1 67:1 73:1 74:1 76:1 82:1 83:1 
1 0 5:1 10:1 17:1 22:1 36:1 40:1 59:1 63:1 67:1 73:1 75:1 76:1 80:1 83:1 
1 0 2:1 6:1 16:1 22:1 36:1 40:1 54:1 63:1 67:1 73:1 74:1 76:1 80:1 83:1 
0.868702240126487 0 4:1 6:1 14:1 25:1 38:1 40:1 49:1 63:1 67:1 73:1 74:1 76:1 81:1 83:1 
0.08178837481182052 0 2:1 6:1 17:1 22:1 36:1 42:1 57:1 64:1 67:1 72:1 74:1 76:1 80:1 83:1 
0.6120904524012851 0 3:1 6:1 17:1 20:1 37:1 40:1 53:1 63:1 71:1 73:1 74:1 76:1 80:1 83:1 
0.599253172270752 0 3:1 6:1 18:1 29:1 39:1 42:1 51:1 66:1 67:1 73:1 74:1 76:1 80:1 83:1 
1 0 2:1 6:1 18:1 20:1 37:1 40:1 57:1 63:1 67:1 73:1 74:1 76:1 82:1 83:1 
0.2984860147560792 0 3:1 6:1 18:1 26:1 35:1 40:1 56:1 63:1 67:1 73:1 74:1 76:1 82:1 103:1 
0.6302808098082935 0 2:1 7:1 14:1 19:1 39:1 42:1 51:1 64:1 67:1 73:1 74:1 76:1 82:1 83:1 
0.2443619339102301 0 1:1 6:1 15:1 22:1 36:1 42:1 48:1 62:1 71:1 73:1 74:1 76:1 82:1 83:1 
0.1663936377746317 0 3:1 18:1 21:1 35:1 42:1 64:1 67:1 72:1 74:1 76:1 80:1 83:1 
0.3130235435006506 0 1:1 6:1 15:1 20:1 37:1 42:1 48:1 65:1 68:1 72:1 74:1 76:1 80:1 102:1 
0.1564710279417642 0 1:1 6:1 17:1 19:1 39:1 42:1 55:1 62:1 67:1 72:1 74:1 76:1 79:1 83:1 
1 0 2:1 6:1 17:1 22:1 36:1 40:1 55:1 63:1 67:1 73:1 74:1 76:1 79:1 83:1 
0.2625880542422755 0 1:1 7:1 14:1 20:1 37:1 42:1 47:1 64:1 67:1 73:1 74:1 76:1 78:1 83:1 
1 0 2:1 6:1 17:1 21:1 35:1 40:1 53:1 63:1 67:1 73:1 75:1 76:1 80:1 83:1 
0.1369761078720771 0 1:1 17:1 21:1 35:1 42:1 62:1 71:1 73:1 74:1 76:1 78:1 83:1 
0.4245064016898319 0.05688242737637732 5:1 8:1 15:1 22:1 36:1 42:1 50:1 65:1 67:1 73:1 74:1 76:1 80:1 
0.2895895626662242 0 4:1 6:1 18:1 27:1 35:1 41:1 50:1 64:1 67:1 72:1 74:1 76:1 80:1 83:1 
0.4589695415376213 0 2:1 18:1 20:1 37:1 40:1 61:1 67:1 72:1 74:1 76:1 78:1 83:1 
0.1133126652023011 0 2:1 6:1 18:1 31:1 35:1 40:1 57:1 63:1 67:1 73:1 74:1 76:1 80:1 83:1 
0.08156472254009738 0 1:1 6:1 15:1 22:1 36:1 42:1 53:1 62:1 71:1 73:1 74:1 76:1 78:1 83:1 
0.2980153985338747 0 3:1 7:1 14:1 19:1 39:1 42:1 49:1 64:1 67:1 72:1 74:1 76:1 78:1 83:1 
0.2691920683652425 0 3:1 18:1 25:1 38:1 42:1 62:1 67:1 73:1 74:1 76:1 78:1 83:1 
0.1560828999852071 0 3:1 6:1 16:1 22:1 36:1 42:1 53:1 64:1 71:1 73:1 74:1 76:1 80:1 83:1 
1 0 4:1 6:1 16:1 29:1 39:1 40:1 52:1 63:1 67:1 73:1 74:1 76:1 80:1 83:1 
0.4360347146829142 0 5:1 6:1 17:1 29:1 39:1 41:1 52:1 64:1 67:1 73:1 74:1 76:1 78:1 83:1 
0.275362758398824 0 3:1 6:1 17:1 22:1 36:1 41:1 48:1 66:1 67:1 73:1 74:1 76:1 80:1 83:1 
0.5439432215791804 0 2:1 6:1 18:1 19:1 39:1 42:1 55:1 64:1 67:1 73:1 74:1 76:1 82:1 83:1 
0.3361715897762917 0.05772194186338558 1:1 11:1 15:1 24:1 38:1 42:1 52:1 64:1 67:1 73:1 74:1 76:1 78:1 83:1 
0.3984501476700832 0 4:1 6:1 14:1 25:1 38:1 42:1 48:1 64:1 67:1 73:1 74:1 76:1 78:1 83:1 
0.4227092847649649 0.07465487754853487 4:1 7:1 14:1 22:1 36:1 41:1 51:1 66:1 67:1 72:1 74:1 76:1 82:1 83:1 
0.5497164874823803 0 3:1 6:1 15:1 20:1 37:1 40:1 48:1 63:1 67:1 73:1 74:1 76:1 80:1 83:1 
0.5314811640416128 0.06192187882158926 4:1 8:1 15:1 19:1 39:1 41:1 51:1 64:1 67:1 72:1 74:1 76:1 82:1 83:1 
0.4436827217957567 0.05910973085436326 1:1 8:1 16:1 22:1 36:1 40:1 50:1 63:1 67:1 73:1 74:1 76:1 82:1 
0.1595174966196616 0 1:1 6:1 18:1 24:1 38:1 42:1 52:1 64:1 67:1 72:1 74:1 76:1 80:1 83:1 
1 0 4:1 6:1 18:1 22:1 36:1 40:1 54:1 63:1 67:1 73:1 74:1 76:1 80:1 83:1 
0.5828969239762293 0 2:1 11:1 18:1 19:1 39:1 40:1 52:1 63:1 67:1 73:1 74:1 76:1 78:1 83:1 
0.3409822984085574 0 3:1 6:1 15:1 20:1 37:1 43:1 49:1 66:1 71:1 72:1 74:1 76:1 78:1 83:1 
0.3073387437256835 0 3:1 6:1 18:1 20:1 37:1 41:1 48:1 64:1 67:1 72:1 74:1 76:1 79:1 83:1 
0.1408699849698611 0 4:1 6:1 16:1 27:1 35:1 40:1 49:1 63:1 67:1 73:1 74:1 76:1 80:1 
0.4605272428222736 0 3:1 6:1 16:1 19:1 39:1 42:1 50:1 64:1 67:1 72:1 74:1 77:1 80:1 83:1 
0.4630922190900094 0 2:1 6:1 16:1 29:1 39:1 42:1 52:1 64:1 68:1 73:1 74:1 76:1 78:1 90:1 
0.3064519843393733 0 5:1 6:1 15:1 22:1 36:1 43:1 57:1 64:1 67:1 73:1 74:1 76:1 78:1 83:1 
0.4759808362168038 0 5:1 11:1 17:1 19:1 39:1 41:1 55:1 64:1 71:1 72:1 74:1 76:1 79:1 83:1 
1 0 5:1 7:1 14:1 22:1 36:1 40:1 56:1 63:1 67:1 73:1 75:1 76:1 80:1 83:1 
0.06166560043782822 0 2:1 6:1 17:1 22:1 36:1 42:1 55:1 64:1 67:1 72:1 74:1 76:1 82:1 83:1 
0.220214376439015 0 2:1 6:1 15:1 20:1 37:1 40:1 49:1 61:1 67:1 72:1 74:1 76:1 80:1 83:1 
0.3697191901917065 0 2:1 8:1 14:1 19:1 39:1 42:1 50:1 64:1 67:1 73:1 74:1 76:1 82:1 83:1 
0.1919706273620813 0 3:1 6:1 16:1 22:1 36:1 41:1 53:1 65:1 67:1 73:1 74:1 76:1 80:1 83:1 
0.6867840750640294 0.05821545406965318 4:1 7:1 15:1 24:1 38:1 40:1 48:1 63:1 67:1 73:1 74:1 77:1 82:1 83:1 
0.6052892943597553 0 2:1 6:1 16:1 22:1 36:1 40:1 48:1 63:1 67:1 73:1 74:1 76:1 81:1 83:1 
0.08515426330359567 0 1:1 6:1 18:1 24:1 38:1 42:1 55:1 64:1 67:1 73:1 74:1 76:1 80:1 83:1 
0.4486001256112799 0.06075169010298807 1:1 10:1 15:1 24:1 38:1 42:1 55:1 62:1 71:1 72:1 74:1 76:1 79:1 83:1 
0.6842967907207181 0 3:1 6:1 16:1 19:1 39:1 40:1 52:1 63:1 71:1 73:1 74:1 76:1 82:1 
0.0949917020323353 0 3:1 7:1 15:1 22:1 36:1 40:1 57:1 63:1 67:1 73:1 74:1 76:1 78:1 83:1 
0.4267788096609848 0 4:1 11:1 14:1 19:1 39:1 41:1 55:1 66:1 67:1 72:1 74:1 76:1 80:1 83:1 
0.41228227204252 0 5:1 6:1 15:1 22:1 36:1 40:1 49:1 61:1 67:1 72:1 74:1 76:1 78:1 83:1 
0.1002258295853338 0 2:1 18:1 22:1 36:1 41:1 64:1 67:1 73:1 74:1 76:1 80:1 83:1 
0.2367700796160916 0 1:1 6:1 14:1 20:1 37:1 41:1 53:1 62:1 67:1 73:1 74:1 76:1 80:1 83:1 
0.4758293276983966 0 3:1 6:1 16:1 19:1 39:1 44:1 52:1 66:1 67:1 72:1 74:1 76:1 81:1 83:1 
0.2507597794461998 0 3:1 6:1 16:1 22:1 36:1 41:1 57:1 66:1 67:1 73:1 74:1 76:1 81:1 83:1 
1 0 2:1 7:1 17:1 22:1 36:1 40:1 48:1 63:1 67:1 73:1 74:1 76:1 80:1 83:1 
0.4944478435645235 0 5:1 6:1 17:1 20:1 37:1 40:1 50:1 63:1 67:1 73:1 74:1 76:1 80:1 83:1 
0.06131214353298193 0 5:1 6:1 16:1 22:1 36:1 41:1 49:1 64:1 67:1 72:1 74:1 76:1 80:1 83:1 
0.3748385165727688 0 5:1 8:1 17:1 20:1 37:1 44:1 50:1 64:1 67:1 72:1 74:1 76:1 82:1 83:1 
0.4149338737345616 0 5:1 7:1 14:1 24:1 38:1 41:1 47:1 64:1 67:1 73:1 74:1 76:1 80:1 83:1 
0.1734555761655063 0 1:1 6:1 17:1 22:1 36:1 42:1 56:1 62:1 67:1 73:1 74:1 76:1 81:1 83:1 
0.2935871005302833 0 2:1 6:1 15:1 26:1 35:1 40:1 56:1 63:1 71:1 73:1 74:1 76:1 80:1 83:1 
0.2262453939521473 0 1:1 6:1 14:1 21:1 35:1 42:1 55:1 65:1 67:1 72:1 74:1 76:1 80:1 83:1 
0.2380296084406102 0 2:1 6:1 17:1 22:1 36:1 40:1 57:1 62:1 67:1 73:1 74:1 76:1 80:1 83:1 
0.3675418796172339 0 3:1 6:1 16:1 27:1 35:1 40:1 47:1 63:1 67:1 73:1 74:1 76:1 80:1 103:1 
0.6023941407466085 0 2:1 8:1 17:1 19:1 39:1 40:1 48:1 63:1 67:1 73:1 74:1 76:1 82:1 87:1 
0.8246583380567261 0 1:1 6:1 18:1 22:1 36:1 40:1 48:1 63:1 67:1 73:1 74:1 76:1 80:1 83:1 
0.2651432574296549 0 1:1 6:1 18:1 25:1 38:1 42:1 50:1 64:1 71:1 72:1 74:1 76:1 78:1 83:1 
1 0 3:1 11:1 15:1 19:1 39:1 40:1 50:1 63:1 67:1 73:1 74:1 76:1 80:1 83:1 
0.4773844813315417 0.05663928426559978 4:1 10:1 16:1 19:1 39:1 41:1 52:1 66:1 71:1 72:1 74:1 76:1 78:1 83:1 
0.3522126368786741 0 4:1 10:1 16:1 22:1 36:1 40:1 48:1 63:1 67:1 73:1 74:1 76:1 80:1 83:1 
0.3012383303867617 0 4:1 6:1 15:1 22:1 36:1 41:1 54:1 66:1 67:1 73:1 74:1 76:1 79:1 83:1 
1 0 2:1 6:1 16:1 22:1 36:1 40:1 54:1 62:1 67:1 73:1 74:1 76:1 80:1 83:1 
1 0 5:1 6:1 16:1 22:1 36:1 40:1 57:1 63:1 67:1 73:1 74:1 76:1 82:1 83:1 
1 0 5:1 6:1 14:1 19:1 39:1 40:1 47:1 63:1 67:1 73:1 74:1 76:1 80:1 83:1 
0.07179364235714088 0 1:1 15:1 21:1 35:1 42:1 62:1 67:1 72:1 74:1 76:1 78:1 83:1 
0.7868524612315854 0 4:1 7:1 17:1 25:1 38:1 40:1 52:1 63:1 67:1 73:1 74:1 76:1 78:1 83:1 
0.4210764835407643 0 5:1 6:1 18:1 26:1 35:1 40:1 49:1 63:1 71:1 73:1 74:1 76:1 81:1 83:1 
0.3129668336587462 0 4:1 6:1 17:1 33:1 35:1 40:1 54:1 63:1 67:1 73:1 74:1 76:1 80:1 
0.5297505782079593 0 5:1 11:1 17:1 27:1 35:1 40:1 49:1 61:1 71:1 72:1 74:1 76:1 80:1 83:1 
0.39482563548903 0 2:1 6:1 15:1 22:1 36:1 40:1 54:1 61:1 67:1 72:1 74:1 76:1 80:1 83:1 
0.1644095548836576 0 3:1 6:1 14:1 22:1 36:1 41:1 55:1 66:1 71:1 72:1 74:1 76:1 80:1 83:1 
0.4201532726271958 1 4:1 7:1 17:1 22:1 36:1 41:1 50:1 62:1 67:1 73:1 74:1 76:1 82:1 
0.1104714691780786 0.05591153839566369 1:1 6:1 18:1 22:1 36:1 42:1 48:1 65:1 71:1 73:1 74:1 76:1 80:1 83:1 
0.4431150540150394 1 4:1 10:1 15:1 24:1 38:1 41:1 52:1 66:1 67:1 72:1 74:1 76:1 82:1 83:1 
-1.12398061803179 0 5:1 11:1 15:1 32:1 39:1 40:1 52:1 63:1 67:1 73:1 74:1 76:1 78:1 83:1 
-1.065227527028759 0 5:1 18:1 19:1 39:1 40:1 63:1 67:1 73:1 74:1 76:1 80:1 83:1 
-1.816070623502658 0 5:1 6:1 14:1 27:1 35:1 42:1 57:1 64:1 67:1 73:1 74:1 76:1 82:1 83:1 
-1.614546279020376 0 3:1 6:1 17:1 19:1 39:1 42:1 50:1 64:1 70:1 72:1 74:1 76:1 82:1 83:1 
-1.491216313592107 0 4:1 6:1 14:1 29:1 39:1 42:1 47:1 64:1 67:1 73:1 74:1 76:1 79:1 83:1 
-2.00934978421183 0 5:1 6:1 15:1 22:1 36:1 40:1 49:1 63:1 67:1 73:1 74:1 76:1 80:1 83:1 
-1.434463438342893 0.05859486361041578 3:1 6:1 16:1 21:1 35:1 40:1 54:1 63:1 67:1 73:1 75:1 76:1 81:1 83:1 
-0.7637656689035731 0 5:1 6:1 16:1 32:1 39:1 40:1 52:1 63:1 67:1 73:1 74:1 77:1 82:1 83:1 
-1.246219200886531 0.05912086074463542 5:1 7:1 18:1 19:1 39:1 40:1 50:1 63:1 67:1 73:1 74:1 76:1 80:1 87:1 
-0.705740418260742 0 4:1 6:1 15:1 19:1 39:1 40:1 48:1 63:1 67:1 73:1 75:1 76:1 80:1 83:1 
-0.8470502732813632 0 4:1 7:1 17:1 29:1 39:1 40:1 51:1 63:1 67:1 73:1 74:1 76:1 81:1 83:1 
-1.32291203653246 0 5:1 6:1 15:1 22:1 36:1 40:1 50:1 63:1 67:1 73:1 74:1 76:1 82:1 83:1 
-1.578759529304864 0 5:1 6:1 15:1 20:1 37:1 40:1 57:1 63:1 67:1 73:1 74:1 76:1 78:1 83:1 
-1 0 3:1 6:1 17:1 22:1 36:1 40:1 51:1 63:1 67:1 73:1 74:1 76:1 80:1 83:1 
-1.789641141716834 0 3:1 6:1 18:1 22:1 36:1 40:1 51:1 63:1 67:1 73:1 74:1 76:1 82:1 83:1 
-2.78165347888277 0 2:1 6:1 18:1 22:1 36:1 40:1 50:1 63:1 67:1 73:1 74:1 76:1 82:1 83:1 
-1.17919174717806 0 4:1 6:1 16:1 19:1 39:1 40:1 52:1 61:1 67:1 72:1 75:1 76:1 78:1 83:1 
-1.064576525695454 0 2:1 6:1 16:1 20:1 37:1 40:1 47:1 63:1 67:1 73:1 75:1 76:1 80:1 83:1 
-1.49586194885705 0 4:1 6:1 16:1 22:1 36:1 40:1 49:1 61:1 71:1 72:1 74:1 76:1 80:1 83:1 
-1.436315163345328 0 4:1 6:1 14:1 20:1 37:1 40:1 47:1 63:1 67:1 73:1 74:1 76:1 78:1 83:1 
-1 0 5:1 10:1 16:1 29:1 39:1 40:1 52:1 63:1 67:1 73:1 74:1 76:1 80:1 83:1 
-1 0 3:1 7:1 18:1 19:1 39:1 40:1 50:1 63:1 67:1 73:1 74:1 76:1 81:1 83:1 
-0.3380719227987757 0 3:1 6:1 17:1 19:1 39:1 40:1 52:1 63:1 67:1 73:1 75:1 76:1 82:1 83:1 
-0.8669006093769134 0 5:1 9:1 14:1 22:1 36:1 40:1 51:1 63:1 67:1 73:1 75:1 76:1 80:1 83:1 
-2.206509643879231 0 2:1 6:1 14:1 22:1 36:1 40:1 48:1 63:1 67:1 73:1 74:1 76:1 80:1 83:1 
-0.05192738518203354 0 3:1 6:1 17:1 19:1 39:1 40:1 51:1 63:1 67:1 73:1 75:1 76:1 80:1 83:1 
-1.504841971195609 0 5:1 10:1 17:1 21:1 35:1 40:1 48:1 63:1 71:1 73:1 74:1 76:1 80:1 83:1 
-1.54120709489493 0 4:1 6:1 15:1 22:1 36:1 40:1 50:1 63:1 67:1 73:1 74:1 76:1 82:1 83:1 
-1.194664396858083 0 5:1 6:1 17:1 25:1 38:1 40:1 51:1 63:1 67:1 73:1 74:1 76:1 80:1 88:1 
-0.7507217743531729 0 3:1 6:1 17:1 29:1 39:1 40:1 52:1 63:1 67:1 73:1 74:1 76:1 79:1 83:1 
-1.600870543138158 0.06186697379531805 2:1 10:1 18:1 32:1 39:1 42:1 52:1 64:1 67:1 73:1 74:1 76:1 82:1 103:1 
-1.657382490798638 0 4:1 6:1 16:1 22:1 36:1 40:1 48:1 63:1 67:1 73:1 75:1 76:1 81:1 83:1 
-0.865922167984251 0 4:1 11:1 16:1 19:1 39:1 40:1 51:1 63:1 67:1 73:1 75:1 76:1 80:1 83:1 
-1.325244253150669 0 5:1 7:1 18:1 19:1 39:1 40:1 47:1 61:1 67:1 72:1 74:1 76:1 82:1 83:1 
-1.611564214025911 0 4:1 6:1 17:1 20:1 37:1 40:1 48:1 63:1 71:1 73:1 74:1 76:1 80:1 83:1 
-0.7625711635254512 0 3:1 6:1 16:1 29:1 39:1 40:1 50:1 63:1 67:1 73:1 74:1 76:1 82:1 83:1 
-1.405803183775505 0 5:1 6:1 16:1 19:1 39:1 41:1 51:1 64:1 71:1 73:1 75:1 76:1 80:1 83:1 
-1.804249434244345 0 3:1 6:1 14:1 20:1 37:1 40:1 47:1 63:1 67:1 73:1 74:1 76:1 82:1 83:1 
-1.744612690103931 0 3:1 6:1 14:1 22:1 36:1 40:1 57:1 63:1 67:1 73:1 75:1 76:1 82:1 83:1 
-0.5163640101641062 0 4:1 6:1 17:1 19:1 39:1 40:1 52:1 63:1 67:1 73:1 74:1 77:1 80:1 83:1 
-1.188876409237693 0 4:1 6:1 14:1 25:1 38:1 40:1 50:1 63:1 67:1 73:1 74:1 77:1 82:1 83:1 
-1.563422798002865 0 5:1 16:1 20:1 37:1 40:1 61:1 67:1 72:1 74:1 76:1 81:1 83:1 
-0.6689994229607118 0 5:1 6:1 14:1 22:1 36:1 40:1 53:1 63:1 67:1 73:1 74:1 76:1 80:1 83:1 
-1.24649159508913 0 5:1 6:1 16:1 19:1 39:1 43:1 51:1 64:1 67:1 73:1 75:1 76:1 81:1 83:1 
-1.191125268453696 0 4:1 6:1 17:1 22:1 36:1 40:1 47:1 63:1 67:1 73:1 74:1 76:1 81:1 83:1 
-1.485394039952765 0.06190388637966258 5:1 6:1 15:1 24:1 38:1 40:1 51:1 61:1 71:1 72:1 74:1 76:1 80:1 83:1 
-1.480493680692267 0.0586768870040529 2:1 10:1 15:1 19:1 39:1 42:1 52:1 64:1 71:1 73:1 75:1 76:1 81:1 
-0.7623618380716937 0 5:1 7:1 14:1 22:1 36:1 40:1 51:1 63:1 67:1 73:1 75:1 76:1 82:1 83:1 
-0.8272486845477794 0 4:1 8:1 15:1 19:1 39:1 40:1 50:1 63:1 67:1 73:1 74:1 76:1 82:1 83:1 
-1.85756738264789 0.06416414943984974 3:1 8:1 17:1 22:1 36:1 40:1 48:1 63:1 67:1 73:1 74:1 76:1 82:1 
-1.23426347226114 0 4:1 6:1 18:1 20:1 37:1 40:1 57:1 63:1 67:1 73:1 74:1 76:1 82:1 83:1 
-1.273647342628357 0 3:1 6:1 17:1 22:1 36:1 40:1 54:1 63:1 67:1 73:1 74:1 76:1 82:1 83:1 
-0.973149345705869 0 5:1 10:1 15:1 19:1 39:1 40:1 52:1 63:1 67:1 73:1 74:1 77:1 80:1 83:1 
-1.236375209080091 0 3:1 10:1 17:1 29:1 39:1 40:1 52:1 61:1 67:1 72:1 74:1 76:1 80:1 83:1 
-1.295318570779829 0 1:1 6:1 16:1 19:1 39:1 40:1 51:1 61:1 67:1 72:1 74:1 76:1 78:1 83:1 
-0.9891342182211026 0 3:1 11:1 14:1 29:1 39:1 40:1 52:1 63:1 67:1 73:1 75:1 76:1 79:1 83:1 
-1 0 4:1 6:1 15:1 20:1 37:1 40:1 50:1 63:1 67:1 73:1 75:1 76:1 80:1 83:1 
-0.9562354202531739 0 4:1 6:1 15:1 29:1 39:1 40:1 47:1 63:1 67:1 73:1 74:1 76:1 78:1 83:1 
-1.817068712367695 0 2:1 6:1 15:1 20:1 37:1 40:1 56:1 63:1 67:1 73:1 74:1 76:1 82:1 83:1 
-1 0 3:1 6:1 15:1 20:1 37:1 40:1 51:1 63:1 67:1 73:1 75:1 76:1 80:1 83:1 
-1.491865693945006 0 3:1 6:1 17:1 20:1 37:1 40:1 55:1 61:1 67:1 72:1 74:1 76:1 79:1 83:1 
-0.822069665211762 0 5:1 6:1 16:1 32:1 39:1 40:1 51:1 63:1 67:1 73:1 74:1 76:1 80:1 83:1 
-1 0 3:1 7:1 14:1 19:1 39:1 40:1 52:1 63:1 67:1 73:1 74:1 76:1 82:1 83:1 
-1.512127183078528 0.06215864894257579 5:1 7:1 14:1 27:1 35:1 45:1 55:1 64:1 67:1 73:1 74:1 76:1 78:1 99:1 
