svm_type c_svc
kernel_type rbf
gamma 0.1
nr_class 2
total_sv 214
rho 2.6972
label 1 -1
nr_sv 7 207
SV
25.74969414841727 1:0.357893 2:0.0792079 3:0.296515 4:0.392436 5:0.172349 6:0.296281 7:0.260359 8:0.196051 9:0.0668693 10:0.151753 
9.71338022328375 1:0.521083 2:0.0871287 3:0.329165 4:0.473939 5:0.191421 6:0.341135 7:0.287405 8:0.271828 9:0.24 10:0.0880426 
14.84608628056182 1:0.492357 2:0.0891089 3:0.309982 4:0.470821 5:0.252835 6:0.321882 7:0.352993 8:0.303634 9:0.571429 10:0.170812 
100 1:0.769894 2:0.0831683 3:0.536145 4:0.404688 5:0.135217 6:0.342192 7:0.227558 8:0.189226 9:0.0954401 10:0.0624158 
20.59500514167037 1:0.709478 2:0.0871287 3:0.484943 4:0.432403 5:0.179857 6:0.34289 7:0.275966 8:0.194005 9:0.0954401 10:0.0814506 
5.266541258727703 1:0.764072 2:0.0891089 3:0.522074 4:0.38414 5:0.15216 6:0.278334 7:0.243598 8:0.168088 9:0.571429 10:0.111432 
29.9791358041615 1:0.601085 2:0.0929487 3:0.288962 4:0.48211 5:0.144327 6:0.539141 7:0.173518 8:0.205122 9:0.261364 10:0.316695 
-1 1:0.609726 2:0.0929487 3:0.27731 4:0.511811 5:0.163068 6:0.567724 7:0.190694 8:0.24672 9:0.261364 10:0.0135767 
-1 1:0.573869 2:0.0929487 3:0.254007 4:0.444833 5:0.155956 6:0.47865 7:0.184176 8:0.226848 9:0.261364 10:0.0172648 
-1 1:0.638475 2:0.0929487 3:0.295953 4:0.451126 5:0.147007 6:0.492364 7:0.175974 8:0.205111 9:0.261364 10:0.0438519 
-1 1:0.513736 2:0.0929487 3:0.237694 4:0.555379 5:0.143562 6:0.655401 7:0.172816 8:0.233126 9:0.261364 10:0.0415811 
-1 1:0.526387 2:0.0929487 3:0.247016 4:0.448574 5:0.145509 6:0.50473 7:0.174601 8:0.222478 9:0.096828 10:0.0521107 
-1 1:0.619763 2:0.0929487 3:0.27731 4:0.496984 5:0.187439 6:0.523831 7:0.21303 8:0.256736 9:0.096828 10:0.120621 
-1 1:0.613637 2:0.0929487 3:0.295953 4:0.444895 5:0.155538 6:0.466824 7:0.183793 8:0.225238 9:0.096828 10:0.0919888 
-1 1:0.590643 2:0.0929487 3:0.267989 4:0.493878 5:0.160606 6:0.550622 7:0.188437 8:0.214362 9:0.096828 10:0.120889 
-1 1:0.505894 2:0.0929487 3:0.20507 4:0.518783 5:0.197352 6:0.531135 7:0.222116 8:0.279594 9:0.096828 10:0.136908 
-1 1:0.579679 2:0.0929487 3:0.260998 4:0.432049 5:0.15309 6:0.454132 7:0.181549 8:0.202345 9:0.571429 10:0.0898605 
-1 1:0.680456 2:0.0929487 3:0.326247 4:0.447077 5:0.189298 6:0.445073 7:0.214734 8:0.261867 9:0.571429 10:0.0521107 
-1 1:0.626889 2:0.0929487 3:0.300614 4:0.517211 5:0.194133 6:0.584477 7:0.219166 8:0.279337 9:0.571429 10:0.0940582 
-1 1:0.640241 2:0.0929487 3:0.307605 4:0.531379 5:0.178937 6:0.57322 7:0.205238 8:0.273136 9:0.571429 10:0.112029 
-1 1:0.558007 2:0.0929487 3:0.244685 4:0.414668 5:0.146609 6:0.394674 7:0.175609 8:0.222676 9:0.571429 10:0.080227 
-1 1:0.636061 2:0.0929487 3:0.284301 4:0.525898 5:0.227202 6:0.535454 7:0.249473 8:0.30404 9:0.0592255 10:0.164128 
-1 1:0.586208 2:0.0929487 3:0.258667 4:0.434165 5:0.137681 6:0.477372 7:0.167426 8:0.200728 9:0.0592255 10:0.133877 
-1 1:0.600808 2:0.0929487 3:0.272649 4:0.513908 5:0.177393 6:0.566868 7:0.203823 8:0.248967 9:0.0592255 10:0.177906 
-1 1:0.597178 2:0.0913462 3:0.269574 4:0.538086 5:0.189091 6:0.575129 7:0.214545 8:0.283085 9:0.0592255 10:0.130971 
-1 1:0.548923 2:0.0929487 3:0.237694 4:0.487186 5:0.158431 6:0.48192 7:0.186444 8:0.228205 9:0.0592255 10:0.110584 
-1 1:0.553932 2:0.0929487 3:0.235364 4:0.462245 5:0.166057 6:0.487611 7:0.193433 8:0.236124 9:0.0516001 10:0.155951 
-1 1:0.54953 2:0.0929487 3:0.240025 4:0.523735 5:0.175292 6:0.573823 7:0.201898 8:0.265684 9:0.0516001 10:0.190676 
-1 1:0.614342 2:0.0929487 3:0.270319 4:0.48152 5:0.179547 6:0.499831 7:0.205798 8:0.251847 9:0.0516001 10:0.234232 
-1 1:0.539656 2:0.0929487 3:0.223712 4:0.5454 5:0.223479 6:0.603955 7:0.246062 8:0.295737 9:0.0516001 10:0.100323 
-1 1:0.573685 2:0.0929487 3:0.265658 4:0.477063 5:0.131889 6:0.494949 7:0.162118 8:0.208976 9:0.0516001 10:0.227306 
-1 1:0.64881 2:0.100962 3:0.256337 4:0.49408 5:0.179527 6:0.582365 7:0.208164 8:0.251659 9:0.261364 10:0.0944792 
-1 1:0.699908 2:0.100962 3:0.326247 4:0.505884 5:0.178279 6:0.601615 7:0.206699 8:0.249925 9:0.261364 10:0.288355 
-1 1:0.665808 2:0.100962 3:0.286631 4:0.430976 5:0.130852 6:0.459099 7:0.161715 8:0.193741 9:0.261364 10:0.256687 
-1 1:0.675427 2:0.100962 3:0.295953 4:0.40065 5:0.165408 6:0.393747 7:0.194318 8:0.222047 9:0.261364 10:0.173201 
-1 1:0.701354 2:0.099359 3:0.293016 4:0.548408 5:0.194985 6:0.610634 7:0.222181 8:0.270171 9:0.261364 10:0.118761 
-1 1:0.699805 2:0.099359 3:0.302392 4:0.479701 5:0.199406 6:0.504402 7:0.223742 8:0.268512 9:0.096828 10:0.202326 
-1 1:0.615719 2:0.099359 3:0.262542 4:0.454921 5:0.163026 6:0.462684 7:0.189119 8:0.23707 9:0.096828 10:0.0535008 
-1 1:0.695748 2:0.100962 3:0.312265 4:0.539456 5:0.193665 6:0.618906 7:0.222041 8:0.274906 9:0.096828 10:0.0235463 
-1 1:0.692511 2:0.099359 3:0.283639 4:0.532842 5:0.198823 6:0.601097 7:0.223192 8:0.271984 9:0.096828 10:0.0910927 
-1 1:0.668504 2:0.100962 3:0.284301 4:0.474029 5:0.169167 6:0.546125 7:0.194843 8:0.2323 9:0.096828 10:0.0405742 
-1 1:0.642138 2:0.100962 3:0.263328 4:0.481646 5:0.153627 6:0.499177 7:0.184266 8:0.246206 9:0.571429 10:0.146989 
-1 1:0.669671 2:0.099359 3:0.278951 4:0.523249 5:0.168742 6:0.581542 7:0.195223 8:0.239195 9:0.571429 10:0.0914287 
-1 1:0.668758 2:0.100962 3:0.267989 4:0.473802 5:0.163542 6:0.518385 7:0.193621 8:0.227713 9:0.571429 10:0.0139115 
-1 1:0.703319 2:0.100962 3:0.302944 4:0.498073 5:0.199367 6:0.52061 7:0.223833 8:0.270112 9:0.571429 10:0.0480781 
-1 1:0.645958 2:0.099359 3:0.25551 4:0.469563 5:0.16105 6:0.50964 7:0.187676 8:0.226772 9:0.571429 10:0.169851 
-1 1:0.693137 2:0.100962 3:0.298283 4:0.505831 5:0.201033 6:0.546044 7:0.227728 8:0.282824 9:0.0687482 10:0.0237703 
-1 1:0.585117 2:0.099359 3:0.229724 4:0.436841 5:0.120045 6:0.4969 7:0.150657 8:0.164735 9:0.0687482 10:0.21644 
-1 1:0.687839 2:0.100962 3:0.286631 4:0.474655 5:0.163861 6:0.526035 7:0.192078 8:0.236722 9:0.0687482 10:0.186867 
-1 1:0.630057 2:0.100962 3:0.247016 4:0.521881 5:0.158726 6:0.578507 7:0.189077 8:0.248594 9:0.0687482 10:0.263823 
-1 1:0.666162 2:0.099359 3:0.264886 4:0.456845 5:0.159517 6:0.486477 7:0.187983 8:0.244063 9:0.0687482 10:0.0817952 
-1 1:0.628113 2:0.100962 3:0.258667 4:0.480532 5:0.163168 6:0.539708 7:0.192812 8:0.236839 9:0.0687482 10:0.143961 
-1 1:0.69342 2:0.100962 3:0.307605 4:0.471349 5:0.170573 6:0.51085 7:0.199799 8:0.247597 9:0.0687482 10:0.0723858 
-1 1:0.668202 2:0.0977564 3:0.268821 4:0.44113 5:0.182398 6:0.485591 7:0.21112 8:0.233213 9:0.0687482 10:0.106012 
-1 1:0.62791 2:0.100962 3:0.254007 4:0.484277 5:0.159278 6:0.518254 7:0.189142 8:0.239891 9:0.0687482 10:0.192468 
-1 1:0.710146 2:0.100962 3:0.316926 4:0.446406 5:0.197594 6:0.451617 7:0.225663 8:0.278417 9:0.0687482 10:0.0564786 
-1 1:0.73173 2:0.0929487 3:0.361202 4:0.4566 5:0.132814 6:0.509148 7:0.162966 8:0.205193 9:0.261364 10:0.205145 
-1 1:0.761351 2:0.0929487 3:0.389166 4:0.452149 5:0.138014 6:0.472832 7:0.167732 8:0.188531 9:0.261364 10:0.136236 
-1 1:0.768806 2:0.0929487 3:0.405479 4:0.476964 5:0.133066 6:0.527868 7:0.163197 8:0.187484 9:0.261364 10:0.257438 
-1 1:0.774807 2:0.0929487 3:0.403148 4:0.485694 5:0.157503 6:0.511863 7:0.185594 8:0.221798 9:0.261364 10:0.157407 
-1 1:0.753049 2:0.0913462 3:0.379748 4:0.410158 5:0.168184 6:0.418048 7:0.195383 8:0.220758 9:0.261364 10:0.245116 
-1 1:0.734615 2:0.0929487 3:0.375184 4:0.468802 5:0.13977 6:0.496957 7:0.169341 8:0.1964 9:0.096828 10:0.175106 
-1 1:0.799796 2:0.0929487 3:0.442764 4:0.488173 5:0.149756 6:0.604233 7:0.178493 8:0.19962 9:0.096828 10:0.0711536 
-1 1:0.770243 2:0.0929487 3:0.405479 4:0.39099 5:0.114774 6:0.39963 7:0.146432 8:0.164283 9:0.096828 10:0.0957974 
-1 1:0.785122 2:0.0929487 3:0.419461 4:0.463831 5:0.142181 6:0.504674 7:0.171551 8:0.195145 9:0.096828 10:0.249485 
-1 1:0.734425 2:0.0929487 3:0.368193 4:0.418251 5:0.121614 6:0.490556 7:0.152701 8:0.176403 9:0.096828 10:0.0511886 
-1 1:0.759171 2:0.0929487 3:0.410139 4:0.404627 5:0.132547 6:0.419234 7:0.162721 8:0.172248 9:0.571429 10:0.162336 
-1 1:0.79362 2:0.0929487 3:0.435773 4:0.469954 5:0.14769 6:0.533327 7:0.1766 8:0.203281 9:0.571429 10:0.0329558 
-1 1:0.788213 2:0.0929487 3:0.421791 4:0.535365 5:0.170453 6:0.619302 7:0.197462 8:0.250916 9:0.571429 10:0.0895244 
-1 1:0.807918 2:0.0929487 3:0.459076 4:0.495147 5:0.135976 6:0.555834 7:0.165864 8:0.223258 9:0.571429 10:0.209495 
-1 1:0.805636 2:0.0929487 3:0.461407 4:0.42668 5:0.141275 6:0.443546 7:0.17072 8:0.204412 9:0.571429 10:0.0322837 
-1 1:0.776259 2:0.0929487 3:0.4148 4:0.493886 5:0.148695 6:0.589624 7:0.177521 8:0.206518 9:0.0592255 10:0.2431 
-1 1:0.781403 2:0.0929487 3:0.424121 4:0.466681 5:0.160103 6:0.494216 7:0.187977 8:0.234622 9:0.0592255 10:0.0849317 
-1 1:0.741467 2:0.0929487 3:0.370524 4:0.474124 5:0.139265 6:0.561199 7:0.168878 8:0.18505 9:0.0592255 10:0.0132381 
-1 1:0.810702 2:0.0929487 3:0.470728 4:0.561731 5:0.211065 6:0.615852 7:0.234684 8:0.272161 9:0.0592255 10:0.182275 
-1 1:0.798441 2:0.0929487 3:0.463737 4:0.444996 5:0.132037 6:0.497144 7:0.162254 8:0.183454 9:0.0592255 10:0.258782 
-1 1:0.791783 2:0.0929487 3:0.447425 4:0.44748 5:0.166382 6:0.460472 7:0.193731 8:0.214996 9:0.0516001 10:0.246797 
-1 1:0.784353 2:0.0929487 3:0.428782 4:0.45844 5:0.139794 6:0.475832 7:0.169363 8:0.209341 9:0.0516001 10:0.327673 
-1 1:0.735999 2:0.0929487 3:0.361202 4:0.414869 5:0.121008 6:0.45375 7:0.152145 8:0.176341 9:0.0516001 10:0.223273 
-1 1:0.768071 2:0.0929487 3:0.398488 4:0.448547 5:0.13538 6:0.466793 7:0.165318 8:0.186769 9:0.0516001 10:0.271328 
-1 1:0.800622 2:0.0929487 3:0.442764 4:0.455984 5:0.14359 6:0.489831 7:0.172842 8:0.208301 9:0.0516001 10:0.0293712 
-1 1:0.812037 2:0.099359 3:0.377404 4:0.431125 5:0.170543 6:0.458591 7:0.199701 8:0.217485 9:0.261364 10:0.347948 
-1 1:0.819587 2:0.099359 3:0.384437 4:0.459974 5:0.136017 6:0.479274 7:0.166459 8:0.200613 9:0.261364 10:0.133659 
-1 1:0.834923 2:0.100962 3:0.452085 4:0.420534 5:0.138804 6:0.476679 7:0.169743 8:0.183188 9:0.261364 10:0.0952406 
-1 1:0.752228 2:0.099359 3:0.339898 4:0.429298 5:0.10969 6:0.471493 7:0.141695 8:0.172838 9:0.261364 10:0.14897 
-1 1:0.850125 2:0.099359 3:0.428975 4:0.458272 5:0.134328 6:0.507215 7:0.164944 8:0.206325 9:0.261364 10:0.15343 
-1 1:0.816204 2:0.0977564 3:0.386725 4:0.50957 5:0.129667 6:0.591581 7:0.157627 8:0.189806 9:0.096828 10:0.20367 
-1 1:0.863748 2:0.100962 3:0.445094 4:0.515155 5:0.174511 6:0.569029 7:0.200544 8:0.243328 9:0.096828 10:0.0724978 
-1 1:0.857636 2:0.100962 3:0.447425 4:0.534131 5:0.183876 6:0.618941 7:0.208854 8:0.256857 9:0.096828 10:0.322184 
-1 1:0.775555 2:0.100962 3:0.34489 4:0.374391 5:0.0947282 6:0.386661 7:0.128697 8:0.149294 9:0.096828 10:0.231338 
-1 1:0.871335 2:0.0977564 3:0.462184 4:0.494061 5:0.165903 6:0.554538 7:0.195879 8:0.226443 9:0.096828 10:0.132427 
-1 1:0.832118 2:0.0977564 3:0.407948 4:0.419108 5:0.134698 6:0.460831 7:0.162798 8:0.188403 9:0.571429 10:0.188625 
-1 1:0.850895 2:0.100962 3:0.426452 4:0.502503 5:0.145449 6:0.565591 7:0.172726 8:0.207066 9:0.571429 10:0.0236583 
-1 1:0.825308 2:0.0977564 3:0.407948 4:0.400051 5:0.124908 6:0.437627 7:0.153262 8:0.166506 9:0.571429 10:0.0506545 
-1 1:0.851404 2:0.100962 3:0.428782 4:0.403893 5:0.156804 6:0.419752 7:0.183439 8:0.205059 9:0.571429 10:0.0935592 
-1 1:0.864623 2:0.099359 3:0.45476 4:0.417045 5:0.126087 6:0.438151 7:0.154389 8:0.175631 9:0.571429 10:0.190228 
-1 1:0.829053 2:0.100962 3:0.410139 4:0.384152 5:0.122516 6:0.402777 7:0.15365 8:0.181508 9:0.0687482 10:0.151072 
-1 1:0.812575 2:0.099359 3:0.391469 4:0.366259 5:0.138461 6:0.396956 7:0.168035 8:0.192994 9:0.0687482 10:0.120463 
-1 1:0.827244 2:0.099359 3:0.40319 4:0.456437 5:0.142339 6:0.512929 7:0.172067 8:0.20165 9:0.0687482 10:0.0542905 
-1 1:0.840707 2:0.099359 3:0.412566 4:0.507174 5:0.152764 6:0.602329 7:0.181666 8:0.212452 9:0.0687482 10:0.0991579 
-1 1:0.850781 2:0.100962 3:0.433443 4:0.455527 5:0.129486 6:0.518928 7:0.159938 8:0.19251 9:0.0687482 10:0.193364 
-1 1:0.849244 2:0.100962 3:0.426452 4:0.451222 5:0.145132 6:0.499948 7:0.176455 8:0.214959 9:0.0687482 10:0.250381 
-1 1:0.870797 2:0.100962 3:0.473058 4:0.426342 5:0.146986 6:0.41685 7:0.177545 8:0.219888 9:0.0687482 10:0.251053 
-1 1:0.815349 2:0.099359 3:0.393813 4:0.426446 5:0.154069 6:0.429056 7:0.184239 8:0.214533 9:0.0687482 10:0.084483 
-1 1:0.837952 2:0.099359 3:0.417254 4:0.46133 5:0.147907 6:0.5228 7:0.178424 8:0.212433 9:0.0687482 10:0.0528948 
-1 1:0.842581 2:0.100962 3:0.41247 4:0.454118 5:0.133463 6:0.48155 7:0.165242 8:0.203025 9:0.0687482 10:0.0531188 
-1 1:0.732426 2:0.072841 3:0.450179 4:0.112557 5:0.108992 6:0.0452499 7:0.141132 8:0.175141 9:0.0574324 10:0.0195137 
-1 1:0.70956 2:0.0320513 3:0.390109 4:0.12101 5:0.119091 6:0.076431 7:0.147021 8:0.12607 9:0.0780696 10:0.149783 
-1 1:0.719294 2:0.10329 3:0.302331 4:0.147881 5:0.172865 6:0.140139 7:0.166312 8:0.274126 9:0.2 10:0.109127 
-1 1:0.808856 2:0.0480769 3:0.465712 4:0.204598 5:0.184222 6:0.141494 7:0.201563 8:0.273976 9:0.131148 10:0.0154242 
-1 1:0.510041 2:0.144956 3:0.166803 4:0.0863065 5:0.0462312 6:0.050355 7:0.060018 8:0.0880527 9:0.0473251 10:0.073394 
-1 1:0.6042 2:0.0920718 3:0.256769 4:0.0548087 5:0.0243417 6:0.0243296 7:0.0635496 8:0.0257365 9:0.0438356 10:0.0589437 
-1 1:0.563587 2:0.144956 3:0.584804 4:0.0675447 5:0.18917 6:0.0132013 7:0.214617 8:0.307179 9:0.0677083 10:0.0909806 
-1 1:0.915772 2:0.0696359 3:0.473835 4:0.36499 5:0.363361 6:0.347878 7:0.372087 8:0.379686 9:0.111111 10:0.0604 
-1 1:0.578807 2:0.135341 3:0.23476 4:0.049837 5:0.0453935 6:0.0170481 7:0.0828438 8:0.0692588 9:0.0616584 10:0.0907566 
-1 1:0.619572 2:0.136944 3:0.350447 4:0.19363 5:0.260929 6:0.0748167 7:0.280385 8:0.36036 9:0.0399083 10:0.0917648 
-1 1:0.849115 2:0.102564 3:0.588352 4:0.290877 5:0.431578 6:0.130499 7:0.390233 8:0.56864 9:0.0744186 10:0.0448233 
-1 1:0.910616 2:0.112905 3:0.618996 4:0.406758 5:0.59991 6:0.252569 7:0.596712 8:0.643158 9:0.0900901 10:0.136572 
-1 1:0.467779 2:0.516026 3:1 4:1 5:0.797463 6:1 7:0.772922 8:0.867816 9:0.0574324 10:0.046313 
-1 1:0.853022 2:0.0263667 3:0.377293 4:0.182719 5:0.0983805 6:0.138912 7:0.113333 8:0.177705 9:0.0780696 10:0.03361 
-1 1:0.806633 2:0.0776487 3:0.88428 4:0.904969 5:0.746221 6:0.867046 7:0.762436 8:0.790597 9:0.0780696 10:0.0468459 
-1 1:0.699444 2:0.1875 3:0.346866 4:0.109892 5:0.123935 6:0.0735368 7:0.142997 8:0.151552 9:0.153846 10:0.0159908 
-1 1:0.837943 2:0.0448718 3:0.440503 4:0.218571 5:0.259201 6:0.117445 7:0.279005 8:0.290328 9:0.0780696 10:0.0227912 
-1 1:0.654917 2:0.133738 3:0.337467 4:0.063412 5:0.0812657 6:0.0325475 7:0.105309 8:0.132188 9:0.0720777 10:0.0879562 
-1 1:0.605627 2:0.073718 3:0.488122 4:0.245989 5:0.427413 6:0.114314 7:0.58334 8:0.545565 9:0.0720339 10:0.0286754 
-1 1:0.471492 2:0.148162 3:0.148559 4:0.687398 5:0.392955 6:0.989634 7:0.0480524 8:0.5143 9:0.166667 10:0.136796 
-1 1:0.681752 2:0.0504051 3:0.226376 4:0.124205 5:0.102251 6:0.0988359 7:0.100481 8:0.139963 9:0.181818 10:0.0552472 
-1 1:0.861098 2:0.144956 3:0.356542 4:0.165221 5:0.201285 6:0.0837472 7:0.177722 8:0.294469 9:1 10:0.134667 
-1 1:0.848856 2:0.073718 3:0.444999 4:0.157396 5:0.193014 6:0.092814 7:0.210841 8:0.227208 9:0.0780696 10:0.00974077 
-1 1:0.697606 2:0.0753205 3:0.362497 4:0.0891 5:0.12753 6:0.0318211 7:0.14945 8:0.193848 9:0.0487877 10:0.0100026 
-1 1:0.730168 2:0.146559 3:0.468186 4:0.319451 5:0.328894 6:0.26717 7:0.308996 8:0.455413 9:0.0658606 10:0.177122 
-1 1:0.5457 2:0.176282 3:0.254673 4:0.235489 5:0.238507 6:0.120047 7:0.148025 8:0.370052 9:0.0716904 10:0.330249 
-1 1:0.643542 2:0.143354 3:0.264105 4:0.06919 5:0.0143139 6:0.0413475 7:0.0501158 8:0.0874094 9:0.0780696 10:0.249597 
-1 1:0.931075 2:0.0272436 3:0.549624 4:0.253674 5:0.316063 6:0.154479 7:0.293425 8:0.380491 9:0.0581395 10:0.11316 
-1 1:0.272298 2:0.138546 3:0.0360143 4:0.440447 5:0.222352 6:0.482652 7:0.194472 8:0.373122 9:0.25 10:0.240524 
-1 1:0.887616 2:0.111303 3:0.343336 4:0.319798 5:0.400488 6:0.231912 7:0.411031 8:0.42757 9:0.266667 10:0.0807871 
-1 1:0.644755 2:0.330128 3:0.450179 4:0.150233 5:0.167904 6:0.0858061 7:0.185766 8:0.249266 9:0.0514096 10:0.0617539 
-1 1:0.610427 2:1 3:0.98536 4:0.950877 5:0.920458 6:0.869886 7:0.926127 8:0.932134 9:0.096828 10:1 
-1 1:0.685417 2:0.0984821 3:0.360143 4:0.445285 5:0.3956 6:0.344094 7:0.163346 8:0.516573 9:0.111111 10:0.115624 
-1 1:0.778586 2:0.0480769 3:0.396157 4:0.10171 5:0.137415 6:0.0425661 7:0.149748 8:0.181251 9:0.0727273 10:0.0573847 
-0.3167594261721798 1:0.774818 2:0.0352564 3:0.84412 4:0.384703 5:0.842278 6:0.242522 7:0.826423 8:0.883271 9:0.0643623 10:0.00659181 
-1 1:0.7547 2:0.122521 3:0.520664 4:0.139788 5:0.245747 6:0.066527 7:0.26647 8:0.32071 9:0.0796646 10:0.151582 
-1 1:0.940829 2:0.119315 3:0.46446 4:0.37187 5:0.469489 6:0.302849 7:0.469179 8:0.552741 9:0.137931 10:0.145197 
-1 1:0.934987 2:0.0231615 3:0.581031 4:0.450976 5:0.460449 6:0.352265 7:0.435773 8:0.55671 9:0.0790123 10:0.0952373 
-1 1:0.976028 2:0.0320513 3:0.549294 4:0.283552 5:0.363884 6:0.16991 7:0.370724 8:0.426818 9:0.0747541 10:0.0479544 
-1 1:0.830535 2:0.121795 3:0.396157 4:0.189123 5:0.165443 6:0.125543 7:0.165108 8:0.226591 9:0.148148 10:0.0616085 
-1 1:0.810056 2:0.00553334 3:0.338054 4:0.328721 5:0.327768 6:0.2152 7:0.135526 8:0.416056 9:0.121739 10:0.181491 
-1 1:0.771957 2:0.266026 3:0.366145 4:0.138279 5:0.11249 6:0.0805524 7:0.134355 8:0.170101 9:0.0687482 10:0.0247321 
-1 1:0.421228 2:0.0632256 3:0.135994 4:0.111568 5:0.0726002 6:0.068531 7:0.0783311 8:0.117781 9:0.0687482 10:0.080227 
-1 1:0.893284 2:0.132136 3:0.551791 4:0.10622 5:0.16535 6:0.0421526 7:0.182568 8:0.207156 9:0.0780696 10:0.225289 
-1 1:0.773568 2:0.11611 3:0.416473 4:0.187561 5:0.228103 6:0.129786 7:0.2503 8:0.315758 9:0.077489 10:0.163456 
-1 1:0.616159 2:0.101687 3:0.605888 4:0.87845 5:0.757999 6:0.721438 7:0.335376 8:0.859651 9:0.137931 10:0.157631 
-1 1:0.853787 2:0.132136 3:0.603668 4:0.318526 5:0.407796 6:0.182569 7:0.340708 8:0.551849 9:0.114943 10:0.18093 
-1 1:0.583571 2:0.134615 3:0.219377 4:0.0799878 5:0.0341726 6:0.0566229 7:0.0594643 8:0.0364625 9:0.0516274 10:0.190619 
-1 1:0.376672 2:0.0455974 3:0.0532152 4:0.0352854 5:0.0128592 6:0.0343167 7:0.0544445 8:0.015371 9:0 10:0.014623 
-1 1:0.4088 2:0.124123 3:0.0914209 4:0.339838 5:0.269099 6:0.259698 7:0.104727 8:0.402746 9:0.0909091 10:0.220248 
-1 1:0.471492 2:0.148162 3:0.148559 4:0.0863355 5:0.161077 6:0.0458138 7:0.443188 8:0.169487 9:0 10:0.188772 
-1 1:0.387974 2:0.0984821 3:0.121273 4:0.0257557 5:0.0294489 6:0.0111637 7:0.0619197 8:0 9:0.0337863 10:0.0675691 
-1 1:0.715684 2:0.135341 3:0.272358 4:0.341024 5:0.252641 6:0.281819 7:0.195363 8:0.3876 9:0.0687482 10:0.080003 
-1 1:0.760158 2:0.0520077 3:0.259775 4:0.369381 5:0.151723 6:0.3576 7:0.10598 8:0.236124 9:0.105263 10:0.168945 
-1 1:0.851422 2:0.0231615 3:0.442516 4:0.207015 5:0.181709 6:0.167917 7:0.205929 8:0.248554 9:0.0780696 10:0.0591678 
-1 1:0.648852 2:0.0455974 3:0.217073 4:0.076218 5:0.0479179 6:0.0452725 7:0.0600998 8:0.0634098 9:0.0678207 10:0.145757 
-1 1:0.498055 2:0.140149 3:0.231092 4:0.016773 5:0.0423585 6:0.00543691 7:0.0800623 8:0.0583188 9:0.0557123 10:0.103751 
-1 1:0.885197 2:0.0263667 3:0.400764 4:0.173661 5:0.135369 6:0.113326 7:0.148884 8:0.218264 9:0.0687482 10:0.0437142 
-1 1:0.702159 2:0.135341 3:0.980961 4:0.398838 5:0.657039 6:0.240072 7:0.738773 8:0.787462 9:0.121212 10:0.185523 
-1 1:0.844556 2:0.0071359 3:0.592313 4:0.377213 5:0.598605 6:0.24992 7:0.597733 8:0.587025 9:0.4 10:0.125034 
-1 1:0.603751 2:0.0448718 3:0.225089 4:0.078123 5:0.0308438 6:0.0443909 7:0.0601794 8:0.0495826 9:0.0780696 10:0.0371123 
-1 1:0.595998 2:0.010341 3:0.268106 4:0.0506309 5:0.0872415 6:0.014401 7:0.115938 8:0.141371 9:0.0658606 10:0.0266703 
-1 1:0.807198 2:0.128931 3:0.806463 4:0.214072 5:0.561629 6:0.0708407 7:0.586797 8:0.611487 9:0.0780696 10:0.192356 
-1 1:0.559756 2:0.148162 3:0.2521 4:0.126351 5:0.0801399 6:0.0953197 7:0.158159 8:0.159251 9:0 10:0.234251 
-1 1:0.600185 2:0.0872641 3:0.284955 4:0.0690903 5:0.114399 6:0.0275223 7:0.146088 8:0.159463 9:0.0409836 10:0.0330332 
-1 1:0.923395 2:0.0135462 3:0.658915 4:0.233407 5:0.50002 6:0.114696 7:0.501501 8:0.551567 9:0.307692 10:0.0134718 
-1 1:0.504797 2:0.119315 3:0.438985 4:0.100017 5:0.0654382 6:0.0549129 7:0.101215 8:0.104352 9:0.0780696 10:0.159535 
-1 1:0.667796 2:0.317308 3:0.364359 4:0.0944901 5:0.0917122 6:0.0430439 7:0.121186 8:0.134993 9:0.0658606 10:0.0243046 
-1 1:0.597508 2:0.916667 3:0.451146 4:0.262555 5:0.154354 6:0.230533 7:0.178059 8:0.221388 9:0.133333 10:0.0280529 
-1 1:0.790218 2:0.177885 3:0.573621 4:0.182166 5:0.31849 6:0.0787493 7:0.334427 8:0.40792 9:0.0450786 10:0.00870222 
-1 1:0.753456 2:0.143354 3:0.247598 4:0.382867 5:0.190389 6:0.418251 7:0.149921 8:0.316772 9:0.285714 10:0.114056 
-1 1:0.879179 2:0.125726 3:0.396157 4:0.377402 5:0.33302 6:0.387107 7:0.331515 8:0.397781 9:0.166667 10:0.115064 
-1 1:0.837628 2:0.0568154 3:0.434249 4:0.214344 5:0.32216 6:0.150093 7:0.359226 8:0.405816 9:0.131148 10:0.00921575 
-1 1:0 2:0.141751 3:0.396157 4:0.642795 5:0.861568 6:0.386626 7:0.0763114 8:0.961933 9:0.121212 10:0.277153 
-1 1:0.589141 2:0.0576923 3:0.352743 4:0.115436 5:0.118638 6:0.070771 7:0.140551 8:0.141778 9:0.117647 10:0.00971557 
-1 1:0.719582 2:0.132136 3:0.437139 4:0.191423 5:0.17207 6:0.141432 7:0.198945 8:0.209574 9:0.131148 10:0.197285 
-1 1:0.779138 2:0.0439949 3:0.768159 4:0.517326 5:0.624069 6:0.387947 7:0.620129 8:0.66142 9:0.0780696 10:0.0952373 
-1 1:0.53033 2:0.138546 3:0.190156 4:0.077116 5:0.0324887 6:0.0869862 7:0.0710165 8:0.0636297 9:0.0678207 10:0.105543 
-1 1:0.879961 2:0.00873847 3:0.456794 4:0.226322 5:0.248664 6:0.133602 7:0.262655 8:0.347294 9:0.0722892 10:0.0632976 
-1 1:0.923826 2:0.141751 3:0.509345 4:0.349029 5:0.396078 6:0.307465 7:0.379107 8:0.449888 9:0.666667 10:0.206358 
-1 1:0.705327 2:0.127328 3:0.264105 4:0.123469 5:0.0971698 6:0.0656231 7:0.196097 8:0.145454 9:0 10:0.190116 
-1 1:0.814049 2:0.00553334 3:0.36897 4:0.138656 5:0.162794 6:0.0950932 7:0.185738 8:0.229384 9:0.0754717 10:0.0741816 
-1 1:0.63646 2:0.0849359 3:0.283328 4:0.0485988 5:0.0377476 6:0.0218189 7:0.0647792 8:0.0491123 9:0.0747541 10:0.0185495 
-1 1:0.744675 2:0.190705 3:0.495197 4:0.442967 5:0.152884 6:0.489978 7:0.179564 8:0.230781 9:0.0780696 10:0.120433 
-1 1:0.817859 2:0.0888667 3:0.411394 4:0.229994 5:0.184538 6:0.172809 7:0.198085 8:0.252339 9:0.0780696 10:0.121001 
-1 1:0.69574 2:0.104892 3:0.361709 4:0.132639 5:0.100629 6:0.089384 7:0.133468 8:0.15916 9:0.0487805 10:0.0915407 
-1 1:0.629991 2:0.0920718 3:0.253541 4:0.0630568 5:0.0411013 6:0.0511668 7:0.055002 8:0.0697099 9:0.0687482 10:0.113944 
-1 1:0.740672 2:0.073718 3:0.393499 4:0.0834851 5:0.130817 6:0.0307783 7:0.151427 8:0.185477 9:0.0678207 10:0.333834 
-1 1:0.805457 2:0.138546 3:0.702279 4:0.128741 5:0.278117 6:0.0452792 7:0.307605 8:0.412426 9:0.0658606 10:0.0955734 
-1 1:0.777954 2:0.201923 3:0.344324 4:0.211835 5:0.192648 6:0.136847 7:0.166644 8:0.245553 9:0.08 10:0.171397 
-0.8330834306502266 1:0.543788 2:0.124123 3:0.132052 4:0.122853 5:0.0590227 6:0.0724558 7:0.091918 8:0.111319 9:0 10:0.123578 
-1 1:0.471877 2:0.135341 3:0.322795 4:0.034822 5:0.049131 6:0.00962532 7:0.0862693 8:0.116548 9:0.0716904 10:0.238731 
-1 1:0.893843 2:0.0135462 3:0.429873 4:0.300091 5:0.253387 6:0.216607 7:0.259779 8:0.326302 9:0.0784314 10:0.126908 
-1 1:0.600607 2:0.0776487 3:0.20782 4:0.0760546 5:0.0421376 6:0.0472491 7:0.0753665 8:0.0290308 9:0.0487877 10:0.0445868 
-1 1:0.615239 2:0.140149 3:0.445677 4:0.0482794 5:0.102066 6:0.016564 7:0.134785 8:0.16966 9:0.0780696 10:0.146205 
-1 1:0.647515 2:0.145833 3:0.532902 4:0.15445 5:0.343293 6:0.0556057 7:0.354247 8:0.462103 9:0.0736 10:0.110879 
-1 1:0.862727 2:0.130533 3:0.396157 4:0.440932 5:0.340575 6:0.384361 7:0.349601 8:0.439218 9:0.0736 10:0.234587 
-1 1:0.667242 2:0.101687 3:0.264105 4:0.0917155 5:0.0667396 6:0.0510807 7:0.0951838 8:0.101611 9:0.0658606 10:0.0691373 
-1 1:0.731995 2:0.0664308 3:0.342942 4:0.095345 5:0.101629 6:0.0396977 7:0.123869 8:0.161579 9:0.0584071 10:0.0294085 
-1 1:1 2:0.00873847 3:0.540638 4:0.413654 5:0.3495 6:0.349103 7:0.323302 8:0.463204 9:0.115044 10:0.0126806 
-1 1:0.537542 2:0.00320513 3:0.382652 4:0.141218 5:0.161062 6:0.0981325 7:0.132175 8:0.243527 9:0.0780696 10:0.0114613 
-1 1:0.717514 2:0.0856615 3:0.312355 4:0.0806969 5:0.0480254 6:0.0503245 7:0.0622314 8:0.0960393 9:0.0658606 10:0.0644071 
-1 1:0.586423 2:0.211538 3:0.199863 4:0.146375 5:0.0439048 6:0.118089 7:0.0503677 8:0.0600861 9:0.108108 10:0.0229368 
-1 1:0.736306 2:0.108097 3:0.594236 4:0.255667 5:0.451659 6:0.147363 7:0.455192 8:0.544323 9:0.0332147 10:0.0714897 
-1 1:0.629297 2:0.11611 3:0.304736 4:0.0431824 5:0.0603069 6:0.0130823 7:0.0965122 8:0.105858 9:0.0715884 10:0.177234 
-1 1:0.954873 2:0.143354 3:0.52126 4:0.404996 5:0.397715 6:0.35942 7:0.366845 8:0.540527 9:0.03861 10:0.154046 
-1 1:0.727922 2:0.128931 3:0.370599 4:0.132981 5:0.156865 6:0.0691077 7:0.185009 8:0.187273 9:0.0573477 10:0.128618 
-1 1:0.780754 2:0.0464744 3:0.239122 4:0.269662 5:0.20165 6:0.216839 7:0.117374 8:0.266582 9:0.117647 10:0.0141371 
