solver_type L2R_L2LOSS_SVC_DUAL
nr_class 2
label 1 0
nr_feature 4276
bias -1
w
0.1106617107049305 
-1.047564687770951 
0.6292147902123328 
0.6292147902123328 
0.313504195555951 
0.2521166704965783 
1.013252856296768 
0.577791099652696 
0.8510241766077971 
0.8395021407671681 
0.0403949479862323 
0 
-0.02724083719725664 
0.05934069049322455 
0.05934069049322455 
0.05934069049322455 
0.9832502449124365 
0 
0 
-0.06880380264151667 
0.1252648541040041 
0 
-0.07501850760734907 
-6.938893903907228e-18 
-0.338376307473498 
-0.8610093110248976 
0 
-0.01244761684908951 
-0.09092034306510875 
-0.4705882352941176 
-0.01511952969038725 
6.938893903907228e-18 
0.1404927895909721 
-0.195420670905388 
0 
0.05638944279689677 
0.1126693599021423 
0.01456372876668338 
0 
-0.08261527916523605 
-0.2759170622289357 
0 
1.678235379260948 
0.9248485308205892 
-6.938893903907228e-18 
0.390008837790762 
1.212668414494816 
1.614051727443175 
-0.07360436054683116 
-0.08649776163313319 
0.2961564775706564 
0.3516627501621173 
-0.2756283886066996 
-0.03483523645265232 
0 
-0.4062162095567965 
-0.009069267694205138 
-0.08402875571628798 
0.03133948333712249 
-3.469446951953614e-18 
-0.001236097663388764 
-0.004782966081235181 
0 
-0.01669041505930234 
0 
-0.2666628304275612 
-0.184131365594194 
0 
-0.03696338281407147 
0 
0.05573715516384783 
-0.03412055177041731 
0 
0 
0 
0 
0.7760206523774363 
-0.04609280806047488 
-0.4801361552143377 
0.7199278738210109 
0.122753178663221 
0 
-0.5165731360936349 
-0.5991364341629022 
0 
-0.3560058931433135 
0.9513661071197855 
0.2625356510396532 
0.2994711428583657 
-0.2780766401322819 
-0.4977855525386835 
0.07541318868697781 
-0.2438485880628409 
0 
0.09781717863344924 
-0.1362078090526613 
-0.04165989523575579 
0 
0 
0 
0.007130572303642987 
-0.7141849170743482 
0 
0.02690432644804572 
0.4707912188575487 
0.02690432644804572 
0.6056556900654535 
0.1581390040303338 
0.02690432644804572 
0.02690432644804573 
0.122461834777583 
0.02690432644804572 
0.02212136036681053 
0.002509488308626493 
-0.3078510394093897 
0.02690432644804572 
0.02690432644804572 
0.02690432644804572 
0.08582158613180811 
0.02690432644804572 
-0.05959698535544769 
0.2067685180632894 
-0.162963652682622 
0.06933176348022355 
0.02690432644804573 
-0.2049246033905953 
0.5465363651308629 
0.6402156091263687 
-0.3337371149550528 
0.6184089476760507 
0 
0 
-0.3272423418449892 
0 
-0.3221982134215423 
-0.124321609144021 
-0.2983595252637907 
0 
-0.08885924693617314 
-0.7167727624521475 
0 
0 
0 
0 
-0.3013127215746175 
0 
0 
0 
-0.08031363190373153 
-0.1570833355569357 
-0.01018044654326608 
-0.01212173056824734 
-0.01018044654326608 
-0.01018044654326608 
0.07591434351207277 
0.05996192366505081 
0.02440710743050664 
-0.01018044654326608 
-0.01018044654326608 
0.01085235290182504 
0.1228863732192171 
-0.01018044654326608 
-0.01018044654326608 
0 
1.734723475976807e-18 
0 
0.4248099627733439 
0.4248099627733439 
0.09523938647969249 
0.2242055971982916 
0 
0.4017380352119146 
0.3476646938681378 
-0.9050032071287335 
0.2924439188165718 
0.2924439188165718 
0.2924439188165718 
0 
0.6609042429550128 
0.5508353110395262 
0.5508353110395262 
0 
0 
-0.09088797737239204 
-0.001961200808478928 
0 
-0.06414467507265265 
-0.6433860350209057 
0 
-0.08184284755881568 
0 
0.1550016488667793 
-0.1054301222565988 
0 
0 
-0.02169157411199742 
0 
0 
-0.2169865902060751 
0 
-0.06250766810592721 
0 
-0.0266665826977942 
0.6960982062739667 
-0.1110671548627615 
0.05749136429708565 
0.05749136429708565 
-0.5453805025450413 
0.139501777976024 
0.4855021892169759 
-0.2149281566941857 
0.7406080095180519 
-0.02666658269779419 
0 
0 
0.07283143039325582 
0 
-0.5761749118446531 
0.1895918530903898 
0 
-0.01131830000915265 
-0.001961200808478928 
-0.001961200808478928 
-0.001961200808478928 
-0.001961200808478928 
-0.001961200808478928 
-0.003922401616957856 
-0.005603232239273328 
-0.001961200808478928 
-0.001961200808478928 
-0.001961200808478928 
-0.003922401616957856 
-0.001961200808478928 
0.06899764684463862 
-0.001961200808478928 
0.02550360683593637 
-0.001961200808478928 
-0.001961200808478928 
0.689253628498264 
0.7207189930977549 
0.8747558140959313 
0 
0.4000363510734671 
-0.06647345231769708 
0.06027565591053119 
-0.06647345231769708 
0 
0 
0 
0 
-0.009968189699678696 
0.3565340917924474 
0 
0.1867998159837466 
0 
0.06124778989334927 
-0.0328939524276711 
-0.0328939524276711 
-0.0328939524276711 
0 
0 
-0.8396829407650396 
0 
0 
-0.03696338281407147 
0.07830270881884523 
0 
-0.001830819784290054 
0 
0 
0 
0.1128096188345036 
0 
0 
0.2138741158250943 
0 
0 
0 
0 
0 
0 
-0.1052307049084596 
0.2177338086105006 
-0.4705882352941176 
-0.02437531840892252 
0 
-0.04576693824726605 
0 
0 
0 
0 
0.4113868984916045 
0.4113868984916045 
0.4113868984916045 
0 
0 
0 
0.6367136864973071 
0 
0 
0 
0 
-0.07314211535100512 
0 
-0.2801034309005761 
0 
0 
0.06340506304285443 
0 
0 
-0.04149055886384482 
-0.3196275025212495 
0.04301445996674428 
-0.1245684190049967 
0 
0 
0 
0 
-0.04544398868619602 
-0.2336873187527811 
-0.01552760730916004 
0 
0 
-0.01972973747073501 
0.1881984061618139 
0 
0 
0 
0 
0.02894039063866208 
0 
0 
0 
-0.565468965442197 
0 
0.1853780128736939 
-0.1728043438798063 
-0.2376459558199508 
0.08874676832731737 
-0.01152017168177836 
-6.938893903907228e-18 
-0.01354840343126438 
1.132972456529519 
-0.9482430787462341 
-0.09575590999601842 
0.4493598940511141 
0 
-0.07785509469430479 
-0.2032254049896504 
0.3552087175450923 
-0.07785509469430482 
0.1224070876652514 
0.07794565784280458 
0.198539915103155 
0.06120354383262572 
0.05583311917623415 
0.06120354383262572 
0.06120354383262572 
0.1060229059189318 
0.06120354383262572 
0.06120354383262572 
0.06115286474045797 
0.06120354383262572 
0.06120354383262572 
0.06120354383262572 
0.06120354383262572 
0.06120354383262572 
-0.01460629898896403 
0.06120354383262572 
-0.7838538738936567 
0.7319540641538587 
-0.2248200146964088 
-0.09693422905442979 
-0.08912638740268188 
0.2084059601417491 
0.1556340452335223 
0.1556340452335223 
-0.01245705481866029 
0.1033207936440529 
-0.09069831890964908 
-0.01245705481866029 
0 
0 
0.09275027635596347 
-2.168404344971009e-19 
0 
0.06845243152974258 
0.09004608593928949 
0.09004608593928949 
0.09004608593928949 
0.06786764660054001 
0 
0 
0.03119682873920224 
0 
0.004348953455455939 
0.134951410634825 
0.04481936208630644 
-0.02082818380088412 
-0.114414071658368 
-0.0004178095846176051 
0.04481936208630644 
0.04481936208630641 
0.1526256310966297 
0.1526256310966297 
0.1526256310966297 
0.1526256310966297 
0.0863983187826998 
0.1526256310966297 
-0.07546104885428473 
0.03432764636208991 
-6.938893903907228e-18 
0 
-0.002472195326777532 
-0.002472195326777532 
-0.001236097663388766 
-0.1260133709047147 
-0.001236097663388766 
-0.001236097663388766 
-0.001236097663388766 
0.03685154893622932 
0.02932296585719959 
-0.001236097663388765 
-0.001236097663388766 
-0.001236097663388766 
0.3211854594044761 
0.1402753819684262 
0.9801404286841555 
0.1402753819684262 
0.4072917777221022 
0 
0 
0 
-0.009888963072822351 
0 
-0.024895233698179 
-0.0124476168490895 
-0.03734285054726846 
-0.0124476168490895 
-0.0124476168490895 
-0.0124476168490895 
-0.0124476168490895 
-0.0124476168490895 
-0.0124476168490895 
-0.0124476168490895 
-0.024895233698179 
0.08277356425706918 
-0.0124476168490895 
-0.08958073358634655 
0.4385825286748425 
-0.0124476168490895 
0 
0 
-0.002482140540814189 
-0.1414259247457444 
0.1454484881170408 
5.520344628534067e-05 
0 
-0.1392668269471635 
-0.0199754388770469 
0.1123103005178978 
0.1123103005178978 
0 
0 
0.3167991135264274 
-0.08313353749549587 
-0.1818516835109939 
0.03572015348352051 
0.03572015348352051 
0 
0 
0 
0 
0 
-0.02753182352857735 
0 
0 
0 
0 
0 
-0.3234394895671062 
-0.5692759106875254 
-0.5243216560024496 
-0.4834342052967012 
-0.2652329180870436 
-0.1758156938055046 
-0.1758156938055046 
-0.1758156938055046 
-0.09801153342888368 
-0.1758156938055046 
-0.1758156938055046 
-0.1758156938055046 
-0.1758156938055046 
0.05372019619384114 
-0.1758156938055046 
-0.2756283886066996 
0.4115913807635511 
0 
0 
0 
-0.3184977651202503 
0 
-0.1995072949515361 
-0.01354840343126437 
0 
-0.01669041505930234 
-0.0509361179647214 
0 
-0.04010897855196282 
0 
-0.09092034306510877 
0.04455801372013066 
0.08729449590457161 
-0.0266665826977942 
-0.02666658269779419 
-0.03539003765328633 
0.04344464132972781 
-0.0266665826977942 
-0.0266665826977942 
-0.0266665826977942 
-0.5019643989518173 
-0.5019643989518173 
0 
0 
0 
-0.06036870157224922 
0.1127151552817697 
-0.503167779817047 
0.2887168328038372 
0.02330510053119793 
-0.01013041876557806 
-0.01013041876557806 
0 
0 
0 
-0.2895598050522447 
0 
0.9895092663381727 
0.4947546331690864 
0.4947546331690864 
0.4947546331690864 
-0.7167727624521475 
-0.1926699618800674 
-0.1926699618800674 
-0.1926699618800674 
-0.07650652272458333 
0 
0 
0 
0 
0 
0.2811382278803993 
0 
0 
0 
0 
0 
0 
0 
0 
0 
-0.02511667053530528 
0 
-0.02976965605417509 
0 
0 
0 
0.3381258403062813 
6.938893903907228e-18 
0 
2.775557561562891e-17 
0 
-0.05070677355376208 
-0.1340957119271454 
-0.05070677355376207 
0.2888427487230842 
0 
-0.009646191757522987 
0 
-0.07879295316422275 
-0.03833202861274923 
0 
-0.04642227564905448 
0 
0 
-0.02594018635281039 
0 
0 
-0.003590697048604352 
-0.02990832434041034 
0.05005913954754551 
0.03119682873920224 
-0.01324022909597569 
0 
-0.02914054567212668 
0 
0 
0 
0 
-0.7013312654543582 
1.561251128379126e-17 
0 
0 
0 
0.119312380892373 
-0.02763620321277704 
-0.01996455980540611 
-0.08098947992942146 
0 
-0.1538035023930464 
0 
0 
0 
0 
-0.004782966081235151 
-0.06544108799298533 
0 
-0.01996455980540613 
0.1984608583209733 
0.2108321126110108 
0 
-0.1453066036747706 
0 
-0.006837333071468494 
0 
0.01540793140721023 
0 
0 
0 
0 
0 
0.04058446903863441 
0 
0.3722123189648993 
0 
0.002616384820502624 
0 
0.3208930733611824 
0.3208930733611824 
0.2317432476568976 
0.3383721574124567 
0.3383721574124567 
0.04322815818139628 
0.05038498926376386 
0.05038498926376386 
0.1190122375472646 
-0.2515417120906522 
0.1190122375472646 
0 
-0.01723413906269732 
0.06587725836963196 
0.06587725836963196 
0.1752026506764686 
0.06587725836963196 
0.05448313579187999 
0.06587725836963196 
-0.02275123978287675 
-0.02275123978287675 
0.05487847857629822 
0.632797892109156 
1.735285994157174 
0.2979128796110301 
-0.03235071010718558 
0 
0 
0.01172786568862138 
0 
0 
-0.04650105008558992 
-0.8476395101044338 
0 
-0.009646191757522989 
0 
0 
-0.08271745760537927 
-0.3605192269838914 
-0.08271745760537927 
-0.08271745760537924 
-0.02234875603313006 
-0.02234875603313006 
-0.02234875603313006 
0.162393961866285 
0 
-0.02301776487500453 
0 
0 
0 
0 
0 
0 
0 
0 
-0.06913440856073393 
0.06031593435002991 
0.3700247454888657 
0.3700247454888657 
0.2916880761703122 
0.4626270493386101 
0.2686830026256131 
0.2686830026256131 
0 
0 
0.01172628030663358 
0 
-0.2373602115903816 
0 
-0.0271490867329988 
0.1114444128210046 
-0.09263020207874684 
0.08249125532463068 
-0.0271490867329988 
-0.0271490867329988 
-0.0271490867329988 
-0.0271490867329988 
-0.2210175448418583 
0 
0.0501231843860198 
-0.08013313862442185 
-0.08013313862442181 
-0.08013313862442184 
-0.08013313862442185 
-0.1602662772488437 
-0.08013313862442185 
0.006212108037620852 
-0.08013313862442185 
-0.08013313862442185 
-0.08013313862442185 
-0.104735631590253 
-0.05348708351147718 
-0.08013313862442185 
-0.08013313862442185 
-0.08013313862442185 
0 
0 
-0.08358307773801554 
-0.02159365440954725 
-0.1011462423368331 
0 
-0.863537011847277 
0 
0 
-0.009731010640979072 
0 
0 
-0.09888753822588883 
0 
0 
0 
-0.03446827812539464 
0 
0 
0 
0 
-0.009646191757522987 
0 
0 
0 
0.03285495519563325 
0 
0 
0 
0 
0 
0 
0 
0 
0 
-0.003642031430794381 
0 
0 
0 
0 
0 
0 
0 
-0.03833202861274923 
0 
-0.6251952052106607 
0 
0 
0 
-0.3221982134215423 
-0.1730458999225779 
-0.04149055886384482 
-0.5761323861039586 
0 
0 
0 
0 
1.084202172485504e-19 
0.1337645173908583 
0.3431152463647516 
0 
0 
0 
0.1851755814976105 
0 
0 
0 
0 
-0.03079534448225338 
0.3086757346023838 
0.2240929348223609 
0.06169897295607571 
0.06169897295607571 
0.1801522781335199 
0.004516811607976258 
0.004516811607976258 
0.004516811607976258 
0.02258405803988131 
0.1869742360495638 
0.01136351057430985 
0.004516811607976258 
0.004516811607976258 
-0.1316909974446852 
0.004516811607976258 
0.004516811607976258 
0.004516811607976258 
0.4852124379396294 
0.004516811607976258 
0.2973385858158571 
0.3157208797722479 
0.004516811607976258 
-0.0530846363519592 
0.004516811607976258 
0.004516811607976258 
0.009033623215952517 
0.009033623215952516 
0.009033623215952516 
0.004516811607976258 
0 
-0.09092034306510878 
-0.02721896015685643 
0 
0.1968238147933448 
3.469446951953614e-18 
-0.03638061124665964 
0 
0 
0 
0 
0 
0 
0 
0 
0 
0 
0 
0 
-3.469446951953614e-18 
0 
0 
0.1866508181201841 
0 
-0.07546104885428473 
0 
-0.6470842973970619 
0 
0 
0 
0 
0 
0 
0 
0 
-0.1206140530207414 
0 
0 
0 
-0.0288485299450364 
0 
0 
0 
0 
-0.323270231916767 
7.047314121155779e-19 
0 
0 
-0.2438485880628409 
0 
0 
0 
0 
0 
0 
0 
0 
-0.02990832434041034 
0 
0 
0 
0 
0 
0 
0 
0 
0 
0 
0 
0 
0 
-0.03300233660699455 
-0.03300233660699454 
-0.01322572100022052 
0.1415782219911195 
-0.03300233660699455 
-0.03300233660699455 
-0.03300233660699455 
-0.04969275166629689 
-0.06712288837741183 
0.1043340346635348 
-0.03300233660699455 
-0.03300233660699455 
-0.03300233660699455 
-0.03300233660699455 
0.05900788176496286 
0.1155207902923752 
0 
0 
0 
0 
0.1680949594543105 
0 
0.9476421485718672 
-0.5143970097128177 
-0.08677818122126522 
-0.3387960771659482 
0 
-0.2095364090890956 
0.1168743592688302 
0.06887421909184069 
0.1168743592688302 
0.0766469149042107 
0.1052599683864912 
0 
0 
0 
0 
-0.06767526149469959 
-0.3264955909552603 
0 
0 
0 
-0.1572837247271728 
0 
-0.0704243772600677 
0 
0 
0 
-0.2967939606311298 
-0.203883070547361 
0 
-0.07482555572721099 
-0.07482555572721099 
-0.07482555572721099 
-0.07482555572721099 
-0.07482555572721099 
-0.07482555572721099 
-0.07482555572721099 
0 
0 
0.04805306841374195 
0 
0.003870677219022494 
0 
1.734723475976807e-18 
0 
-0.1362078090526614 
0 
0 
0 
-0.008723454955492172 
-0.008103543416799287 
-0.02501620971997965 
0 
0 
0 
0 
-0.06564754588719046 
0 
0 
0.05228758169934641 
0 
-0.00302343864770082 
0 
0.106977832056301 
0 
0 
0 
0 
0 
0 
0 
0 
0 
0 
0 
0 
-0.006837333071468494 
-0.006837333071468494 
-0.1880606296170115 
0 
0 
0 
0 
-0.04149055886384482 
-0.02691422394227634 
0 
0 
-0.01817590206112091 
0 
0 
0 
-0.001979203877895712 
-0.001979203877895712 
-0.001979203877895712 
-0.08536814225127934 
-0.001979203877895712 
-0.001979203877895712 
-0.001979203877895712 
-0.001979203877895712 
0 
0 
0 
-0.09693422905442976 
0 
0 
-0.3546270639285801 
-0.4642517227774177 
-0.009815990991215967 
-0.009815990991215967 
0 
0 
0.3621494470866644 
0.2720173985381458 
0.2720173985381458 
0.2720173985381458 
0.2720173985381458 
0.4093537698086746 
0 
0.02537614426347718 
-0.1388328383788379 
0 
-0.1247772732413259 
-0.1247772732413259 
0.3383925815636773 
0 
-0.0002824408258792557 
0 
-1.734723475976807e-18 
0.07676970365320443 
0 
0 
0 
0 
0 
0 
0 
0 
-0.08508096512199231 
0 
0 
-0.07824126409098876 
-0.07824126409098876 
-0.07824126409098876 
-0.07824126409098876 
-0.07824126409098876 
-0.07824126409098876 
-0.07824126409098876 
-0.07824126409098876 
-0.07824126409098876 
0.1389229713389041 
-0.4545059472082262 
-0.4545059472082262 
0 
0 
0 
0 
0 
0 
0 
0.3076510912212995 
0 
-0.2592773184274538 
0 
-0.0302390593807745 
-0.01511952969038725 
-0.01511952969038725 
-0.01511952969038725 
-0.01511952969038725 
0.07501251885813134 
0.1161151478919006 
-0.009888963072822351 
-0.009888963072822351 
-0.009888963072822351 
0 
0 
0 
0 
0 
0 
-0.3361824829110805 
0 
0 
0 
-0.005370424656391531 
-0.005370424656391531 
-0.06511906249169701 
-0.005370424656391531 
-0.01647169618029328 
-0.005370424656391531 
0.01050697838589259 
-0.1694885651317385 
-0.005370424656391531 
-0.005370424656391531 
-0.005370424656391531 
-0.1381515936870032 
0 
0 
0 
-0.009731010640979072 
-0.009731010640979072 
-0.009731010640979072 
0 
-0.01725541828573536 
-0.07560058045945355 
0 
-0.0736043605468312 
0 
0 
0 
0 
0 
0.2513279340972481 
0 
0 
0 
-0.04800014017698954 
-0.04800014017698954 
-0.04800014017698954 
-0.04800014017698955 
-0.04800014017698954 
-0.04800014017698954 
-0.04800014017698954 
-0.2983595252637907 
-0.2983595252637907 
-0.2983595252637907 
-0.2983595252637907 
0 
0.421877523783184 
0.421877523783184 
0 
-0.2705736996165196 
0 
-0.1068509716296459 
-0.2720301654283055 
0 
0 
0 
0.05272664025681444 
0.03348422802035771 
0.2643663856427624 
0.01674211401017886 
0.01674211401017886 
0.01674211401017886 
0.03348422802035771 
0.03348422802035771 
0.03348422802035771 
0.03348422802035771 
0.01674211401017886 
0.01674211401017886 
0.1068741625586975 
0.01674211401017886 
-0.02474844485366596 
0.01674211401017886 
0.01674211401017886 
-0.01302754204399625 
0 
0 
0 
-0.1854848374289201 
0 
0 
-0.02642387567229222 
-0.007088282257750029 
0.008789120784534057 
-0.00708828225775005 
-0.00708828225775005 
0 
0 
0 
0 
-0.04420679148233802 
0 
0 
0 
-0.01187817219351622 
0 
0 
0 
0 
0 
0 
0 
0 
0 
0 
0 
-0.04303041985195765 
0 
0 
0 
0 
0 
0 
0 
0 
0 
-0.0750483803118505 
0 
0 
0 
0 
0.01053690882475997 
0 
0 
0 
0.09439592949823743 
0 
0 
0 
0 
-0.03235071010718558 
0 
0 
0 
0 
0 
0 
0 
0 
0 
-0.5806519021060519 
-0.1362078090526614 
0 
0 
0.4204358318614976 
-0.02259925665772558 
-0.02259925665772558 
0.6175841299584331 
-0.09324255704785815 
0 
0 
0 
0.07941284413859537 
0.162393961866285 
0.162393961866285 
0.162393961866285 
-0.008723454955492172 
0.08184825796719208 
-0.008723454955492172 
-0.01744690991098434 
-0.008723454955492172 
-0.01744690991098434 
-0.008723454955492172 
-0.008723454955492172 
-0.008723454955492172 
-0.008723454955492172 
-0.008723454955492172 
-0.008723454955492172 
-0.008723454955492172 
-0.008723454955492172 
-0.008723454955492172 
0.02492232652263236 
1.121935421485991 
0.9481967553462911 
0.2138741158250944 
0.2138741158250944 
0 
0 
-0.02301776487500453 
-0.2236709410632915 
0 
0 
0 
0.1613591238462711 
0 
-0.01817590206112091 
0 
0 
0 
0 
0 
0 
-0.1008056336150795 
-0.4093873095329151 
-0.2046936547664575 
-0.2046936547664575 
-0.2046936547664575 
-0.2046936547664575 
-0.2046936547664575 
0 
0.1323047051992734 
0 
0 
0 
0 
-6.938893903907228e-18 
-1.355252715606881e-20 
0 
-0.5360318002566319 
0.03192914832805592 
-0.2680418953496876 
-0.0567331206982436 
0 
0 
0 
-0.01669041505930234 
0 
0 
-1.387778780781446e-17 
0.2076730140745714 
0 
0.1526256310966297 
0.1526256310966297 
0.1526256310966297 
-0.3768081692911308 
-0.3768081692911308 
-0.001267660164395563 
0.1774866898391983 
0.3213358362463221 
-0.03311089467849064 
0.3213358362463221 
0 
-0.07604299369804314 
0.09013204854851865 
0.09013204854851865 
0.09013204854851865 
0.09013204854851865 
0.09013204854851865 
0.09013204854851865 
0.09013204854851865 
0.09013204854851865 
0.03031539986769797 
0.09013204854851865 
0.09013204854851865 
0.03602117777860807 
0.09013204854851865 
0.09013204854851865 
0.04258255533532479 
0.0676160194362135 
0.04258255533532479 
0.04258255533532479 
0.04258255533532479 
0.04258255533532479 
0.04258255533532479 
0 
0 
0 
0 
0 
0 
0 
0 
-0.001077129192021424 
0.174876331768289 
-0.005919584538490674 
0.393428697563997 
0 
-0.2745355920410847 
0 
-0.08677818122126522 
0 
0 
0 
0.1700628867503221 
0.9150477175574956 
0 
0 
-0.1086779657391481 
0 
0 
0 
-0.004782966081235175 
-0.086374617638189 
0 
0 
0 
0 
0.05728661714457598 
-0.003023438647700819 
-0.003023438647700819 
0.2389559567100717 
0.07965198557002395 
0.02696491998116599 
0.07965198557002395 
0.07965198557002395 
0.3577632848437088 
0.07965198557002395 
0.09275027635596347 
0.09275027635596347 
-0.004782966081235175 
-0.004782966081235175 
0 
0 
0 
0 
0 
0 
0 
0.0638987594605783 
0 
0 
0 
0 
0 
0.03129382674873597 
0 
0 
0 
0 
0 
-0.05723789106342254 
-0.05723789106342254 
-0.07166833882028005 
-0.05723789106342254 
-0.05723789106342254 
-0.05723789106342254 
-0.1176065926356718 
0 
0 
-0.04303041985195765 
0.1127151552817697 
0.06126717447061885 
0 
0 
0 
0.02741372240814312 
-0.07713311673725706 
-0.3374805331916619 
0 
0 
0 
0 
0 
0 
0 
0 
0 
-0.4234766666477079 
0 
0 
0 
0 
0 
-0.2412281060414829 
0 
0 
0 
0 
0 
0 
0 
0 
0 
0 
0 
0 
0 
0 
0 
0 
0 
0 
0.05228758169934641 
0 
0 
0 
0 
-0.04523717167092392 
0 
0 
-0.07792916721872238 
0.2640736087973805 
-0.07792916721872238 
-0.07792916721872238 
-0.07792916721872238 
-0.07792916721872238 
-1.734723475976807e-18 
0 
0 
0 
0 
-0.04523717167092393 
-0.0007179856252051132 
0.03309838929272542 
0 
0 
0 
0 
0 
0 
0 
-0.002482140540814189 
-0.859047878036828 
-0.002482140540814189 
-0.1672187883411579 
-0.002482140540814189 
-0.002482140540814189 
-0.002482140540814189 
0 
-0.1045385405274589 
-0.1701860864146497 
-0.1045385405274589 
0.2928217742078811 
-0.01524749588259129 
-0.01524749588259129 
-0.01524749588259129 
-0.01524749588259129 
0 
-0.06622731231392995 
0.176134721965667 
-0.07501850760734909 
0 
-0.01210935700462342 
-0.01210935700462342 
0.05404299559501329 
-0.01210935700462342 
0 
0 
0.1662186489283924 
0.1662186489283924 
0.04104548275289698 
0 
-1.734723475976807e-18 
0.2811382278803993 
0 
0 
0 
0 
0 
0 
-0.002106508994889104 
0 
0 
-0.04303041985195766 
0.4247467952037092 
0.04637650109663687 
0 
-0.09092034306510878 
-0.09092034306510878 
-0.05533686250594148 
0 
-6.938893903907228e-18 
0 
0 
-0.06475149698742762 
0 
-0.05242542404282824 
0 
0 
0 
0 
0 
-0.1086665735461992 
-0.1552799647950127 
0 
-0.01723413906269732 
0 
0 
0 
0 
0 
0 
0 
0 
-0.02604483863919667 
0 
0 
0.01587740304228411 
0 
0 
0 
0 
0 
-0.06888616261567568 
0 
0 
-0.02565943459960022 
0 
0 
0 
0 
0 
0 
0 
0 
0 
-0.07501850760734907 
0 
0 
0 
0 
0 
0 
0 
0 
0 
0 
0 
0 
0 
0 
0.1296797511837475 
0 
0 
-0.1399064198061214 
-1.787745219513402 
-0.1447425701315722 
-0.1447425701315722 
-0.1447425701315722 
0 
0 
0 
0 
0 
0 
0.556299449344562 
0 
0 
0 
0 
0 
0 
0 
0 
0 
0 
-0.06767526149469959 
-0.02574874776601026 
0.173355753084538 
0.173355753084538 
0.173355753084538 
0.173355753084538 
0 
-0.07989023168724352 
0 
0 
0 
-0.8476395101044338 
0 
0 
0 
0 
0 
0 
0 
0 
0 
-0.6897062711999139 
0 
0 
0.05272664025681443 
0.05272664025681443 
0.05272664025681443 
0.05272664025681443 
0 
-0.3709696748578403 
0 
0 
0 
0 
0 
0 
0 
0 
0 
0 
0 
0 
-0.05533686250594148 
0 
0 
0 
0 
0 
0 
0 
0 
0 
0.03560329653026442 
0 
0 
0 
-0.1854848374289201 
0 
-0.01312677331573974 
0 
-0.1086665735461992 
0 
0 
0.01980507851750712 
0 
0 
0 
0 
0 
0 
0 
-0.03595237504478035 
0 
0 
0 
0 
0.02527334318071483 
0.3106567245741456 
0.3106567245741456 
0.3106567245741456 
0.03285495519563325 
0.1075598699910415 
0 
0 
0 
0.4806956263316535 
0.4806956263316535 
0.4212536437415361 
0.4806956263316535 
0.4806956263316535 
0.4806956263316535 
0.4806956263316535 
0 
0 
-0.1110586511592248 
0 
0 
0 
0 
0 
0 
0 
0 
-2.775557561562891e-17 
0 
0 
-6.938893903907228e-18 
0 
0 
0 
-0.01809895314346681 
0 
-0.02594018635281039 
0 
0 
0 
0 
-0.06908817434763959 
0 
0 
0 
0 
-0.01718754361741124 
0 
0 
0 
0 
0 
-0.06036870157224922 
-0.06036870157224922 
0 
0 
-0.03833748772996465 
-0.05944198259011661 
0.09693221579221969 
0 
0 
0 
0 
0 
0 
0 
-0.1111815669990047 
0.05069289870048915 
-0.01723413906269732 
0 
0.1123058531974316 
0 
0 
0 
0 
0 
0 
0 
-0.05147678907891869 
0 
0 
0 
0 
0 
0 
0 
0 
0 
0 
-0.04420679148233802 
-0.1667778767467673 
-0.1667778767467673 
-0.08338893837338365 
-0.08338893837338365 
-0.08338893837338365 
-0.08338893837338365 
-0.08338893837338365 
-0.08338893837338365 
-0.08338893837338365 
-0.09533866594044467 
-0.05688488084264939 
-0.08338893837338365 
0.1263112700269624 
0 
0 
0 
0.1312346775822879 
0 
0 
0 
0 
0 
0 
0 
0 
0 
-0.02689395922409031 
-0.8040928228967112 
-0.01817590206112091 
-0.01817590206112091 
-0.01817590206112091 
-0.01817590206112091 
-0.05760144795993542 
-0.01161439088233911 
0 
0 
0 
0 
0 
0 
0.376859254135734 
-0.006578902037782563 
-0.009868353056673823 
-0.003289451018891281 
-0.003289451018891281 
-0.003289451018891283 
0.07692280457500102 
0.02160477076109536 
0.002380816841841958 
0 
0 
0 
0 
0 
0 
0 
0 
0 
0 
0 
-0.02159365440954725 
0 
0 
0 
0 
0 
0 
0 
0 
0.1700628867503221 
0 
0 
0.2253387198042846 
0.06601302127603509 
-0.02778188005688728 
0 
0 
0.6972275636454435 
0.3486137818227217 
0 
0 
0.2295358899993458 
-0.01426441937384118 
-0.01426441937384118 
-0.01426441937384118 
-0.01426441937384118 
0 
0 
0.05146379568079039 
0 
0 
0 
0.01796623247475919 
0 
0 
0 
-0.09055147820040946 
0 
0 
0 
0 
0 
0 
0 
0 
0 
0 
0 
0 
0 
0 
0 
0 
0 
0.5341053789427347 
0.5341053789427347 
0.5341053789427347 
-0.06564754588719045 
0 
0 
-0.1175483220080563 
0.02651453307184146 
0 
0 
0 
0 
0.05228758169934641 
-0.03235071010718557 
0 
0 
0 
0 
0 
0 
0 
0 
0 
0 
0 
0 
0 
0 
0 
0 
0 
0 
0 
0 
-0.006658479625682312 
0 
0.06702563346188445 
0 
0 
0 
0 
0 
0 
-0.2658411106882864 
-0.01718754361741124 
-0.01669041505930234 
0 
-0.179188274499681 
0 
0 
0 
0 
0 
-0.03456720428036697 
-0.03456720428036697 
-0.03456720428036697 
-0.04303041985195764 
0 
0 
0.9632667401841801 
0.9632667401841801 
0 
0 
0.1939440467129972 
0.1939440467129972 
-0.4504241870943199 
0 
0 
0 
0 
-0.01312677331573974 
-0.01312677331573974 
0 
-0.007497175432628848 
0 
0 
0 
0.1295627912833639 
0.1295627912833639 
0 
0 
0 
0 
0 
0 
0 
0 
0 
0 
0 
0 
0 
0 
0 
0.2979128796110301 
0 
0 
0 
0.2933831234323173 
0 
0 
-0.04523717167092393 
0.05069289870048915 
0 
0 
0 
-0.007156831082367483 
-0.007156831082367483 
-0.8590228909862625 
0 
0.09778217904637787 
0 
0 
0 
0 
0 
0 
0 
0 
0 
0 
0 
-0.08144003523149411 
0 
0 
0 
0 
0 
0 
0 
0 
0 
-0.05760144795993542 
-0.1245684190049967 
0.178760694666065 
-0.6843295725264038 
-0.02169157411199742 
-0.02957747079228562 
-0.05715886763710566 
-0.02957747079228562 
-0.02957747079228562 
-0.04681160985498298 
-0.02957747079228562 
0 
-0.01191512301684516 
0.03808764659961811 
0 
-0.8607718178065626 
0 
0 
0 
0 
0 
0 
0 
0 
0 
0 
-0.6311996967416409 
0 
0 
0 
0 
0 
0.01859408965571847 
-0.3417414737694724 
-0.3417414737694724 
0 
0 
-0.5271604859789731 
-0.2334047230674753 
-0.2393799176701815 
-0.1196899588350907 
-0.1196899588350907 
0 
0 
0 
0 
0 
0 
0 
0 
0 
0 
0.05636112122348295 
0.06959968846175123 
-0.01029949119937323 
-0.01029949119937323 
0 
0 
0 
0 
0 
0 
-0.03235071010718558 
-0.03235071010718558 
0.1543001080129986 
-0.03235071010718558 
-0.03235071010718558 
-0.03235071010718558 
0.2925791432162866 
0.2925791432162866 
0 
-0.01723413906269732 
-0.01723413906269732 
-0.01723413906269732 
-0.01723413906269732 
-0.01723413906269732 
-0.06389047768880443 
-0.01723413906269732 
-0.01723413906269732 
-0.01723413906269732 
-0.01723413906269732 
0 
0.9784147625479327 
0.959641780634001 
0 
0 
0 
0 
0 
0 
0 
0 
0 
0 
0 
0 
0 
0 
0 
0 
-0.01194972756706109 
0 
0 
-0.02543224221360877 
0 
0 
0 
0 
0 
0 
0 
0 
-0.0007179856252051145 
-0.000717985625205115 
-0.007897841877256249 
0 
0 
0 
0 
0 
0 
0 
0 
0 
0 
0 
0 
0.03350535508307789 
0 
0 
0 
0 
-0.009964079888093221 
0 
0 
0 
0 
0 
0 
-0.09092034306510878 
-0.09092034306510878 
-0.09092034306510878 
-0.09092034306510878 
-0.09092034306510878 
-0.09092034306510878 
0 
0 
0 
0 
0 
0 
-0.03833748772996464 
0 
0 
0.07135931059088901 
0 
0.59582575922206 
0.29791287961103 
0.29791287961103 
0.29791287961103 
0.5150982843625047 
0 
0 
0 
0 
0 
0 
0 
0 
0 
0 
0 
0 
0 
0 
0 
0 
0 
0 
0 
-0.05383093340337302 
-0.1614928002101194 
-0.01574328680375492 
-0.2436989125340407 
-0.05383093340337302 
0 
0.03309838929272541 
0 
-0.1414716446310786 
-0.02484922957780289 
0 
0 
0 
0 
0 
0 
0 
0.615399372488207 
0.02466179373579185 
0 
0 
0 
0 
0 
0 
0 
-0.0297696560541751 
0 
0 
0 
0 
0 
-0.05760144795993542 
0 
0 
0 
0.009673812934732681 
0.009673812934732681 
0.0505612636404798 
0.009673812934732681 
0.009673812934732681 
0.009673812934732681 
0 
0 
0 
-0.04533545340223434 
0 
0 
0.04088745070574717 
-0.1633951795736265 
0.5189848411602838 
0.04088745070574717 
0 
0 
0 
0 
0 
0 
0 
0 
0.1885160334674773 
0 
0 
0 
0 
-0.08953642344476651 
-0.009646191757522987 
-0.009646191757522987 
-0.009646191757522987 
-0.009646191757522987 
-0.009646191757522989 
-0.009646191757522987 
-0.009646191757522987 
0 
0 
0 
0 
0 
0 
0 
0 
-0.1854848374289201 
-0.01354840343126437 
-0.01354840343126437 
-0.01354840343126437 
-0.01354840343126437 
-0.01354840343126437 
0 
0 
-0.07392676562814293 
0 
0 
0 
0 
0 
4.336808689942018e-19 
0 
0 
0 
0 
0 
0 
0 
0 
0 
0 
0 
0 
0 
0 
0 
0 
0 
0 
-0.02159365440954725 
0 
0 
0 
0 
0 
0 
0 
0 
0 
0 
0 
0 
0 
0 
0.2300198345425796 
0.2300198345425796 
0.9496236234787236 
0.9496236234787236 
0 
0 
0 
0 
0 
-0.003642031430794381 
5.520344628534153e-05 
0 
0 
0 
0 
0 
0.1851755814976105 
0.1851755814976105 
0.1851755814976105 
-0.07360436054683116 
0 
0 
0 
0 
0.2008821664353426 
0 
0 
0 
-0.06250766810592721 
-0.06250766810592721 
-0.06250766810592721 
0 
0 
0 
0 
0 
0 
-0.0750483803118505 
0 
0 
0 
0 
0 
0 
0 
0 
0 
0 
0 
-0.01718754361741124 
0 
0 
0.04341456879779995 
0 
0 
0 
0 
0 
0 
0 
0 
-0.004213017989778208 
-0.1290400890002979 
-0.002106508994889104 
-0.004213017989778208 
0 
0 
0 
0 
0 
0 
0 
0 
0 
0 
0 
0 
0 
0 
0 
0 
0 
0 
-0.07442237797975139 
-0.07442237797975139 
-0.07442237797975139 
-0.0127588311706132 
-0.006379415585306598 
0 
0 
0 
0 
0 
0 
0 
0.4127573012499275 
0 
0 
0 
0.006422695246147463 
-0.003780733394310265 
-0.003780733394310265 
-0.003780733394310265 
-0.00756146678862053 
-0.003780733394310265 
-0.003780733394310265 
0 
0 
0 
0 
-0.04022788698096796 
0 
-0.9365323889222845 
0 
0 
0 
-0.03338083011860467 
-0.01669041505930234 
-0.01669041505930234 
-0.01669041505930234 
-0.01669041505930234 
-0.01814209684985109 
-0.3934071938057053 
0 
0 
0 
0 
0 
0 
0 
0 
0 
0 
0 
0 
0 
0 
-0.1026377383984009 
0 
0 
-0.03530011788304049 
0 
0 
0 
0 
0 
0 
-0.1362078090526614 
-0.1362078090526614 
-0.1362078090526614 
-0.1362078090526614 
-0.1745398376654106 
-0.1362078090526614 
-0.01042118590676895 
0 
0 
0 
0 
0 
-0.05533686250594148 
0 
0 
0 
0 
-0.01191512301684516 
0 
0 
0 
0 
0 
0 
0 
0 
0 
0 
-0.2747130714462374 
0 
0 
0.1682783547994865 
0 
0 
-0.03876296283370122 
-0.03876296283370122 
-0.03876296283370122 
-0.03876296283370122 
0 
0 
0 
0 
0 
0 
0 
0 
0 
0 
0 
0 
-0.09055147820040943 
-0.3184977651202502 
0 
0 
0 
0 
0 
-0.03113692059985869 
0 
0 
0 
0 
-0.07667497545992928 
-0.03833748772996464 
-0.03833748772996464 
0 
0 
0 
0 
0 
0.01671775964838797 
0 
0 
0 
-0.08677818122126522 
0 
0 
1.820094717008469 
0 
0 
0 
0 
0 
0 
-0.002106508994889104 
-0.002106508994889104 
-0.03947991124955568 
-0.002106508994889104 
-0.002106508994889104 
-0.002106508994889104 
-0.002106508994889104 
-0.002106508994889104 
-0.002106508994889104 
-0.002106508994889104 
-0.002106508994889104 
-0.002106508994889104 
-0.002106508994889104 
-0.002106508994889104 
-0.002106508994889104 
-0.002106508994889104 
-0.002106508994889104 
0 
0 
0 
0 
0 
0 
0 
0 
0 
0 
0 
0 
0 
-0.04544398868619602 
-0.04544398868619602 
-0.4234766666477079 
-0.2636783073254594 
1.767285268853334 
0 
0 
0 
-0.04149055886384482 
-0.08677818122126522 
-0.08677818122126522 
-0.08677818122126522 
0 
0 
0 
0 
-0.04642227564905448 
0 
0 
0 
0 
0 
0 
0 
0 
0 
0 
0 
0.1809100774360496 
0.1809100774360496 
0.1809100774360496 
0.1809100774360496 
0.1809100774360496 
0.1809100774360496 
0 
0 
0 
0 
0 
0 
0 
0 
0 
0 
0 
0 
0 
-0.2708839464546658 
0 
0 
0 
0 
0 
-0.121062124158191 
0 
0 
0 
0 
0 
0 
-0.1034381001537061 
0 
0 
0 
0 
-0.0509361179647214 
-0.0509361179647214 
-0.0509361179647214 
-0.0509361179647214 
-0.05807195441169555 
0 
0 
0 
0.1019755819261262 
0.3059267457783789 
0.1019755819261262 
0.1019755819261262 
0.1019755819261262 
0.1019755819261262 
0.1019755819261262 
0.1019755819261262 
0.1019755819261262 
0.1019755819261262 
0.1019755819261262 
0.1019755819261262 
0 
0 
0 
0 
0 
0 
0 
0 
-0.03696338281407147 
0 
0 
0 
0 
0 
-0.005130577114855944 
-0.005130577114855944 
-0.005130577114855944 
0 
-0.1390586385269305 
-0.1390586385269305 
-0.2756283886066996 
0 
0 
-0.3066050121187949 
0 
0 
-0.03412055177041731 
-0.03412055177041731 
0.3415116987761938 
-0.03412055177041731 
-0.03412055177041731 
0 
0 
0 
0 
-0.02565943459960022 
0 
0 
0 
0 
0.03572015348352051 
-0.3586867076931509 
0 
0 
0 
0 
0 
0 
0 
0 
0 
0 
-0.04303041985195765 
0 
0 
0 
0 
0 
0 
0 
0 
0 
0 
0 
0 
0 
0 
0 
0 
0 
0 
0.07067215273764382 
-0.06622731231392995 
-0.06622731231392995 
-0.06622731231392995 
-0.0474543303999996 
-0.06622731231392995 
-0.06622731231392995 
-0.06622731231392995 
0 
0 
-0.008885606170999857 
-0.008885606170999857 
-0.008885606170999857 
0 
0 
0 
0 
0 
0 
0.3756322505466111 
0.3756322505466111 
0.3756322505466111 
0.3756322505466111 
0.3756322505466111 
0 
0 
0 
0 
-0.1206140530207414 
0 
0 
0 
0 
0 
0 
0 
0 
-0.08605771685598573 
0 
0.04637650109663687 
0.04637650109663687 
0 
0 
-0.2778017693785124 
0 
0 
0 
0 
0 
0 
0 
0 
0 
0 
0 
0 
0 
0 
0 
-0.1037607454112416 
0 
0 
0 
0 
0 
-0.006658479625682312 
0 
0 
0 
0.002607027938106035 
0.002607027938106035 
-0.08642577280915124 
0 
0 
0 
-0.086374617638189 
-0.02159365440954725 
-0.02159365440954725 
-0.02159365440954725 
-0.02159365440954725 
-0.02159365440954725 
-0.02159365440954725 
-0.02159365440954725 
0 
0 
0 
0 
0 
0 
0 
0 
0 
0 
0 
0 
0 
0 
0 
0 
0 
0 
0 
0 
0 
0 
0 
0.209570241262443 
0.176134721965667 
0.176134721965667 
0.176134721965667 
0.176134721965667 
0.176134721965667 
0.176134721965667 
0 
0 
0 
0 
0 
0 
0 
0 
0 
0 
0 
0 
-0.04576693824726605 
-0.04576693824726605 
-0.04576693824726605 
0 
0 
0 
0 
0 
0 
0 
0 
0 
0.2031267773655037 
0 
0 
-0.05411087076991059 
0 
0 
0 
-0.04258575206447847 
0 
0.01688806589801359 
0 
0 
-0.06767526149469959 
0 
0 
0 
0 
-0.004181760266892375 
-0.004181760266892375 
-0.004181760266892375 
0.02925375902988355 
0 
0 
-0.8691321354947362 
0 
0 
0 
-0.02642387567229222 
-0.02222578001616332 
-0.02222578001616332 
-0.02222578001616332 
-0.02222578001616332 
0 
0 
0 
0 
-0.004308516768085698 
0 
0 
0 
0 
0 
0 
0.03560329653026442 
0 
0 
0 
-0.05131886919920044 
0 
0 
0 
-0.01443044775685757 
0 
0 
0 
0 
0 
0 
0 
0 
0 
0 
0 
0 
0 
0 
0 
0 
0 
0 
-0.04650105008558992 
0 
0 
0 
0 
-0.1245684190049967 
0 
0 
0 
0 
0 
0.2476242716325836 
0.2476242716325836 
0.2476242716325836 
0.2476242716325835 
0.2635016746748677 
0 
0 
0 
0.2709829351616514 
0.1023184243214591 
0.1023184243214591 
0.1023184243214591 
0.1023184243214591 
0.1023184243214591 
0.1023184243214591 
0.1023184243214591 
0.04104548275289696 
-0.07956857026784449 
0.04104548275289696 
0 
0 
0.1149697226637891 
0.1149697226637891 
0.1149697226637891 
-0.005644330356952325 
0.1149697226637891 
0.1494810070982687 
0.07474050354913436 
0.07474050354913436 
0.07474050354913436 
0.07474050354913436 
0.07474050354913436 
0.2713773469726939 
0.07474050354913436 
-6.938893903907228e-18 
-6.938893903907228e-18 
0 
0 
0 
0 
0 
0 
-0.04346734178117569 
0 
0 
0 
0 
0 
0 
0 
0 
0 
0 
0 
0 
0 
0 
0 
0 
0 
0 
0 
-0.01194972756706109 
0 
0.1191726646533604 
0.1616001016855386 
0.1191726646533604 
0.1191726646533604 
0.1191726646533604 
0.1191726646533604 
0.1191726646533604 
0.06730772281095966 
0.06730772281095966 
0.06730772281095967 
0.06730772281095966 
0.06730772281095966 
0.06730772281095966 
0.2019231684328788 
0.0563189457417909 
0.08043992753491594 
-0.2224551241275525 
-0.006886452685669936 
0.01877298191393028 
0.01877298191393028 
-0.183899399132401 
0.01877298191393028 
0.01877298191393028 
0.01877298191393028 
0.01877298191393028 
0.01877298191393028 
0.01877298191393028 
0.01877298191393028 
0.2192806841152588 
0.1936212495156587 
0.1096403420576294 
0.04062633319336356 
0.04062633319336356 
0 
0 
0 
0 
0 
0 
0 
0 
0.03309838929272542 
0 
0 
0.01671775964838797 
0.03343551929677594 
0.03343551929677594 
0.01671775964838797 
-0.04281878580779927 
0.01671775964838797 
0.01671775964838797 
0.03343551929677594 
0.01671775964838797 
0.01671775964838797 
-0.06464468881631874 
0.01671775964838797 
0.01671775964838797 
0.01671775964838797 
0.0446796161849304 
0.0446796161849304 
0.1013393382786728 
0.0223398080924652 
0.06535426805920931 
0.0223398080924652 
0.0223398080924652 
0.0223398080924652 
0.0223398080924652 
0.02550140767760631 
0.2047998136633411 
0.06779724806797637 
0.0500591395475455 
0.07899953018620759 
0.0500591395475455 
0.0500591395475455 
0.0500591395475455 
0.0715476791118935 
0 
0 
0 
0.1737386661396998 
0 
0 
0 
0 
0 
5.520344628534067e-05 
0.03192914832805592 
0 
0 
0 
0 
0 
-0.04495425468507469 
0 
0 
0 
0 
0.1084158627775215 
0.1084158627775215 
0.1084158627775215 
0.1084158627775215 
0.1084158627775215 
0.1084158627775215 
0.1084158627775215 
0.1084158627775215 
0.04301445996674427 
0.04301445996674427 
0.1824070492233927 
0.04301445996674427 
0.04301445996674427 
0.04301445996674427 
0.04301445996674427 
0.04301445996674427 
0.1983664178626631 
0.04301445996674427 
0.3158842507889624 
0.6667492501276352 
0.1068628177990584 
0.1068628177990584 
0.1068628177990584 
0.1068628177990584 
0.04637650109663688 
0.04637650109663687 
0.04637650109663687 
0.04637650109663687 
0 
0 
0 
0 
0.0001104068925706813 
5.520344628534067e-05 
5.520344628534067e-05 
5.520344628534067e-05 
5.520344628534067e-05 
5.520344628534067e-05 
5.520344628534067e-05 
5.520344628534067e-05 
5.520344628534067e-05 
0.0001104068925706813 
5.520344628534067e-05 
5.520344628534067e-05 
5.520344628534067e-05 
5.520344628534067e-05 
5.520344628534067e-05 
5.520344628534067e-05 
5.520344628534067e-05 
0.1790902141815754 
5.520344628534067e-05 
5.520344628534067e-05 
0 
0.02138188689265896 
0.3975018014804215 
0.3975018014804215 
0.4906791407168189 
0.04341456879779995 
0 
0 
0.4603504076304453 
0.02696678090975664 
0.2077714001523037 
-0.09693422905442978 
-0.09693422905442978 
-0.09693422905442978 
-0.09693422905442978 
8.890457814381136e-18 
0 
0 
0 
-0.1854848374289201 
0 
0 
0 
0 
0 
0 
0 
0 
0 
0 
0 
0 
0 
0.2298201265033478 
0.02858396609121252 
0.02858396609121252 
0.2311233593206654 
0.2311233593206654 
0.2311233593206654 
0.2311233593206654 
-0.4752978162540237 
-0.4752978162540237 
0.2295358899993458 
0.2295358899993458 
0 
0 
0 
0.08239442293324599 
0.05198304629189932 
0 
0 
0 
0.1060162301229371 
0 
0 
0 
0.07676970365320443 
0 
0 
0 
-0.1566185763132121 
-0.1566185763132121 
0 
0 
0 
0 
0 
0 
0 
0 
0 
-0.1715636985317105 
-0.02151131011136325 
-0.02151131011136325 
0.04058874188125516 
-0.007170436703787754 
-0.007170436703787754 
-0.007170436703787754 
-0.0360313322175029 
-0.007170436703787754 
-0.007170436703787754 
-0.007170436703787754 
-0.007170436703787754 
-0.007170436703787754 
0.1049293831343034 
0.1049293831343034 
0.1049293831343034 
0.1049293831343034 
0.2098587662686069 
0.02746480764441533 
0.02746480764441533 
0.05492961528883065 
0.05492961528883065 
0.02746480764441533 
0.02746480764441533 
0.02746480764441533 
0.02746480764441533 
0.05492961528883065 
0.02746480764441533 
0.02746480764441533 
0.02746480764441533 
0.02746480764441533 
0.02746480764441533 
0.02746480764441533 
-0.05296920927510593 
-0.05296920927510593 
-0.1059384185502119 
-0.05296920927510593 
-0.05296920927510593 
-0.1059384185502119 
-0.05296920927510593 
-0.05296920927510593 
-0.05296920927510593 
-0.05296920927510593 
-0.05296920927510593 
-0.05296920927510593 
-0.05296920927510593 
-0.05296920927510593 
-0.05296920927510593 
-0.05296920927510593 
-0.05296920927510593 
-0.05296920927510593 
-0.05296920927510593 
-0.05296920927510593 
-0.05296920927510593 
-0.05296920927510593 
-0.05296920927510593 
-0.07501850760734906 
0.01348339045487832 
0.01348339045487832 
0.0399533243316265 
0.02696678090975664 
0.07192267739158045 
0.4044009600227519 
7.806255641895632e-18 
2.710505431213761e-19 
5.421010862427522e-19 
0.0158774030422841 
0.2076572457239968 
0.1971203368992367 
0 
0 
0 
0 
0 
0.1338732289616596 
0.02760868566107438 
0 
0.01053690882475997 
0.1312346775822879 
-0.1854848374289201 
-0.1854848374289201 
-0.1854848374289201 
-0.04495425468507469 
-0.04495425468507469 
-0.04495425468507469 
-0.04495425468507469 
-0.04495425468507469 
0.005470513078417226 
-0.02018892152118302 
0.005470513078417226 
0.005470513078417226 
0.005470513078417226 
0.005470513078417226 
0.01094102615683445 
0.005470513078417226 
0.005470513078417226 
-0.3419773478748618 
-1.206043626252607 
0 
0.07989917966112438 
0.07989917966112438 
0.07989917966112438 
0.07989917966112438 
0.07989917966112438 
0.07989917966112438 
0.08306077924626538 
0.07989917966112438 
0.07989917966112438 
0.07989917966112438 
0.07989917966112438 
0.07989917966112438 
0.07989917966112438 
0.07989917966112438 
0.07989917966112438 
0.07989917966112438 
0.07989917966112438 
0.07989917966112438 
0.07120659306052883 
0.03560329653026442 
0.03560329653026442 
0.07120659306052883 
0.03560329653026442 
-0.02990832434041034 
-0.02990832434041034 
-0.02990832434041034 
-0.02990832434041034 
-0.02990832434041034 
-0.02990832434041034 
-0.02990832434041034 
-0.05981664868082068 
-0.02990832434041034 
-0.02990832434041034 
-0.02990832434041034 
-0.02990832434041034 
-0.02990832434041034 
-0.02990832434041034 
-0.02990832434041034 
-0.02990832434041034 
0 
-0.07580984282158974 
0 
0 
0 
0 
0 
0 
0 
-0.1713981845993606 
-0.2481678882525648 
-0.1713981845993606 
-0.2481678882525648 
-0.2481678882525648 
-0.3979611927573404 
-0.4705882352941176 
-0.4705882352941176 
-0.06435962172990378 
-0.06435962172990378 
-0.1287192434598076 
-0.06435962172990378 
-0.06435962172990378 
-0.06435962172990378 
-0.06435962172990378 
-0.06435962172990378 
-0.06435962172990378 
-0.06435962172990378 
-0.3415612255029699 
-0.3415612255029699 
-0.1544920548458753 
0.32 
0.32 
0.32 
0.1682783547994865 
0.206366001399105 
0.336556709598973 
0.1682783547994865 
0.1682783547994865 
0.1682783547994865 
0.5467243819220162 
0.5467243819220162 
-0.01370562919967191 
-0.07989023168724352 
-0.07989023168724352 
-0.07989023168724352 
-0.07989023168724352 
0.6511634669276956 
-0.3221982134215423 
-0.3221982134215423 
-0.3221982134215423 
-0.2438485880628409 
-0.2438485880628409 
0.1971203368992367 
0.8888888888888888 
-0.0551627936896399 
-0.02758139684481995 
-0.02758139684481995 
-0.0551627936896399 
-0.08274419053445989 
-0.02758139684481995 
-0.02758139684481995 
-0.02758139684481995 
-0.0551627936896399 
-0.02758139684481995 
-0.02758139684481995 
-0.02758139684481995 
-0.02758139684481995 
-0.02758139684481995 
-0.02758139684481995 
-0.02758139684481995 
-0.02758139684481995 
-0.02758139684481995 
0 
0 
0.01688806589801359 
0 
0 
0 
0.08595805619862361 
0.08595805619862361 
0.08595805619862361 
0.1719161123972472 
0.08595805619862361 
0.08595805619862361 
0.08595805619862361 
-0.0372228048718971 
-0.05411087076991059 
-0.05411087076991059 
-0.05411087076991059 
-0.05411087076991059 
-0.05411087076991059 
-0.09310629714981716 
-0.05411087076991059 
-0.2300617862965934 
-0.05411087076991059 
-0.05411087076991059 
-0.05411087076991059 
0.01707177683631438 
0 
0.01707177683631438 
0 
-0.03790492141079487 
-0.03790492141079487 
-0.03790492141079487 
0.03309838929272541 
0.03309838929272542 
0.03309838929272542 
0.03309838929272542 
0.03309838929272542 
0.03309838929272542 
0.05069289870048915 
0.05069289870048915 
0.05069289870048915 
0.05069289870048915 
0.1013857974009783 
0.05069289870048915 
0.05069289870048915 
0.05069289870048915 
0.05069289870048915 
0 
0 
0 
-0.04793780082232617 
-0.04793780082232617 
-0.02396890041116308 
-0.02396890041116308 
-0.02396890041116308 
-0.02396890041116308 
-0.02396890041116308 
-0.02396890041116308 
-0.02396890041116308 
-0.02396890041116308 
-0.02396890041116308 
-0.02396890041116308 
-0.02396890041116308 
-0.02396890041116308 
-0.02396890041116308 
-0.02396890041116308 
-0.02396890041116308 
-0.02396890041116308 
-0.02396890041116308 
-0.02396890041116308 
-0.04698666528616754 
-0.02396890041116308 
-0.02396890041116308 
-0.02396890041116308 
-0.1867827462446546 
-0.1867827462446546 
0 
0 
-0.06564754588719045 
0.0522875816993464 
0 
0 
0 
0 
0 
0.05228758169934641 
0.1568627450980392 
0 
0.0522875816993464 
0 
0.02138188689265896 
0.05031984696066422 
0.02138188689265896 
0.02138188689265896 
0.02138188689265896 
0.05031984696066422 
0.2582285835668076 
0.2582285835668076 
0.2582285835668076 
0.2582285835668076 
0.2582285835668076 
0.02858396609121252 
-0.1140557718704353 
-0.1140557718704353 
-0.1140557718704353 
-0.1140557718704353 
-0.1140557718704353 
-0.1140557718704353 
-0.1140557718704353 
-0.1140557718704353 
0.09439592949823743 
0.1312346775822879 
0 
0.2021233505348116 
-0.06564754588719045 
-0.06564754588719045 
-0.06564754588719045 
-0.06564754588719045 
-0.06564754588719045 
-0.06564754588719045 
-0.06564754588719045 
-0.09055147820040946 
-0.09055147820040946 
-0.09055147820040946 
-0.09055147820040946 
-0.09055147820040946 
-0.09055147820040946 
0 
0 
-0.1509220977085695 
-0.1509220977085695 
-0.1509220977085695 
-0.1509220977085695 
-0.07546104885428473 
-0.07546104885428473 
-0.09847881372928918 
-0.07546104885428473 
-0.07546104885428473 
-0.07546104885428473 
-0.1110586511592248 
-0.1110586511592248 
-0.1110586511592248 
-0.1110586511592248 
-0.1110586511592248 
-0.02301776487500453 
-0.04603552975000906 
-0.02301776487500453 
-0.02301776487500453 
-0.02301776487500453 
-0.02301776487500453 
-0.02301776487500453 
-0.02301776487500453 
-0.04603552975000906 
-0.02301776487500453 
-0.02301776487500453 
-0.02301776487500453 
-0.04603552975000906 
-0.02301776487500453 
-0.02301776487500453 
-0.02301776487500453 
-0.02301776487500453 
-0.02301776487500453 
-0.02301776487500453 
-0.04603552975000906 
-0.02301776487500453 
-0.02301776487500453 
-0.02301776487500453 
0.8888888888888888 
0.01947976231223402 
0.01947976231223402 
0.01947976231223402 
-0.01028989374194107 
0.03895952462446804 
0.01947976231223402 
0.01947976231223402 
0.1447721589315355 
0.08182526818575873 
0.01947976231223402 
0.01947976231223402 
0.01947976231223402 
0.01947976231223402 
0.06615235259963667 
0.06615235259963667 
0.06615235259963667 
0.06615235259963667 
0.06615235259963667 
0.06615235259963667 
0.05300811506146854 
0.02650405753073427 
-0.01873311414018966 
0.07951217259220292 
0.05300811506146854 
0.02650405753073427 
0.02650405753073427 
0.02650405753073427 
0.02650405753073427 
0.02650405753073427 
0.02650405753073427 
0.02650405753073427 
0.02650405753073427 
0.02650405753073427 
-0.01634292068627719 
0.02650405753073427 
0.02650405753073427 
0.02650405753073427 
-0.05533686250594148 
-0.05533686250594148 
-0.05533686250594148 
-0.05533686250594148 
-0.05533686250594148 
-0.05533686250594148 
-0.05533686250594148 
-0.05533686250594148 
-0.05533686250594148 
-0.05533686250594148 
-0.05533686250594148 
-0.05533686250594148 
0 
0 
0 
0 
0 
0 
0 
0 
0 
0 
-0.04456715799214069 
-0.08913431598428137 
-0.04456715799214069 
-0.04456715799214069 
-0.04456715799214069 
0.003161599585141067 
0.003161599585141067 
0.003161599585141067 
0.003161599585141067 
0.003161599585141067 
0.003161599585141067 
-0.07215223878428778 
-0.01443044775685757 
-0.01443044775685757 
-0.01443044775685757 
-0.01443044775685757 
-0.01443044775685757 
-0.01443044775685757 
-0.01443044775685757 
-0.01443044775685757 
-0.02604483863919667 
-0.01443044775685757 
-0.01443044775685757 
-0.01443044775685757 
-0.01443044775685757 
-0.01443044775685757 
-0.01443044775685757 
-0.01443044775685757 
-0.01443044775685757 
-0.3387960771659482 
-0.3222817831371658 
-0.3222817831371658 
-0.3222817831371658 
0.615399372488207 
0.2008821664353426 
0.2008821664353426 
0.2008821664353426 
0.2008821664353426 
0 
0 
0 
0 
0.05066419769404081 
0 
0 
0 
0 
0 
0 
0 
0 
0 
0 
0 
0 
0 
0.05198304629189932 
0.05198304629189932 
0.05198304629189932 
0.05198304629189932 
0.05198304629189932 
0.05198304629189932 
0.1866508181201841 
0.1866508181201841 
0.1866508181201841 
0.1866508181201841 
0.1866508181201841 
0.01707177683631437 
0.03814559448583426 
0.1373363712705293 
0.1373363712705293 
-0.4705882352941176 
-0.4705882352941176 
0 
0 
0 
0 
0 
0 
0.0454574399755111 
-0.2822922081096145 
-0.1411461040548073 
0.2664960335668321 
0.2664960335668321 
0.2664960335668321 
-0.1325637805878025 
-0.04779891026824436 
-0.01194972756706109 
-0.01194972756706109 
-0.02389945513412218 
-0.01194972756706109 
-0.05718689923798503 
-0.01194972756706109 
-0.01194972756706109 
-0.01194972756706109 
0.09693221579221969 
0.09693221579221969 
0.1731075089914564 
0.09693221579221969 
0.1938644315844394 
0.09693221579221969 
0.09693221579221969 
0.09693221579221969 
0.09693221579221969 
0.09693221579221969 
0.09693221579221969 
0.09693221579221969 
-0.03833202861274923 
-0.02144396271473564 
-0.03833202861274923 
-0.03833202861274923 
-0.03833202861274923 
-0.03833202861274923 
-0.03833202861274923 
-0.03833202861274923 
-0.03833202861274923 
-0.03833202861274923 
0 
0 
0 
0 
0 
0 
0 
0 
0 
0 
0 
0 
0 
0 
0 
0.3025752619737713 
-0.04523717167092393 
-0.04523717167092393 
-0.04523717167092393 
-0.04523717167092393 
-0.04523717167092393 
-0.09047434334184785 
-0.04523717167092393 
-0.04523717167092393 
-0.04523717167092393 
0.05228758169934641 
0.05228758169934641 
0.05228758169934641 
0.05228758169934641 
0.08077310443408095 
0.162213139665575 
-0.03899542637990665 
-0.03899542637990665 
-0.3258109162227202 
-0.3258109162227202 
-0.2491082659610797 
-0.1245541329805399 
-0.1245541329805399 
0.3296297636295746 
-0.488511833693938 
0 
0.1700628867503221 
0.1700628867503221 
0.1700628867503221 
0.1700628867503221 
0.1553519578959189 
0.1553519578959189 
-0.04665633862610723 
-0.04665633862610723 
-0.04665633862610723 
-0.04665633862610723 
-0.04665633862610723 
-0.04665633862610723 
-0.06384388224351847 
-0.04665633862610723 
-0.04665633862610723 
-0.04665633862610723 
-0.04665633862610723 
-0.04665633862610723 
0.06126717447061885 
0.07180408329537877 
0.06126717447061885 
0.06126717447061885 
0.1925018520529065 
0.07815524036863229 
0.06126717447061885 
-0.02594018635281039 
-0.02594018635281039 
-0.01718754361741124 
-0.01718754361741124 
-0.01718754361741124 
-0.01718754361741124 
-0.01718754361741124 
-0.03437508723482249 
-0.01718754361741124 
-0.01718754361741124 
-0.01718754361741124 
-0.01718754361741124 
-0.01718754361741124 
-0.01718754361741124 
-0.01718754361741124 
-0.01718754361741124 
-0.01718754361741124 
-0.01718754361741124 
-0.01718754361741124 
-0.01718754361741124 
-0.01718754361741124 
-0.01718754361741124 
-0.01718754361741124 
-0.01718754361741124 
-0.01718754361741124 
0.08187782782150145 
0.08187782782150145 
0.05540789394475344 
0.02646993387674807 
-0.09130127302287688 
-0.09130127302287688 
-0.1826025460457538 
-0.1826025460457538 
-0.09130127302287688 
-0.09130127302287688 
-0.09130127302287688 
-0.02976965605417509 
-0.02976965605417509 
-0.05953931210835019 
-0.02976965605417509 
-0.02976965605417509 
-0.02976965605417509 
-0.02976965605417509 
-0.02976965605417509 
-0.02976965605417509 
-0.02976965605417509 
-0.02976965605417509 
-0.02976965605417509 
0 
0 
0 
0 
0 
0 
0 
0 
0 
0 
0 
0 
0 
0 
0 
0 
0 
0 
0.174876331768289 
0.384173335158715 
0.04341456879779995 
0.0868291375955999 
0.04341456879779995 
-0.4705882352941176 
0 
0 
0 
0 
0 
0 
0 
0 
0 
0.0454574399755111 
0.0454574399755111 
0.0454574399755111 
0.0454574399755111 
0.0454574399755111 
0.0454574399755111 
0.0454574399755111 
0.0454574399755111 
0.4964395350094536 
0 
0.440549369198849 
0.440549369198849 
0.06383259045244577 
0.02858396609121252 
0.02858396609121252 
0.02858396609121252 
0.02894039063866208 
0.02894039063866208 
0.02894039063866208 
0.1472850545181895 
0.02894039063866208 
-0.04149055886384482 
-0.04149055886384482 
-0.04149055886384482 
-0.04149055886384482 
0.1578701503224287 
0.1578701503224287 
0.1578701503224287 
-0.4705882352941176 
-0.4705882352941176 
0.04242743703217786 
0.08485487406435573 
0.04242743703217786 
0.08485487406435573 
0.04242743703217786 
0.04242743703217786 
0.04242743703217786 
0.04242743703217786 
0.08485487406435573 
0 
-0.1245684190049967 
-0.1245684190049967 
-0.1245684190049967 
-0.1245684190049967 
-0.1245684190049967 
-0.1245684190049967 
-0.3178839940536955 
-0.3178839940536955 
0 
0 
0 
-0.02322878176467822 
-0.01161439088233911 
-0.01161439088233911 
-0.01161439088233911 
-0.01161439088233911 
-0.01161439088233911 
-0.01161439088233911 
-0.01161439088233911 
-0.01161439088233911 
-0.01161439088233911 
-0.01161439088233911 
-0.01161439088233911 
-0.01161439088233911 
-0.01161439088233911 
-0.01161439088233911 
-0.01161439088233911 
-0.01161439088233911 
0 
0 
0 
0 
0 
-0.0814400352314941 
-0.0814400352314941 
-0.0814400352314941 
-0.0814400352314941 
-0.0814400352314941 
-0.0814400352314941 
-0.0814400352314941 
0.4280108249198905 
-0.04346734178117569 
-0.04346734178117569 
-0.04346734178117569 
-0.08693468356235139 
-0.04346734178117569 
-0.04346734178117569 
-0.04346734178117569 
0.09555750832953719 
0 
0 
0.07676970365320443 
0.1535394073064089 
0.2303091109596131 
0.2303091109596131 
0.07676970365320443 
-0.05131886919920044 
-0.02565943459960022 
-0.02565943459960022 
-0.07697830379880062 
-0.05131886919920044 
-0.05131886919920044 
-0.05131886919920044 
-0.02565943459960022 
-0.02565943459960022 
-0.02565943459960022 
-0.02565943459960022 
-0.02565943459960022 
-0.02565943459960022 
-0.02565943459960022 
-0.02565943459960022 
-0.02565943459960022 
-0.02565943459960022 
-0.02565943459960022 
-0.8888888888888888 
0.0380876465996181 
0.1523505863984724 
0.0380876465996181 
0.0380876465996181 
0.0380876465996181 
0.0380876465996181 
0.0380876465996181 
0.0380876465996181 
0.0380876465996181 
0.0380876465996181 
-0.09444914041786265 
-0.09444914041786265 
-0.09444914041786265 
-0.1888982808357253 
-0.09444914041786265 
-0.09444914041786265 
0.09555750832953719 
0.09555750832953719 
0.09555750832953719 
0.01587740304228411 
0.01587740304228411 
0.03175480608456821 
0.03175480608456821 
0.01587740304228411 
0.01587740304228411 
0.01587740304228411 
0.01587740304228411 
0.01587740304228411 
0.01587740304228411 
0.01587740304228411 
0.01587740304228411 
0 
0 
0 
0 
0 
-0.04303041985195765 
-0.04303041985195765 
-0.0860608397039153 
-0.04303041985195765 
-0.04303041985195765 
-0.04303041985195765 
-0.04303041985195765 
-0.04303041985195765 
-0.0860608397039153 
-0.04303041985195765 
-0.04303041985195765 
-0.02614235395394406 
-0.04303041985195765 
-0.04303041985195765 
-0.04303041985195765 
-0.04303041985195765 
-0.04303041985195765 
0.1183446638795268 
0.1183446638795268 
0.1183446638795268 
-0.03696338281407147 
-0.03696338281407147 
-0.03696338281407147 
-0.03696338281407147 
-0.03696338281407147 
-0.03696338281407147 
-0.03696338281407147 
-0.03696338281407147 
-0.03696338281407147 
-0.03696338281407147 
-0.03696338281407147 
-0.02791033142268622 
-0.02791033142268622 
-0.02791033142268622 
-0.02791033142268622 
-0.02791033142268622 
-0.02791033142268622 
-0.02791033142268622 
-0.02791033142268622 
-0.02791033142268622 
-0.02791033142268622 
-0.02791033142268622 
-0.02791033142268622 
-0.02791033142268622 
0.0915964959046016 
0.0915964959046016 
0.0915964959046016 
0.0915964959046016 
-0.04642227564905448 
-0.1817727986384534 
-0.05760144795993542 
-0.05760144795993542 
-0.05760144795993542 
-0.1898679791306679 
-0.1898679791306679 
-0.1898679791306679 
-0.06767526149469959 
-0.3066050121187949 
-0.3066050121187949 
-0.3066050121187949 
-0.3066050121187949 
0.08444032949006786 
0.05066419769404081 
0.01688806589801359 
0.01688806589801359 
0.01688806589801359 
0.01688806589801359 
0.01688806589801359 
0.01688806589801359 
0.01688806589801359 
0.01688806589801359 
0.01688806589801359 
0.01688806589801359 
0.03377613179602718 
0.01688806589801359 
0.01688806589801359 
0.01688806589801359 
0.01688806589801359 
0.01688806589801359 
0.01688806589801359 
0.01688806589801359 
0.03377613179602718 
0 
0 
0.5735335884072589 
0 
0 
0 
0 
-0.1009322087698581 
-0.1009322087698581 
-0.1009322087698581 
-0.1009322087698581 
-0.1009322087698581 
-0.1009322087698581 
-0.1009322087698581 
-0.1009322087698581 
-0.1009322087698581 
-0.1009322087698581 
-0.1009322087698581 
0.09439592949823743 
0.06134715593228843 
-0.1206140530207414 
-0.1206140530207414 
-0.1206140530207414 
-0.1206140530207414 
-0.1206140530207414 
-0.1206140530207414 
-0.1206140530207414 
-0.1206140530207414 
-0.1206140530207414 
-0.1206140530207414 
-0.1206140530207414 
-0.01152017168177836 
-0.01152017168177836 
-0.01152017168177836 
-0.01152017168177836 
0 
0 
0 
0 
0 
0.03192914832805592 
0.03192914832805592 
0.03192914832805592 
0.03192914832805592 
0.03192914832805592 
0.03192914832805592 
0 
0.1312346775822879 
0 
0 
-0.08520435010359831 
-0.08520435010359831 
-0.08520435010359831 
-0.08520435010359831 
-0.08520435010359831 
-0.08520435010359831 
0.1312346775822879 
0.1312346775822879 
-0.3767167787464032 
-0.4705882352941176 
1.018598852020161 
0 
0.3025752619737713 
0.3025752619737713 
